<?xml version="1.0"?>
<opencv_storage>
<my_svm type_id="opencv-ml-svm">
  <svm_type>C_SVC</svm_type>
  <kernel><type>RBF</type>
    <gamma>2.</gamma></kernel>
  <C>3.1250000000000000e-002</C>
  <term_criteria><epsilon>2.2204460492503131e-016</epsilon>
    <iterations>100</iterations></term_criteria>
  <var_all>324</var_all>
  <var_count>324</var_count>
  <class_count>2</class_count>
  <class_labels type_id="opencv-matrix">
    <rows>1</rows>
    <cols>2</cols>
    <dt>i</dt>
    <data>
      0 1</data></class_labels>
  <sv_total>200</sv_total>
  <support_vectors>
    <_>
      2.72738010e-001 1.30362764e-001 8.16345215e-002 4.34825979e-002
      8.51741135e-002 8.53425413e-002 8.01246390e-002 8.90775919e-002
      2.54439533e-001 2.93438047e-001 1.93290710e-001 9.04232264e-002
      6.49986193e-002 3.52406614e-002 1.00145102e-001 1.45730227e-001
      1.68716744e-001 2.93438047e-001 2.93438047e-001 5.35488576e-002
      5.31661585e-002 3.66627201e-002 1.98463827e-001 1.84025154e-001
      1.39323890e-001 1.01294227e-001 2.93438047e-001 2.93438047e-001
      1.55398607e-001 3.31413262e-002 8.42776895e-002 1.38662517e-001
      6.02221563e-002 6.33764118e-002 8.33385140e-002 2.93438047e-001
      2.99563855e-001 1.33505136e-001 4.52865995e-002 3.07791140e-002
      2.09614970e-002 4.92947176e-002 7.51106516e-002 8.96017551e-002
      2.35470727e-001 3.02157551e-001 1.54610947e-001 4.52379249e-002
      3.07374895e-002 3.60599235e-002 1.95173230e-002 1.28005054e-002
      4.51463461e-002 2.11273625e-001 3.02157551e-001 1.85488269e-001
      4.62568700e-002 1.19711131e-001 7.80797899e-002 2.82436814e-002
      4.24872115e-002 6.60305992e-002 3.02157551e-001 3.02157551e-001
      2.43230358e-001 2.21994489e-001 2.49685362e-001 1.94951400e-001
      2.88925841e-002 3.14459838e-002 8.92869458e-002 3.02157551e-001
      2.84538537e-001 1.21862389e-001 7.14202449e-002 6.71277493e-002
      4.38685901e-002 2.60092691e-002 2.19863337e-002 7.69443810e-002
      1.49480000e-001 2.39749655e-001 1.26068398e-001 2.35792100e-001
      1.32943988e-001 1.45400569e-001 1.55402333e-001 1.61843032e-001
      9.14273933e-002 1.08624183e-001 2.84538537e-001 1.48559302e-001
      2.84538537e-001 2.84538537e-001 1.69668972e-001 2.79422458e-002
      1.61118824e-002 9.00359303e-002 2.42482260e-001 2.21862063e-001
      1.28882214e-001 2.84538537e-001 2.84538537e-001 1.20476887e-001
      5.39966784e-002 5.62774092e-002 5.18884212e-002 9.67690125e-002
      2.28426024e-001 3.48122455e-002 2.56961733e-002 6.16665594e-002
      1.71268612e-001 2.28426024e-001 2.28426024e-001 1.00892551e-001
      1.45352036e-001 2.28426024e-001 1.79840341e-001 5.27518354e-002
      9.16018710e-002 1.47935674e-001 7.70837292e-002 1.31483197e-001
      1.24258079e-001 2.06652045e-001 1.55313298e-001 6.22245483e-002
      4.85471860e-002 1.31325513e-001 2.10815325e-001 2.28426024e-001
      2.28426024e-001 1.64667800e-001 5.98119646e-002 2.28426024e-001
      2.28426024e-001 1.88202083e-001 1.45480990e-001 2.15806022e-001
      1.93463340e-001 1.95734188e-001 2.16999680e-001 1.35940790e-001
      2.12666869e-001 2.34406531e-001 1.03664264e-001 1.71430111e-001
      9.50025097e-002 1.93782691e-002 6.69894591e-002 8.91662091e-002
      1.72214583e-001 1.87253565e-001 2.08149612e-001 2.87975699e-001
      2.87975699e-001 1.83764264e-001 1.71748642e-002 3.62187810e-002
      5.85573427e-002 2.13218346e-001 1.32372275e-001 2.70689815e-001
      2.87975699e-001 1.91990882e-001 1.21023901e-001 7.12679401e-002
      5.48339561e-002 9.21066403e-002 7.96099752e-002 6.97624087e-002
      1.93946928e-001 2.87975699e-001 2.87975699e-001 1.27554551e-001
      2.93126330e-002 1.90243814e-002 2.05136109e-002 4.90465313e-002
      9.82431099e-002 1.54039890e-001 3.16765666e-001 3.16765666e-001
      1.60898954e-001 1.14209875e-002 4.04091692e-003 2.55657937e-002
      8.38197470e-002 8.97021964e-002 2.60066777e-001 3.16765666e-001
      2.61627734e-001 5.49822822e-002 7.37188337e-003 7.26609840e-004
      1.30075654e-002 5.64205684e-002 6.50150329e-002 2.12054878e-001
      3.16765666e-001 2.83877522e-001 1.10011652e-001 2.81880628e-002
      6.41778903e-003 9.06122383e-003 2.54790187e-002 1.11208402e-001
      3.16765666e-001 3.16765666e-001 1.04076184e-001 7.10925758e-002
      2.31851414e-002 7.48780137e-003 1.68876797e-002 6.74865171e-002
      4.91546467e-002 2.31697131e-002 4.28734645e-002 9.99213830e-002
      2.20812038e-001 2.36336231e-001 2.36336231e-001 1.23506822e-001
      4.30394076e-002 2.36336231e-001 1.04694903e-001 1.60501823e-001
      1.47590458e-001 2.36336231e-001 2.18995035e-001 2.12183982e-001
      1.57475680e-001 1.97028175e-001 1.63061954e-002 2.49808328e-003
      1.89393107e-002 6.10800907e-002 2.36336231e-001 2.02859104e-001
      2.10403949e-001 9.36391652e-002 2.14538593e-002 2.36336231e-001
      8.03886428e-002 9.60963145e-002 1.81934342e-001 2.36336231e-001
      2.36336231e-001 2.36336231e-001 1.40848517e-001 1.77633151e-001
      2.11528331e-001 1.44973367e-001 2.67294228e-001 2.13581830e-001
      1.59035116e-001 9.20967832e-002 3.87770422e-002 4.47553433e-002
      1.50088295e-001 8.32010582e-002 1.88890353e-001 2.67294228e-001
      2.67294228e-001 8.63286182e-002 3.38687003e-002 1.21086286e-002
      1.45650022e-002 5.17126136e-002 2.67294228e-001 1.80698544e-001
      2.67294228e-001 2.36088648e-001 2.61507541e-001 1.07447892e-001
      1.34756029e-001 5.88143021e-002 1.60796985e-001 1.21934868e-001
      2.01106653e-001 2.67294228e-001 2.07636312e-001 1.05401814e-001
      8.00637603e-002 5.83189018e-002 4.90285270e-002 7.54080713e-002
      1.66264758e-001 2.60868758e-001 2.60868758e-001 2.59848595e-001
      1.38279840e-001 7.07759187e-002 4.56703939e-002 5.49869761e-002
      8.10036138e-002 1.62372679e-001 2.13630378e-001 1.93990603e-001
      1.14340946e-001 1.48611248e-001 1.03796460e-001 6.25376999e-002
      6.96359724e-002 1.11466266e-001 1.89770639e-001 2.03659907e-001
      2.60868758e-001 2.04916567e-001 1.68186292e-001 1.84021071e-001
      8.14477131e-002 1.06437735e-001 1.50948256e-001 2.60868758e-001
      2.60868758e-001 1.13151342e-001 1.12764463e-001 1.45228550e-001
      1.85348824e-001 8.90391916e-002 7.27401152e-002 1.81239024e-001</_>
    <_>
      7.98195750e-002 7.95089230e-002 1.03302166e-001 1.75733954e-001
      2.43255898e-001 1.36805326e-001 6.46199584e-002 8.91448557e-002
      7.57012218e-002 8.16705376e-002 1.38795167e-001 2.43255898e-001
      1.97092056e-001 2.43255898e-001 2.28005379e-001 1.12452574e-001
      1.16253816e-001 8.62805620e-002 1.33026838e-001 1.28406003e-001
      1.42915204e-001 7.13718832e-002 1.41486511e-001 1.70550629e-001
      1.97777271e-001 1.87036604e-001 1.88516945e-001 2.43255898e-001
      2.43255898e-001 2.43255898e-001 2.05802470e-001 1.51100725e-001
      9.55353975e-002 1.07174352e-001 1.94738656e-001 2.43255898e-001
      9.43500400e-002 1.03635468e-001 2.38436222e-001 1.59234285e-001
      2.38436222e-001 1.38174966e-001 1.05860665e-001 7.57455826e-002
      6.67025223e-002 1.21568166e-001 1.06079333e-001 1.61059976e-001
      1.34834722e-001 1.70749933e-001 1.28652692e-001 1.73102438e-001
      1.11506537e-001 8.38177800e-002 2.38436222e-001 2.38436222e-001
      2.38436222e-001 2.38436222e-001 1.59344494e-001 5.71150519e-002
      7.98569918e-002 7.97650144e-002 1.82967559e-001 2.38436222e-001
      2.38436222e-001 2.38436222e-001 2.38436222e-001 2.38436222e-001
      1.11568101e-001 1.17490396e-001 8.71097594e-002 1.13011137e-001
      2.39509702e-001 1.46015868e-001 1.38686538e-001 8.76732916e-002
      6.31605238e-002 6.58124462e-002 9.81065780e-002 1.15193777e-001
      1.50808439e-001 2.39509702e-001 2.19189033e-001 1.11373298e-001
      1.13477513e-001 1.27082944e-001 7.37394542e-002 4.62130867e-002
      6.60967082e-002 2.16213778e-001 1.75366610e-001 2.22194567e-001
      2.39509702e-001 2.39509702e-001 2.27326319e-001 1.23075470e-001
      7.08571672e-002 8.29150006e-002 1.01382218e-001 2.39509702e-001
      1.52492642e-001 2.39509702e-001 2.39509702e-001 2.39509702e-001
      1.73928827e-001 5.72367497e-002 7.10876733e-002 2.39509702e-001
      1.22057304e-001 9.01991129e-002 6.40466064e-002 5.26381657e-002
      7.24929348e-002 1.35607019e-001 1.98366582e-001 1.27694249e-001
      2.02355072e-001 2.28915378e-001 2.25786820e-001 2.28915378e-001
      1.39604002e-001 9.47532207e-002 1.03146061e-001 1.29352733e-001
      1.09533563e-001 2.28915378e-001 1.45519391e-001 2.28915378e-001
      1.48198202e-001 1.11146510e-001 1.33275375e-001 1.11140408e-001
      1.31379113e-001 8.15964043e-002 1.54996634e-001 2.28915378e-001
      2.28915378e-001 1.63384259e-001 1.60325482e-001 1.97240233e-001
      1.79640397e-001 2.28915378e-001 2.28915378e-001 2.28915378e-001
      2.47619271e-001 1.83894888e-001 1.73339337e-001 1.22495241e-001
      5.68003766e-002 4.16386500e-002 5.83907701e-002 4.81144190e-002
      2.04978466e-001 2.25098670e-001 1.70343414e-001 1.09176703e-001
      1.17114514e-001 1.43435165e-001 7.20325261e-002 5.26449308e-002
      4.46362905e-002 1.85164571e-001 2.47619271e-001 2.10034102e-001
      1.57135069e-001 4.87624556e-002 6.56657144e-002 9.67676789e-002
      2.47619271e-001 2.45128959e-001 2.47619271e-001 2.47619271e-001
      2.47619271e-001 2.47619271e-001 3.83611917e-002 6.04065247e-002
      7.61814937e-002 1.58136263e-001 1.56270683e-001 2.47619271e-001
      9.40647125e-002 1.12378933e-001 1.61943331e-001 2.11762205e-001
      2.42474362e-001 1.25624031e-001 4.53061052e-002 3.11636925e-002
      5.44428788e-002 1.85796946e-001 6.85282126e-002 2.22843170e-001
      2.42474362e-001 2.42474362e-001 1.36781290e-001 1.98103823e-002
      2.66866051e-002 1.95868790e-001 1.81591928e-001 1.93366304e-001
      2.42474362e-001 2.21334755e-001 2.28853077e-001 1.26860395e-001
      2.04472721e-001 9.97507349e-002 2.34107241e-001 6.15011938e-002
      4.66926470e-002 2.05096647e-001 2.42474362e-001 2.42474362e-001
      1.60357758e-001 6.50445893e-002 6.12905733e-002 8.55990648e-002
      1.28051594e-001 2.27066875e-001 2.27066875e-001 1.02892883e-001
      9.38020721e-002 7.08255619e-002 6.96404651e-002 6.87533319e-002
      8.55048671e-002 1.75082013e-001 2.16808110e-001 1.50533348e-001
      1.02245331e-001 1.51071608e-001 1.60685405e-001 2.27066875e-001
      2.27066875e-001 2.27066875e-001 1.25312611e-001 1.18842632e-001
      1.39815792e-001 1.02258198e-001 1.15289509e-001 1.23859048e-001
      1.09375238e-001 1.83754191e-001 1.82049349e-001 2.03415528e-001
      2.23925158e-001 2.27066875e-001 1.89205512e-001 2.27066875e-001
      1.37575135e-001 2.21935943e-001 1.42268896e-001 1.91400766e-001
      1.81431293e-001 1.90562040e-001 1.39871240e-001 3.16615552e-002
      4.58074510e-002 7.88392350e-002 2.05508232e-001 2.27693275e-001
      2.35617712e-001 2.35617712e-001 2.35617712e-001 2.35617712e-001
      3.81465890e-002 4.90784347e-002 5.18934503e-002 1.50773913e-001
      2.35617712e-001 2.35617712e-001 1.35296881e-001 2.32751086e-001
      1.93867415e-001 1.10881187e-001 1.46355361e-001 7.22041577e-002
      9.44984406e-002 7.30742067e-002 1.28410712e-001 2.13779360e-001
      2.35617712e-001 1.75076798e-001 7.19270781e-002 8.63727927e-002
      4.02635075e-002 7.85262957e-002 2.35617712e-001 2.35617712e-001
      1.55320525e-001 1.72672257e-001 2.20634535e-001 1.57401055e-001
      1.47906780e-001 7.19048232e-002 2.09297687e-001 2.20634535e-001
      2.20634535e-001 1.06292866e-001 5.21991141e-002 1.98797420e-001
      2.20634535e-001 2.20634535e-001 8.23811442e-002 1.04337670e-001
      1.02943748e-001 8.53630975e-002 2.20634535e-001 2.20634535e-001
      1.71503946e-001 9.02715549e-002 1.25774667e-001 4.94764298e-002
      1.69622615e-001 2.20634535e-001 2.08226383e-001 1.62291139e-001
      1.38932705e-001 2.20634535e-001 2.20634535e-001 2.20634535e-001
      8.56379718e-002 1.41423166e-001 1.27109855e-001 8.09899345e-002</_>
    <_>
      1.74277380e-001 1.86919779e-001 1.50621921e-001 1.96046516e-001
      1.37702018e-001 8.06419700e-002 1.23798877e-001 1.70602426e-001
      2.15936303e-001 1.32281616e-001 1.82161778e-001 2.09027365e-001
      2.15936303e-001 9.26328450e-002 8.66499767e-002 1.02771550e-001
      1.38985679e-001 1.84755251e-001 1.29145414e-001 1.18760966e-001
      1.77861676e-001 2.15936303e-001 1.28791660e-001 1.17122799e-001
      1.62883267e-001 2.15936303e-001 2.09107131e-001 1.43739223e-001
      2.15936303e-001 2.15936303e-001 2.15936303e-001 1.38932511e-001
      1.45032465e-001 1.41210377e-001 1.39622629e-001 1.92937955e-001
      1.19620316e-001 1.53762937e-001 1.64782315e-001 1.98779166e-001
      1.05220109e-001 1.19575374e-001 1.82923600e-001 9.09023583e-002
      1.41508713e-001 1.04459718e-001 1.41658470e-001 1.96059763e-001
      1.45639405e-001 2.15725303e-001 1.71455234e-001 1.72853112e-001
      7.43876994e-002 1.08488560e-001 2.00034872e-001 2.15725303e-001
      1.78060606e-001 2.11489737e-001 1.24060437e-001 1.71779454e-001
      1.25241205e-001 1.07039712e-001 2.15725303e-001 2.15725303e-001
      2.15725303e-001 1.79263547e-001 1.46722838e-001 1.74784258e-001
      2.11493015e-001 1.25408947e-001 1.62837610e-001 2.15725303e-001
      9.61111858e-002 1.07841782e-001 1.01118863e-001 1.00686871e-001
      2.17650086e-001 2.17650086e-001 1.81981578e-001 8.33051875e-002
      4.95761856e-002 1.58344135e-001 1.69719830e-001 1.05571233e-001
      1.35444492e-001 2.17650086e-001 2.17650086e-001 2.17650086e-001
      2.12193564e-001 7.49238208e-002 1.41694173e-001 2.03332782e-001
      1.03661038e-001 1.43365338e-001 1.76338673e-001 1.97999731e-001
      1.22634098e-001 1.36971518e-001 1.81284174e-001 1.88988835e-001
      1.98092625e-001 7.60032907e-002 1.66731715e-001 2.17650086e-001
      2.17650086e-001 1.92855850e-001 2.17650086e-001 1.60276428e-001
      1.21582419e-001 7.59880096e-002 8.02815631e-002 1.21784449e-001
      1.36788294e-001 1.55832440e-001 1.71683341e-001 2.22904667e-001
      1.74505502e-001 2.22904667e-001 2.22904667e-001 1.43918529e-001
      1.02968544e-001 1.74747959e-001 1.66593909e-001 1.60242051e-001
      1.78120166e-001 1.96407139e-001 2.22904667e-001 1.58506751e-001
      3.71641889e-002 6.15775660e-002 9.28764045e-002 1.58974871e-001
      2.13622093e-001 2.13286877e-001 2.22904667e-001 2.22904667e-001
      2.22904667e-001 8.02930892e-002 4.50259037e-002 1.16646871e-001
      1.36206061e-001 2.15202674e-001 1.66349888e-001 2.22904667e-001
      2.16227278e-001 2.24609658e-001 1.41511470e-001 5.98261990e-002
      1.46598637e-001 1.72328368e-001 1.16064265e-001 1.04745202e-001
      1.88484028e-001 1.48230165e-001 1.50971174e-001 1.38199925e-001
      8.51499662e-002 1.43539369e-001 1.42468348e-001 2.24609658e-001
      2.24609658e-001 2.05553561e-001 2.24609658e-001 1.73274115e-001
      1.18634820e-001 4.91440929e-002 1.64548740e-001 1.69379786e-001
      1.81290627e-001 1.12244301e-001 2.24609658e-001 2.17332467e-001
      6.95909187e-002 8.12422559e-002 7.09013715e-002 1.79702923e-001
      1.80039808e-001 2.24609658e-001 2.24609658e-001 1.80749580e-001
      1.23368494e-001 1.73846647e-001 9.54179913e-002 1.03061914e-001
      1.22512355e-001 9.93865579e-002 2.17790604e-001 2.25651771e-001
      2.04527453e-001 1.41380861e-001 1.35332644e-001 6.24087155e-002
      1.05843320e-001 1.60391703e-001 1.65305391e-001 2.25651771e-001
      2.25651771e-001 2.13207245e-001 1.93894088e-001 1.09918028e-001
      4.94646691e-002 5.66275977e-002 1.69408023e-001 1.41372591e-001
      2.25651771e-001 2.25651771e-001 2.02459961e-001 1.63859934e-001
      1.36094302e-001 5.43953814e-002 8.93735215e-002 2.01567769e-001
      1.70791820e-001 1.99503407e-001 2.25651771e-001 2.23780200e-001
      2.24877268e-001 1.51859254e-001 4.80037518e-002 2.66145971e-002
      4.13041152e-002 1.71483740e-001 2.21487030e-001 2.09605217e-001
      2.24877268e-001 2.24877268e-001 1.38556793e-001 5.87027147e-002
      5.75153567e-002 1.41440213e-001 1.69120416e-001 1.86275750e-001
      1.34909123e-001 2.24877268e-001 2.24877268e-001 8.70864987e-002
      3.98522094e-002 3.84598710e-002 5.81857078e-002 2.24877268e-001
      2.12793484e-001 2.24877268e-001 2.24877268e-001 2.19146460e-001
      7.72205368e-002 3.22398804e-002 8.03295001e-002 1.72574282e-001
      2.24877268e-001 1.75019696e-001 1.82227120e-001 2.24877268e-001
      2.13885173e-001 1.24314234e-001 9.74939689e-002 1.18319944e-001
      2.13885173e-001 1.90359041e-001 1.65224746e-001 1.13723122e-001
      2.13885173e-001 2.13885173e-001 1.27633482e-001 8.96427408e-002
      1.25392795e-001 2.12281898e-001 2.10386768e-001 2.13885173e-001
      2.13885173e-001 1.44421458e-001 1.51062936e-001 1.10900290e-001
      7.68877417e-002 1.19726524e-001 2.13885173e-001 1.47110566e-001
      1.64177105e-001 1.56609476e-001 1.87512636e-001 1.37264535e-001
      1.73403651e-001 1.56065226e-001 1.13820314e-001 1.79401547e-001
      1.48513168e-001 1.99710935e-001 2.13885173e-001 1.49100751e-001
      2.00384393e-001 1.38858691e-001 7.30620921e-002 6.10660464e-002
      1.33510366e-001 1.45584270e-001 1.95493191e-001 2.12841198e-001
      1.52899653e-001 1.85830072e-001 1.60858318e-001 6.07040823e-002
      5.50955161e-002 1.97895452e-001 1.92653522e-001 2.00866312e-001
      1.49452463e-001 2.11900994e-001 1.24466144e-001 1.52212262e-001
      1.54625073e-001 1.11765265e-001 1.08911090e-001 2.12841198e-001
      1.65742069e-001 2.12841198e-001 1.49529070e-001 2.06998959e-001
      2.10036397e-001 1.39086828e-001 7.24847317e-002 1.40296414e-001
      2.12841198e-001 2.12841198e-001 2.05095351e-001 2.02961326e-001</_>
    <_>
      3.95710841e-002 1.78782672e-001 1.26988426e-001 3.62443291e-002
      1.11971535e-001 1.92859862e-002 3.80021613e-003 3.67999007e-003
      1.79711487e-002 1.77591994e-001 1.07030928e-001 1.61525100e-001
      1.45769984e-001 2.97177345e-001 6.22463338e-002 4.72840108e-002
      2.80926734e-001 2.78398633e-001 1.74952969e-002 2.96678748e-002
      3.66930924e-002 4.43008170e-002 3.31551880e-001 7.00622201e-002
      1.29321124e-002 1.44632207e-002 1.56047419e-002 1.54469997e-001
      3.91463339e-002 1.42337441e-001 2.19298542e-001 3.31551880e-001
      3.29240859e-001 6.21172749e-002 3.31551880e-001 2.13229418e-001
      6.82837963e-002 2.03750543e-002 4.08251882e-002 4.26973403e-002
      5.61120398e-002 1.56731270e-002 6.67153448e-002 3.55078906e-001
      2.11573645e-001 8.02663248e-003 5.42668533e-003 8.93737841e-003
      1.00095719e-002 8.45751446e-003 2.19878787e-003 5.17194644e-002
      3.16348344e-001 1.17063291e-001 9.42166075e-002 2.26794854e-002
      5.45047633e-002 8.11169818e-002 3.55078906e-001 1.16460927e-001
      1.66199729e-001 3.55078906e-001 2.52416968e-001 4.50167730e-002
      1.03391148e-002 7.52569921e-003 8.25268775e-003 2.23952346e-002
      2.65847929e-002 2.90833086e-001 3.55078906e-001 3.19773465e-001
      1.21960547e-002 1.29182814e-002 1.27993040e-002 1.10020377e-002
      2.44952999e-002 1.01066139e-002 4.70486656e-002 1.56139195e-001
      7.78551623e-002 1.15710078e-002 1.62641983e-002 1.01408670e-002
      1.18084913e-002 2.41158549e-002 8.42700973e-002 2.76309818e-001
      3.50078903e-002 1.71686076e-002 4.90837693e-002 1.17968228e-002
      1.07942568e-002 9.33610089e-003 6.73421705e-003 1.36350468e-002
      3.28575969e-001 4.33972120e-001 4.33972120e-001 4.21969369e-002
      3.23743410e-002 2.64982525e-002 1.90949980e-002 8.39210954e-003
      2.21878272e-002 2.16176704e-001 4.33972120e-001 3.85208219e-001
      6.73925178e-003 1.18329155e-003 4.82468307e-003 1.83708724e-002
      3.15912455e-001 5.48629649e-002 3.05262525e-002 1.08584628e-001
      2.97553893e-002 3.16641927e-002 1.05784386e-002 3.13794464e-002
      7.06433877e-002 4.61456686e-001 3.57610136e-001 7.14190975e-002
      9.62403566e-002 5.10678999e-002 1.48751829e-002 1.35638961e-003
      2.55876537e-002 4.28609848e-002 2.61042655e-001 3.39383669e-002
      6.14814721e-002 2.19454125e-001 6.39491230e-002 1.42360376e-002
      7.18945311e-003 5.26658222e-002 1.22138217e-001 4.61456686e-001
      3.61462981e-001 1.09810166e-001 1.04365006e-001 3.38147171e-002
      4.81031574e-002 2.01233998e-002 2.10956652e-002 2.41015740e-002
      3.03612024e-001 1.60373926e-001 2.31478453e-001 2.45439664e-001
      6.98536336e-002 5.02954572e-002 1.53084137e-002 6.95147505e-003
      2.26425007e-003 3.63150388e-002 7.85876065e-002 3.03612024e-001
      3.03612024e-001 1.67693123e-001 2.14851350e-002 1.21420817e-002
      1.43775372e-002 3.04808598e-002 3.03612024e-001 2.70592391e-001
      3.03612024e-001 1.02009743e-001 2.74815354e-002 2.88000386e-002
      1.24668144e-002 7.45579181e-003 9.29453038e-003 1.56315669e-001
      2.07041338e-001 3.03612024e-001 3.03612024e-001 1.02714583e-001
      2.49034110e-002 3.08886915e-003 1.16960355e-003 8.18608969e-004
      3.90755944e-003 2.63830200e-002 2.66611993e-001 3.15048218e-001
      2.22396076e-001 2.75839549e-002 1.15454113e-002 9.00811609e-003
      9.43754800e-003 7.38557056e-003 4.33663838e-003 1.60756901e-001
      3.15048218e-001 2.77521551e-001 2.89980248e-002 5.43468259e-002
      3.64003666e-002 1.09620858e-003 5.02917841e-002 9.98621434e-002
      3.15048218e-001 3.15048218e-001 1.16601445e-001 5.49356677e-002
      3.15048218e-001 2.31588677e-001 2.62624025e-002 4.31695804e-002
      3.48101668e-002 2.28527576e-001 3.15048218e-001 1.77697241e-001
      1.25856837e-002 1.68080640e-003 1.73568781e-002 4.29158174e-002
      1.79638743e-001 7.14220405e-002 1.59935907e-001 1.18715689e-001
      4.61513400e-002 6.70377119e-003 2.66899215e-003 3.04377731e-002
      1.17581472e-001 4.28350896e-001 2.96798617e-001 3.35806720e-002
      5.94163947e-002 2.92245448e-002 5.47834951e-003 3.18961823e-003
      5.44506265e-003 2.14477889e-002 2.02726781e-001 2.03881532e-001
      4.28350896e-001 6.61325827e-002 1.56740062e-002 2.57822555e-002
      5.47776669e-002 3.09435856e-002 5.70954755e-002 4.28350896e-001
      3.77690256e-001 1.23667486e-001 3.44250016e-002 2.36151032e-002
      1.09073427e-002 1.73481926e-002 1.59651134e-002 3.81701589e-002
      3.06037515e-001 2.97646672e-001 1.61929563e-001 8.50639418e-002
      2.67187431e-002 4.63859960e-002 1.42610535e-001 7.13669062e-002
      1.48427542e-002 1.84220150e-001 2.56154239e-001 3.06037515e-001
      2.26544410e-001 6.45905137e-002 4.63002622e-002 2.64891237e-001
      1.37271523e-001 1.59139503e-002 3.06037515e-001 2.20860273e-001
      7.89647326e-002 4.98334803e-002 2.79153772e-002 9.02504846e-002
      3.06037515e-001 3.06037515e-001 3.06343026e-002 9.09573287e-002
      1.34037390e-001 1.64953917e-001 8.69215056e-002 3.35911587e-002
      5.51254973e-002 2.91339368e-001 1.82972834e-001 6.48403354e-003
      5.52579425e-002 1.03063464e-001 3.13268125e-001 1.28518879e-001
      4.30898592e-002 7.02112168e-002 3.23178738e-001 3.23178738e-001
      2.75750104e-002 3.72104794e-002 3.15348171e-002 1.29502773e-001
      6.67878091e-002 6.62431791e-002 1.10020958e-001 3.23178738e-001
      3.23178738e-001 6.17076233e-002 5.78019507e-002 5.25953919e-002
      7.79585913e-002 3.39769274e-002 3.48392725e-002 1.47416815e-001
      3.23178738e-001 3.23178738e-001 1.22517318e-001 3.19214463e-002
      1.27262697e-002 6.42169937e-002 3.50473188e-002 1.05116226e-001</_>
    <_>
      1.52544109e-002 1.73424691e-001 3.11845899e-001 2.89697707e-001
      9.67664346e-002 3.18816267e-002 1.17522134e-002 1.26453917e-002
      5.60732652e-003 4.09106091e-002 7.25215971e-002 3.11845899e-001
      2.54031599e-001 4.70593162e-002 6.71879351e-002 1.09097145e-001
      4.40735184e-002 2.56020892e-002 8.05440545e-002 2.41104245e-001
      3.11845899e-001 3.11845899e-001 1.16404213e-001 5.15108816e-002
      5.28234355e-002 4.81802933e-002 4.43207175e-002 8.67331401e-002
      9.66794416e-002 3.11845899e-001 1.27222747e-001 2.80480497e-002
      8.76340270e-002 3.11845899e-001 2.25781903e-001 1.23945542e-001
      4.03339192e-002 1.63744744e-002 2.50714600e-001 1.04324572e-001
      3.29180695e-002 2.67048329e-001 3.38133186e-001 4.85967025e-002
      3.57566364e-002 2.86521297e-002 6.73681311e-003 4.66449372e-003
      2.38004103e-002 5.03284596e-002 3.38133186e-001 3.38133186e-001
      3.14504430e-002 2.84944549e-002 5.01260236e-002 1.52513795e-002
      8.38799030e-002 3.40994261e-002 2.44160946e-002 2.34620988e-001
      3.38133186e-001 2.41530046e-001 9.60221142e-002 3.18813547e-002
      8.18323158e-003 1.21195326e-002 3.57244089e-002 6.94070831e-002
      3.38133186e-001 3.38133186e-001 1.02657445e-001 3.38715501e-002
      1.00030228e-001 2.26424113e-002 1.53254054e-003 3.02852988e-002
      6.48468658e-002 2.40298793e-001 3.29355955e-001 2.03866363e-001
      1.45050153e-001 1.36834219e-001 1.90138612e-002 8.10470525e-003
      2.20577675e-003 4.13137488e-003 4.25583683e-003 2.49653429e-001
      3.33142042e-001 2.92370319e-001 1.42149836e-001 2.31382381e-002
      2.74354909e-002 5.93678504e-002 1.23577997e-001 3.33142042e-001
      3.33142042e-001 4.89499159e-002 1.91050470e-001 1.95291087e-001
      2.12204568e-002 1.53719625e-002 9.73466132e-003 1.82510968e-002
      8.75315592e-002 9.90764871e-002 7.31953159e-002 3.33142042e-001
      6.10725693e-002 1.03411868e-001 2.76205271e-001 2.76205271e-001
      5.59912585e-002 5.05199209e-002 1.00867555e-001 1.10329166e-001
      7.15120286e-002 8.29271674e-002 3.87217887e-002 1.74583524e-001
      5.53581528e-002 2.17771549e-002 7.94895217e-002 2.76205271e-001
      2.76205271e-001 2.60717958e-001 2.68069088e-001 1.55176613e-002
      2.76205271e-001 2.33753502e-001 5.60545623e-002 2.73821410e-002
      6.62349090e-002 1.05092101e-001 2.76205271e-001 2.76205271e-001
      4.46779188e-003 3.08708400e-002 1.77664142e-002 1.05171325e-002
      4.58296239e-002 1.96928889e-001 1.85256153e-001 2.76205271e-001
      4.73424010e-002 4.49111592e-003 1.54192317e-002 1.82793885e-002
      3.03949323e-002 1.04881510e-001 2.93785661e-001 2.54756749e-001
      1.58822656e-001 2.93338876e-002 4.71094763e-003 1.79660209e-002
      4.53995429e-002 4.82750870e-002 2.93785661e-001 2.93785661e-001
      1.75930485e-001 3.70057151e-002 2.81357259e-001 8.81109154e-004
      7.04902364e-003 1.82377379e-002 2.71505062e-002 5.07214628e-002
      2.92454988e-001 1.86923042e-001 2.93785661e-001 2.80189663e-001
      6.12901477e-003 1.00116050e-002 6.63050935e-002 7.70785287e-002
      1.61964715e-001 2.93785661e-001 1.33657783e-001 2.93785661e-001
      3.59720029e-002 5.55390352e-003 1.59316249e-002 3.56505550e-002
      6.51581734e-002 3.43620539e-001 3.43620539e-001 4.26189266e-002
      5.01312390e-002 3.75700817e-002 2.83345324e-003 4.84131323e-003
      4.39366745e-003 2.80431435e-002 1.69813797e-001 1.92585737e-001
      8.45823251e-003 1.05525948e-001 2.70055264e-001 3.59865203e-002
      1.14724189e-002 1.14167310e-001 1.34736747e-001 3.43620539e-001
      3.43620539e-001 2.56549977e-002 2.49770194e-001 7.44702667e-002
      3.40359807e-002 1.18572731e-002 7.64852911e-002 1.21455938e-001
      3.43620539e-001 3.43620539e-001 4.01879009e-003 3.54851633e-002
      3.58319610e-001 4.75500803e-003 7.67490119e-002 8.05407390e-002
      4.56341170e-002 6.59565767e-003 1.02511710e-002 6.19441718e-002
      3.58319610e-001 3.58319610e-001 6.63522445e-003 5.06789330e-003
      1.04470281e-002 4.57591563e-003 6.45219069e-003 3.22083235e-002
      2.92039160e-002 3.58319610e-001 2.83528060e-001 6.50499994e-003
      5.69115160e-003 1.59853119e-002 1.34795764e-002 2.76885182e-003
      6.40511811e-002 1.42094374e-001 3.41145813e-001 3.43463510e-001
      1.07224341e-002 1.16082160e-002 2.10421328e-002 2.22868919e-002
      1.15940988e-003 1.77207422e-002 4.04626876e-002 3.45771462e-001
      3.65326554e-001 5.09332167e-003 3.11854738e-003 9.46763344e-003
      1.27788847e-002 1.47343008e-002 7.05640465e-002 5.43344133e-002
      3.65326554e-001 3.65326554e-001 1.02892360e-002 5.79544995e-003
      3.99730913e-002 5.11652231e-002 5.40702790e-002 1.19051777e-001
      3.68760526e-002 3.65326554e-001 2.95606226e-001 8.15717131e-003
      7.83233903e-003 7.24080112e-003 1.43926451e-002 1.70469738e-003
      4.54947399e-003 5.94768161e-003 3.13498199e-001 3.33106011e-001
      4.88153659e-003 8.88802297e-003 9.66384448e-003 1.85300354e-002
      5.33287181e-003 4.59598284e-003 1.11491531e-002 3.65326554e-001
      2.84758776e-001 1.04018360e-001 1.94543283e-002 1.62905589e-001
      1.22238353e-001 2.62444913e-001 2.84758776e-001 8.91279243e-003
      2.84758776e-001 2.76515931e-001 1.21289589e-001 6.96143880e-002
      2.00746551e-001 1.87855124e-001 2.84758776e-001 2.84758776e-001
      3.76461889e-003 1.43944666e-001 2.84758776e-001 4.59126458e-002
      2.00665407e-002 4.20566127e-002 3.29668485e-002 1.52866058e-002
      9.70404688e-003 1.04604037e-002 2.84758776e-001 1.52106658e-001
      6.39083758e-002 2.05038011e-001 1.58220008e-001 7.85829425e-002
      2.74633989e-002 1.19173052e-002 3.71534307e-003 9.15471911e-002</_>
    <_>
      9.54378694e-002 1.04097299e-001 5.80944680e-002 1.23878783e-002
      1.72331817e-002 1.33700809e-002 3.90152000e-002 3.04612108e-002
      4.04893085e-002 2.82686532e-001 3.15513343e-001 7.12010488e-002
      5.82320429e-003 1.94039233e-002 1.18132867e-002 1.52398469e-002
      1.96592379e-002 1.19783103e-001 3.15513343e-001 3.15513343e-001
      2.01562703e-001 4.66442257e-002 6.65747523e-002 5.84805384e-002
      1.73893228e-001 1.63188204e-001 2.91135043e-001 3.15513343e-001
      3.15513343e-001 2.33923420e-001 4.26171832e-002 7.57688805e-002
      5.16535603e-002 8.42578486e-002 8.17933008e-002 3.15513343e-001
      2.43053749e-001 2.69685596e-001 4.06156480e-002 2.00849567e-002
      4.92400639e-002 1.50056798e-002 3.11288554e-002 5.22600040e-002
      1.10301852e-001 2.72094309e-001 2.72094309e-001 1.18787646e-001
      7.02699050e-002 1.38585001e-001 5.03841639e-002 8.50685462e-002
      1.43238336e-001 1.42910078e-001 2.72094309e-001 2.72094309e-001
      1.42502502e-001 3.68272997e-002 5.75392060e-002 2.50419565e-002
      9.56613868e-002 1.13599457e-001 2.72094309e-001 2.72094309e-001
      2.72094309e-001 1.44860134e-001 3.54732797e-002 6.01516478e-002
      8.42751637e-002 1.90750882e-001 2.15980485e-001 2.72094309e-001
      2.54990935e-001 2.54990935e-001 1.85798198e-001 5.75873815e-002
      1.05559923e-001 4.75316904e-002 7.20282048e-002 8.48162547e-002
      1.45936668e-001 2.53062963e-001 2.54990935e-001 2.27611348e-001
      1.21247001e-001 1.35294020e-001 2.34897122e-001 1.30603850e-001
      1.25028536e-001 1.49795622e-001 2.03563794e-001 2.08704934e-001
      1.06184438e-001 1.38115942e-001 1.50772989e-001 1.06089622e-001
      1.06177226e-001 1.33642972e-001 1.77396730e-001 5.15929908e-002
      1.19411863e-001 2.11847723e-001 2.54990935e-001 2.54990935e-001
      2.21665323e-001 6.17809817e-002 4.93530333e-002 3.38534862e-002
      1.68697506e-001 1.64111987e-001 7.90038034e-002 2.94365901e-002
      4.56977412e-002 1.00627929e-001 2.52720475e-001 2.52720475e-001
      2.27125913e-001 2.27171347e-001 2.23703787e-001 7.13299066e-002
      4.65852618e-002 7.27821663e-002 7.87014067e-002 2.13654816e-001
      2.42796749e-001 2.18772322e-001 1.06986202e-001 3.33570279e-002
      8.17437470e-002 4.76882495e-002 2.60108653e-002 1.71229124e-001
      2.52720475e-001 2.52720475e-001 1.96986958e-001 1.57851234e-001
      3.64581011e-002 4.66162153e-002 4.75676507e-002 5.30522056e-002
      1.65620103e-001 2.52720475e-001 2.52720475e-001 2.52720475e-001
      2.36861810e-001 1.37571961e-001 8.06576535e-002 4.79045026e-002
      6.98926151e-002 6.59024492e-002 1.41035989e-001 1.82352141e-001
      2.43508264e-001 2.43508264e-001 1.56477734e-001 8.40641335e-002
      6.82829097e-002 7.08300099e-002 1.10749051e-001 1.84847891e-001
      2.43508264e-001 2.43508264e-001 1.88446060e-001 5.85608594e-002
      4.36445884e-002 2.81636268e-002 4.74264361e-002 1.54003859e-001
      2.43508264e-001 2.43508264e-001 2.43508264e-001 2.43508264e-001
      1.77556112e-001 9.34032649e-002 8.31455365e-002 5.99284209e-002
      1.18793823e-001 1.95611030e-001 2.43508264e-001 2.43508264e-001
      1.50981694e-001 8.79887864e-002 7.58863986e-002 1.76426157e-001
      1.72073454e-001 1.26662910e-001 1.21736124e-001 1.67417094e-001
      2.11587965e-001 2.69930437e-002 2.84251180e-002 1.43145651e-001
      2.71082699e-001 2.71082699e-001 2.10615888e-001 1.00225404e-001
      9.35177058e-002 4.80906814e-002 2.01713085e-001 1.38983160e-001
      1.21184699e-001 2.70307571e-001 2.64284402e-001 8.85472968e-002
      7.50013515e-002 1.11417234e-001 2.18542755e-001 4.20799032e-002
      3.31194028e-002 1.67054683e-001 2.71082699e-001 2.71082699e-001
      2.49610916e-001 1.29595593e-001 9.93847698e-002 6.45690709e-002
      8.49951357e-002 4.66321632e-002 9.20156837e-002 9.33323503e-002
      7.40103647e-002 1.24442227e-001 1.25552654e-001 1.96297258e-001
      1.66130051e-001 2.88542777e-001 8.84594917e-002 6.56048432e-002
      4.53782454e-002 5.24775721e-002 1.22941770e-001 2.52843529e-001
      2.88542777e-001 2.88542777e-001 1.04621410e-001 2.25315206e-002
      3.84429023e-002 5.78482635e-002 1.00198187e-001 1.07074112e-001
      1.44183770e-001 2.88542777e-001 2.88542777e-001 2.88542777e-001
      1.45314232e-001 3.75236869e-002 3.89123484e-002 7.66998306e-002
      7.42916837e-002 1.07831851e-001 2.88542777e-001 2.88542777e-001
      1.77784666e-001 4.72748168e-002 1.47612225e-002 5.90079138e-003
      7.36278715e-003 7.78043717e-002 2.71939516e-001 2.71939516e-001
      2.55115688e-001 1.46445319e-001 9.09152627e-002 3.36160585e-002
      3.60012427e-002 2.84651946e-002 7.62814134e-002 2.71939516e-001
      2.71939516e-001 1.98140249e-001 2.71939516e-001 7.62688294e-002
      7.33181508e-003 5.14842989e-003 7.74861686e-003 1.36950882e-002
      9.39431489e-002 2.62344807e-001 2.71939516e-001 2.20771968e-001
      7.58985952e-002 2.64095869e-002 1.27517581e-002 1.63678993e-002
      9.47914422e-002 2.71939516e-001 2.71939516e-001 2.71939516e-001
      8.17508623e-002 8.38131756e-002 9.16558281e-002 2.45231062e-001
      1.86695218e-001 1.02481797e-001 1.71657845e-001 1.75596729e-001
      1.02252647e-001 6.90362975e-002 6.99506328e-002 1.38322145e-001
      2.45231062e-001 2.45231062e-001 1.30915433e-001 7.84072801e-002
      5.33684306e-002 5.28160222e-002 1.90243572e-001 1.48504227e-001
      1.18789457e-001 1.28030032e-001 7.72497728e-002 1.54745519e-001
      2.45231062e-001 2.45231062e-001 2.39038482e-001 2.45231062e-001
      2.14117542e-001 1.71191528e-001 2.30769679e-001 1.34751514e-001
      1.00642212e-001 1.00959681e-001 2.04060748e-001 2.37593725e-001</_>
    <_>
      9.02935043e-002 7.84870684e-002 3.64013687e-002 7.20008463e-002
      1.88930959e-001 1.32861644e-001 8.29874873e-002 7.89665580e-002
      1.28980145e-001 2.44133025e-001 1.44444928e-001 1.54099315e-001
      2.44133025e-001 2.44133025e-001 2.29569614e-001 1.28858656e-001
      1.27726242e-001 1.91537589e-001 2.44133025e-001 1.38665631e-001
      1.14254422e-001 1.59613445e-001 2.38815486e-001 8.47539827e-002
      4.88088317e-002 3.83049622e-002 1.91202730e-001 2.44133025e-001
      1.28648505e-001 1.29079387e-001 2.44133025e-001 2.44133025e-001
      1.57689959e-001 6.11479580e-002 1.60332575e-001 2.44133025e-001
      2.15672478e-001 2.15672478e-001 2.07983315e-001 2.15672478e-001
      2.15672478e-001 1.91591740e-001 1.53310388e-001 1.46227315e-001
      1.69688419e-001 2.11184472e-001 2.15672478e-001 1.90958276e-001
      1.47157326e-001 1.33422717e-001 1.10595174e-001 1.12519018e-001
      1.42267048e-001 1.38034865e-001 2.15672478e-001 1.12001956e-001
      8.62627476e-002 1.75513387e-001 2.15672478e-001 1.69200957e-001
      9.61416289e-002 1.75951600e-001 1.46547392e-001 1.51035219e-001
      1.13506489e-001 1.06785901e-001 1.34165958e-001 1.99156970e-001
      1.42397881e-001 1.33627027e-001 1.44778028e-001 1.70106322e-001
      1.58773988e-001 2.19317585e-001 1.94247901e-001 1.54564276e-001
      1.54870063e-001 7.13305473e-002 7.27767646e-002 1.34679064e-001
      1.14705957e-001 1.72471926e-001 2.19317585e-001 2.19317585e-001
      2.19317585e-001 1.90259829e-001 9.49374065e-002 9.63085070e-002
      6.37419820e-002 1.28243849e-001 1.59513086e-001 1.23558015e-001
      1.25472143e-001 1.65899754e-001 1.76690698e-001 9.69302580e-002
      1.42580673e-001 1.41981825e-001 1.77520901e-001 2.19317585e-001
      2.19317585e-001 1.89873591e-001 2.19317585e-001 1.96069703e-001
      1.69782415e-001 2.19317585e-001 8.80392715e-002 2.19317585e-001
      2.36592963e-001 9.73710939e-002 1.19773194e-001 1.19445190e-001
      2.03451246e-001 6.19803816e-002 3.22077610e-002 4.41904627e-002
      1.72966257e-001 2.36592963e-001 7.60023594e-002 2.07982272e-001
      2.00954393e-001 2.36592963e-001 6.32695481e-002 6.73513040e-002
      8.74576643e-002 2.36592963e-001 1.75816536e-001 8.63802880e-002
      1.90168187e-001 9.83908027e-002 2.36592963e-001 8.05225074e-002
      8.17126706e-002 1.35966137e-001 1.55834064e-001 1.98371693e-001
      9.79840159e-002 2.36592963e-001 1.96224660e-001 2.36592963e-001
      1.35731354e-001 1.78379551e-001 2.23916039e-001 2.36592963e-001
      1.60228074e-001 7.17068762e-002 9.14038792e-002 1.40738636e-001
      2.16174871e-001 1.12927325e-001 1.38970211e-001 1.20396540e-001
      1.64181158e-001 1.26093447e-001 1.29766777e-001 9.71023068e-002
      1.32133782e-001 2.16174871e-001 1.46059021e-001 1.73255622e-001
      1.21413805e-001 1.80818021e-001 1.97338074e-001 1.00367360e-001
      1.81259915e-001 1.96290031e-001 2.16174871e-001 1.56327814e-001
      2.16174871e-001 1.86373144e-001 2.16174871e-001 1.97779313e-001
      1.92897618e-001 1.89455464e-001 1.71501145e-001 2.16174871e-001
      1.75554335e-001 1.58888161e-001 8.85778368e-002 2.03532368e-001
      1.44640803e-001 1.07001707e-001 8.49874169e-002 1.88153669e-001
      2.00766608e-001 8.85940045e-002 1.06870987e-001 8.46366361e-002
      1.56054586e-001 1.74360141e-001 1.64423048e-001 1.36054993e-001
      2.05284804e-001 1.82749435e-001 1.67030677e-001 1.84764117e-001
      6.21237792e-002 1.59467056e-001 2.19461828e-001 1.36453286e-001
      1.16882570e-001 1.89693630e-001 2.19461828e-001 1.25314146e-001
      1.05247803e-001 6.34294003e-002 2.19461828e-001 2.19461828e-001
      1.86536372e-001 2.19461828e-001 2.19461828e-001 2.19461828e-001
      1.94421783e-001 1.45485461e-001 1.03761911e-001 2.19461828e-001
      1.67651519e-001 7.43034780e-002 8.76820460e-002 9.13290456e-002
      2.43548617e-001 5.64032830e-002 3.64541113e-002 7.69843906e-002
      1.58939883e-001 2.19340667e-001 1.13267712e-001 1.50020450e-001
      1.16355658e-001 2.43548617e-001 1.17755406e-001 1.47727653e-001
      1.50024369e-001 2.28805885e-001 2.35416219e-001 7.23079219e-002
      7.05723986e-002 1.64432183e-001 2.43548617e-001 1.50910854e-001
      9.94429216e-002 5.87413125e-002 2.43548617e-001 2.43548617e-001
      2.16206521e-001 2.43548617e-001 1.72920495e-001 2.43548617e-001
      1.04409516e-001 1.04202874e-001 5.44164740e-002 2.43548617e-001
      2.23914489e-001 1.15232885e-001 1.50976434e-001 1.96142673e-001
      2.23914489e-001 9.75382477e-002 1.66283011e-001 1.10811897e-001
      1.81846797e-001 2.23346010e-001 1.27480119e-001 1.74588159e-001
      2.02404395e-001 2.22543985e-001 1.03233457e-001 9.01817456e-002
      4.59386632e-002 1.21360347e-001 2.23914489e-001 2.15628847e-001
      2.23914489e-001 2.23914489e-001 2.23914489e-001 9.14245471e-002
      1.08404495e-001 5.32249920e-002 1.69818074e-001 2.23914489e-001
      9.92041752e-002 1.30547360e-001 2.23440051e-001 2.23914489e-001
      1.17946573e-001 7.86045268e-002 6.93879053e-002 1.29907787e-001
      1.54262453e-001 6.83379397e-002 7.63510317e-002 1.35731235e-001
      1.40799686e-001 6.58661276e-002 6.18566312e-002 4.59792800e-002
      1.04140714e-001 2.36480236e-001 1.72008485e-001 1.66146368e-001
      2.36480236e-001 1.88172579e-001 6.27347231e-002 8.89443830e-002
      1.00102507e-001 1.58928439e-001 1.94048762e-001 6.07009828e-002
      7.76559412e-002 2.26800859e-001 2.36480236e-001 1.00190014e-001
      1.41717404e-001 1.25417769e-001 1.02043621e-001 2.36480236e-001
      2.36480236e-001 2.18922555e-001 2.36480236e-001 2.36480236e-001
      1.37531877e-001 2.36480236e-001 1.97538182e-001 2.36480236e-001</_>
    <_>
      1.64712280e-001 3.80022943e-001 2.10152864e-001 1.74908675e-002
      5.01753250e-003 1.18829440e-002 1.64959300e-002 2.89826002e-002
      7.85621181e-002 2.09423035e-001 2.77198166e-001 1.13300852e-001
      2.17538457e-002 1.57532189e-002 1.24943592e-002 3.18330526e-002
      4.00295965e-002 8.75128135e-002 3.80022943e-001 1.71231002e-001
      6.33841604e-002 1.36495801e-002 1.05915442e-002 1.29217543e-002
      2.23293342e-002 3.81588824e-002 3.76320601e-001 3.80022943e-001
      1.22159734e-001 2.96726394e-002 7.70781655e-003 1.71639100e-002
      1.59627553e-002 4.89141718e-002 4.94485460e-002 3.74952972e-001
      2.05600828e-001 7.39034712e-002 5.72958775e-002 2.68825796e-002
      1.87571310e-002 1.73419230e-002 3.47370245e-002 3.53208557e-002
      8.49663764e-002 3.10669839e-001 4.89929654e-002 3.52554694e-002
      1.52630629e-002 3.98310572e-002 1.39872193e-001 2.92399943e-001
      2.71976907e-002 9.39759165e-002 4.16734904e-001 1.15066059e-001
      3.11176684e-002 1.28666162e-002 1.89980976e-002 2.04847455e-002
      3.65323238e-002 4.14838493e-002 3.47808599e-001 4.16734904e-001
      2.16026872e-001 3.48067619e-002 2.18888354e-002 2.20511686e-002
      6.08948395e-002 7.00901747e-002 1.89990439e-002 4.15712833e-001
      2.46053234e-001 3.19782160e-002 6.45536836e-003 1.10983727e-002
      7.97858238e-002 2.29389325e-001 3.07497382e-001 6.79137260e-002
      5.45194633e-002 3.01826537e-001 2.38059834e-002 4.59523546e-003
      3.61810960e-002 1.32849053e-001 1.68044657e-001 2.03995109e-001
      1.21522605e-001 1.73847094e-001 3.07497382e-001 1.64751887e-001
      4.25884314e-002 1.51890200e-002 3.80967334e-002 9.05370861e-002
      1.10336922e-001 4.15511653e-002 2.13028520e-001 3.07497382e-001
      1.07827894e-001 3.07497382e-001 1.44100353e-001 8.24261159e-002
      8.47777501e-002 1.18064828e-001 1.09251730e-001 3.07497382e-001
      3.42601866e-001 9.12951902e-002 5.14618913e-003 2.37838272e-002
      5.31586483e-002 6.42265007e-002 9.23640132e-002 1.88436136e-002
      3.03263247e-001 3.42601866e-001 1.50521562e-001 5.28014153e-002
      3.22579965e-002 6.58071861e-002 3.22624706e-002 5.70444353e-002
      3.69895473e-002 2.85802186e-001 1.94514841e-001 3.45884860e-002
      1.27200847e-002 5.49565367e-002 1.35318786e-001 3.42601866e-001
      3.42601866e-001 3.98764461e-002 8.74601007e-002 2.48341098e-001
      1.88284412e-001 1.34778991e-001 7.34328702e-002 1.79050043e-001
      1.55697569e-001 1.67791933e-001 6.47723675e-002 1.14372768e-001
      2.98480809e-001 1.86746314e-001 1.08904079e-001 5.62442951e-002
      6.72458336e-002 5.16486317e-002 5.75512610e-002 3.88811193e-002
      2.20471784e-001 2.98480809e-001 2.17262626e-001 1.32977337e-001
      9.08850357e-002 6.03629798e-002 6.36872575e-002 3.43874022e-002
      1.66440513e-002 2.62479722e-001 1.90993786e-001 2.98480809e-001
      2.59154171e-001 1.33295223e-001 1.17668293e-001 8.54982734e-002
      8.79306719e-002 6.02469072e-002 1.05624773e-001 1.74412146e-001
      2.70047337e-001 2.98480809e-001 2.51055956e-001 1.05858289e-001
      5.05764484e-002 8.84294212e-002 7.82024115e-002 1.40640602e-001
      3.34821612e-001 1.42624408e-001 2.44595543e-001 8.70035738e-002
      3.29018235e-002 1.92108173e-002 1.04370601e-002 1.55736534e-002
      1.06249325e-001 2.86979735e-001 1.38608947e-001 3.34821612e-001
      2.62889534e-001 4.72032316e-002 1.86997838e-002 2.55276877e-002
      4.53414395e-002 1.12157583e-001 4.92657237e-002 1.29752040e-001
      3.34821612e-001 2.73717046e-001 5.89217842e-002 2.01290101e-002
      3.24178375e-002 3.18913944e-002 4.20957394e-002 3.82680185e-002
      1.52731776e-001 3.34821612e-001 3.34821612e-001 9.64096859e-002
      4.68924940e-002 5.40106855e-002 6.97146431e-002 2.80746724e-002
      3.16130407e-002 9.98570211e-003 2.70424299e-002 5.85923903e-002
      1.21101558e-001 3.03258032e-001 3.03258032e-001 1.14728406e-001
      3.58652174e-002 1.46517545e-001 9.76773724e-002 1.13359779e-001
      7.21265078e-002 1.68142959e-001 2.32948393e-001 1.99776933e-001
      5.76825365e-002 9.26993713e-002 1.78198852e-002 8.90373252e-003
      5.08147031e-002 5.92080839e-002 2.28498995e-001 3.03258032e-001
      3.03258032e-001 2.51890868e-001 2.15797741e-002 1.13420904e-001
      7.95349181e-002 1.95470303e-001 7.67861158e-002 1.72508240e-001
      3.03258032e-001 3.03258032e-001 6.87450543e-002 8.35410208e-002
      1.48771524e-001 1.86628118e-001 2.75990844e-001 1.27926484e-001
      1.00484401e-001 6.89308122e-002 5.96804023e-002 5.40723018e-002
      8.91683623e-002 7.73624033e-002 2.16072276e-001 3.45323473e-001
      2.65815616e-001 7.52257854e-002 1.40834935e-002 4.78102639e-002
      7.20201284e-002 7.13535026e-002 1.11708865e-001 1.88942254e-001
      3.45323473e-001 1.84849814e-001 1.05069727e-001 8.84795636e-002
      1.08416386e-001 3.75443697e-002 6.02546409e-002 5.96439205e-002
      2.79757917e-001 3.45323473e-001 2.96146393e-001 9.64248851e-002
      1.08104840e-001 7.61518404e-002 5.44374287e-002 3.14274505e-002
      2.74576992e-002 1.59895420e-001 3.22866827e-001 3.22866827e-001
      7.45064095e-002 2.05503516e-002 2.85836123e-002 4.57644910e-002
      2.22347509e-002 3.47805731e-002 1.29249930e-001 3.22866827e-001
      2.48206958e-001 1.40734121e-001 6.36289343e-002 9.18962657e-002
      1.29506469e-001 3.78089100e-002 5.09102270e-002 2.87190050e-001
      3.22866827e-001 2.17286870e-001 8.04973543e-002 8.87683034e-002
      4.44352180e-002 3.94279175e-002 2.66650636e-002 1.17918372e-001
      3.22866827e-001 3.22866827e-001 8.87707472e-002 7.51082078e-002
      2.70111971e-002 9.84571204e-002 1.19489029e-001 5.08217551e-002</_>
    <_>
      5.20346314e-002 2.49118432e-002 3.19748372e-002 8.40255171e-002
      7.20442012e-002 6.08974742e-003 1.10738864e-002 1.24543449e-002
      1.47551419e-002 2.51308203e-001 1.09116495e-001 7.91327842e-003
      1.57896653e-002 1.58465542e-002 1.01120900e-002 1.58682056e-002
      1.10393073e-002 5.21509685e-002 4.16841120e-001 4.06953782e-001
      1.66551352e-001 1.06281556e-001 1.39920413e-001 1.53207704e-001
      1.78543836e-001 2.76116859e-002 5.15040495e-002 4.16841120e-001
      4.16841120e-001 1.19952604e-001 4.38642129e-002 6.71511665e-002
      1.10815860e-001 1.77502781e-001 3.28542888e-002 1.73011497e-001
      2.40407780e-001 1.29048631e-001 4.18630010e-003 5.24970191e-003
      7.59301940e-003 4.22930252e-003 4.35407180e-003 2.86818040e-003
      3.11543662e-002 3.88314933e-001 3.01393330e-001 6.17393944e-003
      7.16036186e-003 1.37523403e-002 6.87675364e-003 1.24829239e-003
      2.86658225e-003 4.14726846e-002 3.88314933e-001 3.88314933e-001
      1.08255763e-002 4.94435895e-003 2.67819315e-002 2.74283644e-002
      2.82882676e-002 1.97005272e-002 1.50575891e-001 3.88314933e-001
      3.88314933e-001 7.59946322e-003 1.59210479e-003 1.20125031e-002
      1.40760671e-002 3.46851461e-002 3.82180922e-002 2.12550357e-001
      3.04632664e-001 3.04632664e-001 3.61004542e-003 5.44349151e-003
      1.16006862e-002 5.69772813e-003 2.10884144e-003 1.26076126e-002
      5.71535975e-002 3.04632664e-001 3.04632664e-001 1.64749101e-002
      6.93598241e-002 4.96379323e-002 2.01764219e-002 3.82808857e-002
      9.22773182e-002 1.51609421e-001 3.04632664e-001 3.04632664e-001
      9.18031018e-003 1.90354101e-002 1.54660167e-002 6.39385078e-003
      3.31661366e-002 3.43054496e-002 1.39318541e-001 3.04632664e-001
      3.04632664e-001 9.26920846e-002 3.04632664e-001 2.48563036e-001
      3.76764350e-002 7.88195431e-002 6.60389587e-002 1.11382075e-001
      1.33189902e-001 1.39293835e-001 8.09530988e-002 4.15873900e-002
      7.28798732e-002 1.23862013e-001 3.56836528e-001 5.91026172e-002
      1.34605663e-002 3.56836528e-001 3.42261285e-001 7.72227570e-002
      3.41170989e-002 6.63461164e-002 1.06987864e-001 3.56836528e-001
      1.55272558e-001 5.66936731e-002 1.71560347e-002 9.66090709e-003
      1.04111340e-002 7.33190775e-003 1.52340522e-002 3.84129137e-002
      3.56836528e-001 7.29219466e-002 7.72997364e-003 5.74616008e-002
      2.54773293e-002 2.65683588e-002 1.87493339e-002 3.79691496e-002
      6.63398430e-002 3.56836528e-001 3.21757078e-001 2.37683412e-002
      3.06222826e-001 2.56031871e-001 2.52172947e-002 1.64681617e-002
      6.15882315e-002 5.15253320e-002 2.48218745e-001 1.49321750e-001
      1.28173962e-001 3.06222826e-001 2.61246473e-001 1.75462142e-002
      5.52973291e-003 2.20506508e-002 3.06292083e-002 1.84812605e-001
      1.74173474e-001 2.28342012e-001 5.35205975e-002 1.79702137e-002
      3.05852443e-002 2.17685364e-002 4.55646142e-002 5.75951450e-002
      3.06222826e-001 3.06222826e-001 8.14927071e-002 1.46281838e-001
      5.60523979e-002 2.21816376e-002 1.01896655e-002 1.56604182e-002
      4.30085994e-002 3.06222826e-001 3.06222826e-001 1.74795374e-001
      2.78836459e-001 1.95436418e-001 3.20448428e-002 4.67838347e-002
      2.42236294e-002 1.73057728e-002 1.42947152e-001 1.39341861e-001
      2.50945091e-001 1.44405171e-001 9.10087302e-002 1.64523616e-001
      2.78836459e-001 2.66680300e-001 4.19549942e-002 9.13330168e-002
      7.99238384e-002 1.27485678e-001 1.81558058e-001 7.95602724e-002
      1.03652708e-001 1.27276421e-001 2.40596198e-002 2.40110401e-002
      2.78836459e-001 2.52475619e-001 2.39027992e-001 1.20717309e-001
      9.01485458e-002 2.78836459e-001 2.78836459e-001 2.25988105e-001
      2.84701046e-002 1.18390426e-001 9.04406905e-002 1.35030642e-001
      2.21301839e-001 6.73518702e-002 4.99917893e-003 2.74885027e-003
      4.80699167e-003 6.81682397e-003 1.63185611e-001 5.07868305e-002
      6.60461038e-002 2.52302200e-001 8.51585418e-002 3.37754451e-002
      1.31108509e-002 2.09455341e-002 1.08177140e-001 3.74949098e-001
      3.17119718e-001 5.56963868e-002 3.44902545e-001 1.28992558e-001
      1.05898939e-002 1.08164297e-002 6.67581847e-003 9.39367092e-005
      8.85857549e-003 2.84165144e-001 3.32569838e-001 3.43007594e-001
      1.63423434e-001 2.24208273e-002 7.26559479e-003 3.59210186e-002
      3.36180963e-002 2.12081134e-001 1.36179760e-001 2.05650195e-001
      4.62758765e-002 1.67955495e-002 1.96393877e-002 9.61482897e-003
      1.17766438e-002 7.97365680e-002 4.03868288e-001 2.60245264e-001
      3.63441072e-002 6.80498332e-002 2.81471685e-002 1.95042808e-002
      1.79793574e-002 1.36979660e-002 5.21100424e-002 4.03868288e-001
      3.58981580e-001 9.58087817e-002 7.15026632e-002 3.93338315e-002
      9.98774543e-003 3.32129351e-003 1.93140768e-002 4.53573465e-002
      4.03868288e-001 8.70565921e-002 2.79443972e-002 3.37809958e-002
      3.78000028e-002 2.39417106e-002 3.11500803e-002 3.95637602e-002
      4.58741225e-002 4.03868288e-001 3.02960604e-001 2.95714512e-002
      8.45225379e-002 4.74903658e-002 1.38781488e-001 2.21809864e-001
      4.92625348e-002 1.95853878e-002 2.99048603e-001 1.94929779e-001
      1.07587613e-001 5.64530268e-002 5.83175160e-002 2.99048603e-001
      2.99048603e-001 2.02347368e-001 1.56851374e-002 1.04351610e-001
      5.76204099e-002 5.17052561e-002 3.20112221e-002 4.50676456e-002
      1.34930030e-001 2.99048603e-001 1.77880004e-001 2.08068546e-002
      2.99048603e-001 1.96687445e-001 4.31014560e-002 1.46819679e-002
      3.19782160e-002 2.71624923e-001 2.99048603e-001 2.99048603e-001
      1.63194090e-002 6.67702407e-002 4.65960950e-002 1.74366254e-002</_>
    <_>
      6.47554025e-002 6.90380707e-002 2.44373575e-001 6.63151518e-002
      6.14675358e-002 4.41319272e-002 6.33632625e-003 1.22678597e-002
      6.48440644e-002 1.85699373e-001 7.60593340e-002 7.84045085e-002
      5.91336675e-002 6.70090169e-002 5.75144663e-002 1.04060713e-002
      1.01676725e-001 3.19816440e-001 7.83938095e-002 8.22083801e-002
      9.54624191e-002 9.18851718e-002 2.30433747e-001 3.19816440e-001
      8.46288130e-002 1.39601864e-002 8.02839100e-002 2.67544657e-001
      1.84515134e-001 1.03481032e-001 1.04548693e-001 3.19816440e-001
      3.19816440e-001 2.15230614e-001 2.51169086e-001 3.19816440e-001
      7.80145153e-002 1.19274920e-002 9.55579337e-003 1.09644914e-002
      1.09434025e-002 1.05678225e-002 4.29525273e-003 1.00372747e-001
      3.87100995e-001 5.99725693e-002 3.66081973e-003 5.53743960e-003
      7.89479911e-003 6.80605881e-003 4.53451043e-003 3.48607777e-003
      7.97241852e-002 3.25004160e-001 1.70988500e-001 4.56330739e-002
      3.14418934e-002 1.69291142e-002 8.55617300e-002 1.80373251e-001
      8.20820183e-002 3.79140705e-001 3.87100995e-001 1.90522909e-001
      2.24070973e-003 2.91382056e-003 5.67442924e-003 2.22889706e-002
      1.54901296e-002 6.47845864e-002 3.87100995e-001 3.87100995e-001
      5.51687665e-002 8.60496517e-003 1.20193353e-002 1.07574072e-002
      9.45413765e-003 4.32490883e-003 2.92214006e-002 6.90284446e-002
      2.24474013e-001 3.93261835e-002 8.55616853e-003 1.83719285e-002
      1.62146632e-002 7.87261873e-003 2.00099708e-003 1.37741670e-001
      1.67914942e-001 1.19284637e-001 2.31355742e-001 6.88018790e-003
      6.98853796e-003 8.26845784e-003 3.11933877e-003 2.57087871e-003
      2.34826505e-002 4.36874151e-001 4.36874151e-001 2.54009724e-001
      8.07215180e-003 1.83577985e-002 2.13635303e-002 1.86101981e-002
      6.10767072e-003 3.35582271e-002 4.22771007e-001 4.36874151e-001
      1.26698865e-002 1.38624655e-002 9.72471572e-003 1.46180857e-002
      1.45155147e-001 3.33740443e-001 9.03139487e-002 9.74373706e-003
      2.43743751e-002 6.65386170e-002 5.10760322e-002 3.36513110e-002
      2.80390941e-002 3.02952319e-001 3.66692066e-001 3.66692066e-001
      8.90550166e-002 2.06569672e-001 2.27652341e-002 5.69525454e-003
      3.61834373e-003 6.75425725e-003 7.90111199e-002 1.64837360e-001
      4.35415097e-002 7.72613883e-002 1.48858324e-001 3.31673212e-002
      8.48178938e-003 1.09656947e-002 3.62461247e-002 2.96545804e-001
      3.66692066e-001 3.66692066e-001 6.26516640e-002 8.16699490e-002
      7.43413866e-002 1.48454346e-002 1.15136132e-002 1.36382384e-002
      1.14005268e-001 2.89509922e-001 2.89509922e-001 1.95971757e-001
      2.79150963e-001 9.94315371e-002 4.76438599e-003 1.82874664e-003
      4.97479783e-003 4.15910371e-002 4.98825312e-002 2.89509922e-001
      2.89509922e-001 2.89509922e-001 2.75072511e-002 2.49400293e-003
      2.58002407e-003 2.36062743e-002 1.44933209e-001 2.89509922e-001
      2.89509922e-001 1.31056800e-001 3.55221480e-002 4.94430400e-002
      1.16577111e-002 7.03643868e-003 1.61306877e-002 8.17161575e-002
      1.57241151e-001 2.89509922e-001 2.89509922e-001 1.34728417e-001
      1.21783942e-001 5.40950056e-003 8.06767493e-003 1.89677591e-003
      4.22117207e-003 2.48136315e-002 1.56956449e-001 3.23650330e-001
      3.23650330e-001 1.43487826e-001 1.95627660e-002 1.95111796e-001
      3.36643830e-002 2.59187594e-002 1.93556715e-002 6.98776543e-002
      2.66641080e-001 3.23650330e-001 5.64568788e-002 5.81230335e-002
      1.28858700e-001 1.38037121e-002 2.63984744e-002 8.02131370e-002
      3.23650330e-001 3.23650330e-001 1.59536928e-001 6.42904341e-002
      1.56783953e-001 3.23650330e-001 1.04407579e-001 3.64771150e-002
      3.75111848e-002 2.13469148e-001 1.51776075e-001 1.54818639e-001
      4.40074131e-002 1.37632163e-002 7.66388094e-003 1.02395490e-002
      3.80379558e-002 5.28467186e-002 9.11833048e-002 1.62102222e-001
      2.20319957e-001 3.95483412e-002 2.39485297e-002 2.44519934e-002
      5.93217351e-002 3.17905903e-001 3.32676828e-001 3.32676828e-001
      6.75439462e-002 1.30018800e-001 3.12416013e-002 8.83973110e-003
      2.09418172e-003 2.42202473e-003 1.84368156e-002 6.27281470e-003
      3.32676828e-001 3.32676828e-001 9.50758010e-002 4.00813445e-002
      1.63148269e-002 8.23828764e-003 2.82591730e-002 2.69137859e-001
      3.32676828e-001 3.32676828e-001 1.53707355e-001 7.00150430e-002
      1.15839848e-002 5.24329208e-003 7.92879611e-003 2.87326891e-002
      1.73877925e-001 3.10591012e-001 3.10591012e-001 5.68043254e-002
      2.62719765e-002 2.55410187e-002 5.99247366e-002 1.09821498e-001
      2.75566634e-002 8.02826062e-002 2.30570674e-001 3.10591012e-001
      2.28510246e-001 7.66471624e-002 1.61351506e-002 2.67074816e-002
      5.54785505e-002 1.54293599e-002 2.12630004e-001 3.10591012e-001
      2.82068282e-001 1.88231450e-002 3.21358182e-002 1.97346173e-002
      1.98268965e-001 3.10591012e-001 3.80069613e-002 1.09654807e-001
      2.83377767e-001 2.72242874e-001 6.29221052e-002 5.09999953e-002
      1.88413039e-002 1.65356278e-001 3.40725541e-001 3.54240276e-002
      2.02053934e-002 4.08072621e-002 2.67540991e-001 1.62909254e-001
      5.06133512e-002 8.17941502e-002 2.92645067e-001 3.41782421e-001
      1.64408401e-001 4.24248204e-002 2.13121548e-002 9.38745961e-002
      6.70971721e-002 5.04009984e-002 2.09659077e-002 2.71405727e-001
      3.41782421e-001 6.97994381e-002 4.62720022e-002 2.87549458e-002
      8.09248760e-002 3.95467877e-002 1.42526971e-002 7.27363154e-002
      3.41782421e-001 3.41782421e-001 1.98389277e-001 8.14770535e-002
      4.04979773e-002 1.51034407e-002 1.91485919e-002 1.66152883e-002</_>
    <_>
      7.61803389e-002 1.09458320e-001 8.53722543e-002 1.12741783e-001
      2.13725626e-001 2.18245700e-001 2.18245700e-001 1.72586516e-001
      1.12151302e-001 6.70342371e-002 7.60778636e-002 7.96241239e-002
      1.12811983e-001 2.00747624e-001 1.62410498e-001 2.18245700e-001
      2.13765919e-001 1.30578101e-001 1.36477679e-001 1.09546967e-001
      2.00315341e-001 1.40911847e-001 1.97321445e-001 2.18245700e-001
      2.18245700e-001 2.18245700e-001 2.11517110e-001 1.88847572e-001
      1.07420355e-001 1.26260296e-001 9.91170704e-002 1.60992026e-001
      2.18245700e-001 2.18245700e-001 1.72757015e-001 1.70749500e-001
      1.14684634e-001 1.62070274e-001 1.10413589e-001 1.06370918e-001
      1.63431063e-001 1.78953484e-001 2.23043010e-001 2.23043010e-001
      8.52817148e-002 2.23043010e-001 2.23043010e-001 1.68780297e-001
      2.23043010e-001 2.23043010e-001 1.44519061e-001 2.23043010e-001
      2.23043010e-001 1.64915890e-001 1.71101898e-001 1.15080521e-001
      8.87154415e-002 7.95693472e-002 1.13461912e-001 8.96992832e-002
      2.18300477e-001 1.17800787e-001 1.18088633e-001 2.20592171e-001
      9.85915735e-002 7.59735331e-002 1.69781640e-001 1.71029732e-001
      9.05925408e-002 2.23043010e-001 1.39840513e-001 2.03530461e-001
      2.30895087e-001 2.30895087e-001 1.19973309e-001 1.93792701e-001
      2.30895087e-001 7.38357157e-002 1.42139688e-001 2.05205217e-001
      2.30895087e-001 2.30895087e-001 2.24368781e-001 1.35063127e-001
      9.86926705e-002 1.70259044e-001 1.32578075e-001 1.67763829e-001
      1.86702281e-001 2.30895087e-001 2.25325152e-001 1.07075036e-001
      9.03341174e-002 1.64762348e-001 1.40099406e-001 6.00143485e-002
      1.39444813e-001 1.32371932e-001 2.30895087e-001 2.30895087e-001
      1.55864641e-001 9.72063392e-002 5.99456243e-002 9.49302018e-002
      8.08153450e-002 9.17276815e-002 8.35545212e-002 1.93835884e-001
      2.43399605e-001 1.32796347e-001 2.43399605e-001 1.53831258e-001
      1.24749698e-001 1.59910291e-001 1.58203378e-001 1.43719554e-001
      2.43399605e-001 2.43399605e-001 2.43399605e-001 2.05473527e-001
      8.26304182e-002 8.20989385e-002 1.17539458e-001 1.03061892e-001
      1.26805812e-001 2.43399605e-001 2.43399605e-001 1.04572549e-001
      1.25602156e-001 1.20236799e-001 8.26396048e-002 5.84578030e-002
      4.90968674e-002 8.57948437e-002 2.35290334e-001 2.43399605e-001
      2.43399605e-001 1.59705222e-001 9.01212543e-002 2.96061765e-002
      1.12490673e-002 4.91633080e-002 1.64674953e-001 2.43399605e-001
      2.31337100e-001 2.31337100e-001 1.98201761e-001 9.29839909e-002
      9.48164687e-002 5.20449802e-002 8.61314535e-002 1.56844661e-001
      2.31337100e-001 2.12659329e-001 1.50696784e-001 1.60645962e-001
      2.13685662e-001 1.68562144e-001 7.85948932e-002 1.32153809e-001
      1.23451523e-001 2.06356540e-001 2.31337100e-001 2.31337100e-001
      1.44911200e-001 7.64523372e-002 6.31827936e-002 1.83197726e-002
      7.09227622e-002 2.31337100e-001 2.31337100e-001 2.31337100e-001
      1.56770527e-001 1.38094932e-001 2.14336857e-001 1.34901538e-001
      5.29790185e-002 9.55455452e-002 1.55641720e-001 2.20175028e-001
      1.88248292e-001 1.19767971e-001 1.98590875e-001 2.23658666e-001
      2.23658666e-001 1.39190391e-001 1.52399480e-001 6.25939891e-002
      1.59266412e-001 1.73042074e-001 9.24777016e-002 1.03911445e-001
      1.43626571e-001 1.87461123e-001 1.54537469e-001 1.05185680e-001
      6.65283576e-002 1.39096558e-001 2.23658666e-001 1.57540709e-001
      1.53007075e-001 2.23658666e-001 2.23658666e-001 1.54055163e-001
      1.41132504e-001 1.34851709e-001 2.23658666e-001 2.12725282e-001
      1.02529861e-001 5.41252084e-002 1.24893494e-001 1.91714123e-001
      2.21751899e-001 1.71896532e-001 1.51260912e-001 2.23658666e-001
      2.32969865e-001 1.10594310e-001 2.94352155e-002 8.77805054e-002
      1.12699017e-001 5.85115440e-002 5.62107563e-002 4.99402769e-002
      1.86707348e-001 2.32969865e-001 1.19158693e-001 6.49814680e-002
      1.00228958e-001 9.74994153e-002 4.29417789e-002 6.23242371e-002
      1.22351974e-001 2.32969865e-001 2.32969865e-001 2.24271029e-001
      1.21961027e-001 2.32969865e-001 2.32969865e-001 1.32394403e-001
      2.00625002e-001 4.74109314e-002 1.90321714e-001 2.19446525e-001
      2.24127784e-001 1.27236381e-001 2.32969865e-001 2.32969865e-001
      1.97721943e-001 2.32969865e-001 6.09536879e-002 2.32969865e-001
      1.92446977e-001 8.49982426e-002 7.02548623e-002 7.70553052e-002
      8.41860697e-002 3.73346433e-002 2.86666434e-002 6.85875192e-002
      1.36989966e-001 2.73025542e-001 1.41339228e-001 1.00400172e-001
      1.62619457e-001 1.54570714e-001 8.13716352e-002 4.68582809e-002
      3.71485651e-002 2.28660405e-001 1.39226854e-001 9.03849751e-002
      1.07984081e-001 2.01135412e-001 2.73025542e-001 2.71266848e-001
      7.46324062e-002 3.83342691e-002 1.15890697e-001 2.73025542e-001
      1.54686689e-001 2.29958698e-001 2.73025542e-001 2.73025542e-001
      2.73025542e-001 1.25984639e-001 3.61444317e-002 2.26973742e-001
      2.53430158e-001 9.54512805e-002 8.75671133e-002 1.31681994e-001
      1.61908701e-001 1.66693851e-001 8.70534182e-002 1.01326145e-001
      2.53430158e-001 1.26589149e-001 4.18799333e-002 2.54500117e-002
      6.24258853e-002 1.32286713e-001 1.29682571e-001 9.40023512e-002
      1.18717454e-001 1.62801057e-001 2.53430158e-001 1.24667004e-001
      2.41054863e-001 2.53430158e-001 2.53430158e-001 2.53430158e-001
      1.98201835e-001 1.18070260e-001 2.53430158e-001 1.90792382e-001
      5.31587899e-002 4.98802029e-002 9.70316976e-002 2.53430158e-001
      1.50955692e-001 1.17091782e-001 1.13884568e-001 2.10093752e-001</_>
    <_>
      1.93837255e-001 1.30747125e-001 7.51895607e-002 1.77339569e-001
      1.63861200e-001 2.02397317e-001 1.22733563e-001 1.38244137e-001
      2.18809441e-001 1.11759901e-001 1.41844004e-001 1.09734960e-001
      1.71424508e-001 2.07544789e-001 2.18809441e-001 1.46326423e-001
      5.50046265e-002 7.33660385e-002 2.18809441e-001 1.84811831e-001
      1.32714435e-001 2.18809441e-001 2.18809441e-001 2.18809441e-001
      2.18809441e-001 1.73271790e-001 2.18809441e-001 7.71424472e-002
      1.17993839e-001 1.33284107e-001 1.93150327e-001 2.18809441e-001
      1.56890586e-001 1.71129346e-001 1.13020100e-001 5.30219227e-002
      2.23523214e-001 1.57613948e-001 2.23523214e-001 2.23523214e-001
      2.23523214e-001 1.78686097e-001 1.71719164e-001 9.11047757e-002
      8.13095048e-002 2.23523214e-001 2.00455770e-001 2.23523214e-001
      2.23523214e-001 2.23523214e-001 1.03283830e-001 1.90693960e-001
      1.42565891e-001 1.15944557e-001 9.35278013e-002 6.38400316e-002
      1.22764647e-001 1.56324372e-001 2.20912412e-001 1.25159010e-001
      1.25320300e-001 6.85892925e-002 5.44628091e-002 1.74996853e-001
      1.98053360e-001 2.23523214e-001 1.40797123e-001 1.97993234e-001
      1.19054772e-001 1.59691572e-001 1.00538813e-001 8.43698829e-002
      7.59297386e-002 1.04712665e-001 1.49672493e-001 1.82038367e-001
      2.46894553e-001 1.23979896e-001 8.57507065e-002 5.43905422e-002
      4.62905914e-002 2.46894553e-001 2.46894553e-001 2.46894553e-001
      2.46894553e-001 2.46894553e-001 1.87397793e-001 1.17387883e-001
      6.18895255e-002 1.56373754e-001 1.22658737e-001 1.52787805e-001
      1.84886232e-001 9.38777030e-002 1.95088387e-001 1.08768255e-001
      5.45915328e-002 4.10957336e-002 3.70861925e-002 2.46894553e-001
      2.46894553e-001 2.46894553e-001 1.84338152e-001 2.46894553e-001
      1.46316916e-001 3.41613591e-002 3.05286217e-002 1.26012519e-001
      2.13829622e-001 2.07468495e-001 1.63765103e-001 1.59833804e-001
      1.93225652e-001 1.80174187e-001 1.24618359e-001 9.24736187e-002
      1.76796198e-001 8.99679437e-002 1.17447212e-001 1.27075016e-001
      1.78354979e-001 2.13829622e-001 1.00191355e-001 1.45150021e-001
      1.12748705e-001 7.48881623e-002 2.13829622e-001 1.79355904e-001
      1.56510636e-001 1.79458693e-001 2.13829622e-001 2.13829622e-001
      2.13829622e-001 2.13829622e-001 2.13829622e-001 1.58658147e-001
      1.72779694e-001 1.00339882e-001 1.36560678e-001 1.87765673e-001
      1.50806978e-001 1.67486638e-001 1.16526268e-001 1.41482890e-001
      6.07732609e-002 5.02018072e-002 1.45596817e-001 2.02952862e-001
      2.19691083e-001 1.31195530e-001 1.81649625e-001 1.91704229e-001
      1.21082544e-001 2.19613060e-001 2.06933111e-001 1.94479540e-001
      1.15303993e-001 1.69095948e-001 1.25036687e-001 1.58106863e-001
      1.84904799e-001 1.33107722e-001 1.27641529e-001 1.43925577e-001
      1.11270994e-001 9.69648212e-002 2.10452452e-001 1.61078423e-001
      2.05836043e-001 2.19691083e-001 2.11564332e-001 1.20350718e-001
      1.94193825e-001 1.38726711e-001 9.90692601e-002 1.22761175e-001
      1.78407341e-001 2.19691083e-001 2.19691083e-001 1.64056227e-001
      2.51751512e-001 2.51751512e-001 2.41463229e-001 1.15880780e-001
      1.42643899e-001 1.34815529e-001 7.79968947e-002 7.15366229e-002
      9.20594558e-002 2.51751512e-001 2.51751512e-001 2.51751512e-001
      1.90855920e-001 2.51751512e-001 1.95076466e-001 7.84809515e-002
      4.83842269e-002 1.83742136e-001 1.75822645e-001 1.83357760e-001
      1.44180030e-001 1.56785160e-001 9.45681036e-002 1.36747330e-001
      1.35640025e-001 1.54762745e-001 1.08168900e-001 2.11157173e-001
      1.15532316e-001 1.01847038e-001 1.28159031e-001 1.38788119e-001
      1.12862416e-001 1.47664756e-001 1.60146385e-001 1.21477365e-001
      1.01192459e-001 1.01110987e-001 1.98140308e-001 2.20351249e-001
      2.20351249e-001 2.20351249e-001 1.53497070e-001 2.14327112e-001
      1.87834769e-001 1.11834146e-001 1.58442169e-001 9.20409113e-002
      1.24050200e-001 1.63801387e-001 1.36262834e-001 1.29014581e-001
      9.60758924e-002 1.13539010e-001 1.50969386e-001 7.40075111e-002
      1.32314026e-001 1.83257893e-001 2.20351249e-001 2.20351249e-001
      8.66402611e-002 2.20351249e-001 2.20351249e-001 1.35479748e-001
      1.14827327e-001 1.07746340e-001 1.73935756e-001 2.20351249e-001
      2.20351249e-001 1.49737865e-001 2.02555269e-001 1.64160401e-001
      1.12844795e-001 2.19059989e-001 1.91028833e-001 8.41114670e-002
      1.08056009e-001 1.46167368e-001 1.22535691e-001 1.78194806e-001
      1.29341215e-001 6.06650710e-002 1.85266525e-001 1.72777236e-001
      5.89418672e-002 8.83466899e-002 2.19059989e-001 1.99650094e-001
      2.19059989e-001 1.23508975e-001 1.37263224e-001 2.19059989e-001
      2.19059989e-001 2.16587096e-001 2.19059989e-001 2.19059989e-001
      1.09063022e-001 1.48859411e-001 1.13556653e-001 1.40805826e-001
      2.19059989e-001 2.13589385e-001 1.16099499e-001 2.03223571e-001
      1.84813619e-001 1.76394507e-001 1.40798762e-001 9.38196704e-002
      5.97078130e-002 7.06348270e-002 8.03933814e-002 7.48251006e-002
      1.00072570e-001 1.69558153e-001 1.47565261e-001 1.21912599e-001
      8.43300074e-002 2.30340496e-001 7.34655559e-002 7.19706714e-002
      1.13166511e-001 1.99188903e-001 1.68345913e-001 1.59783468e-001
      2.28199169e-001 2.37530753e-001 9.11128297e-002 1.85500890e-001
      1.23624682e-001 5.91620356e-002 1.67966709e-001 1.81808203e-001
      2.37530753e-001 1.50143757e-001 7.89451599e-002 2.37530753e-001
      1.57922626e-001 1.59255072e-001 1.38659760e-001 2.37530753e-001
      2.37530753e-001 2.37530753e-001 2.37530753e-001 2.37530753e-001</_>
    <_>
      1.78849772e-002 1.11615928e-002 1.29510775e-001 3.11986864e-001
      3.11986864e-001 5.94252571e-002 4.43261378e-002 1.83446910e-002
      2.17983816e-002 4.86224480e-002 2.29083151e-002 7.72381127e-002
      3.11986864e-001 1.69524059e-001 5.03363684e-002 3.11986864e-001
      1.49611428e-001 5.68008684e-002 3.87934633e-002 1.30415764e-002
      1.49996743e-001 3.11986864e-001 2.86999851e-001 6.20875545e-002
      3.70651744e-002 5.78052066e-002 8.00180882e-002 1.23840727e-001
      2.19801292e-002 6.57892749e-002 2.35938117e-001 7.43907988e-002
      9.67059731e-002 3.11986864e-001 2.80277878e-001 1.81199417e-001
      2.19968129e-002 7.88974110e-003 1.11745726e-002 1.59384590e-002
      2.38014124e-002 3.17252725e-002 3.81557286e-001 2.19595999e-001
      2.65910570e-002 2.54232120e-002 9.49338265e-003 9.56263300e-003
      5.22039644e-003 2.09549274e-002 2.93881837e-002 3.81557286e-001
      1.74801722e-001 5.19215055e-002 6.44392669e-002 1.50771318e-002
      7.04716565e-003 7.46790040e-003 1.74003076e-002 7.31357932e-002
      3.81557286e-001 3.81557286e-001 1.01889804e-001 2.39410326e-002
      1.66481845e-002 1.72640420e-002 6.07897714e-003 4.15975265e-002
      8.65987316e-002 3.81557286e-001 3.81557286e-001 7.00155869e-002
      1.05302364e-001 4.44267578e-002 2.53140498e-002 1.19638527e-002
      2.24079136e-002 2.57695597e-002 2.10625499e-001 1.76820904e-001
      2.03020081e-001 2.60849744e-001 4.18835916e-002 2.01055631e-002
      2.13390980e-002 1.87841561e-002 1.52565213e-002 3.00988164e-002
      2.83127993e-001 3.35044593e-001 1.27434418e-001 3.82316597e-002
      2.51485407e-002 5.40817017e-003 2.66469996e-002 1.25304937e-001
      3.35044593e-001 3.09911847e-001 1.71160296e-001 3.35044593e-001
      3.25021967e-002 7.12072710e-003 2.54004891e-003 2.80103949e-003
      3.92775051e-002 2.84893066e-001 1.39719307e-001 3.35044593e-001
      5.92609085e-002 3.88344973e-002 1.38114497e-001 2.86063910e-001
      2.47723565e-001 3.73292603e-002 5.71500137e-002 9.44085568e-002
      1.14691012e-001 2.57753581e-001 1.06564499e-001 6.27120957e-002
      9.64198336e-002 4.01775315e-002 4.88167368e-002 2.12618545e-001
      2.86063910e-001 2.30241269e-001 1.53654754e-001 1.31859913e-001
      1.09395795e-001 2.86063910e-001 2.79728353e-001 3.41922231e-002
      5.13112210e-002 7.38416165e-002 1.73009321e-001 2.86063910e-001
      2.86063910e-001 5.39194942e-002 6.65503964e-002 2.55329702e-002
      1.47693194e-002 5.59445135e-002 1.37783587e-001 2.86063910e-001
      1.55462131e-001 6.41629845e-002 1.39521621e-002 8.55793431e-003
      4.30161692e-002 5.98401129e-002 2.76076168e-001 3.15161496e-001
      1.40364394e-001 1.02992944e-001 6.78508878e-002 3.48243564e-002
      1.57362372e-002 1.15925528e-001 6.88695088e-002 3.15161496e-001
      3.15161496e-001 9.50025246e-002 3.15161496e-001 3.15161496e-001
      1.84522588e-002 1.06493644e-002 4.17178944e-002 3.88289765e-002
      4.36644368e-002 1.43038198e-001 1.76359057e-001 3.15161496e-001
      3.15161496e-001 3.67605872e-002 1.99220255e-002 1.05250232e-001
      3.97722237e-002 1.55535981e-001 1.39815018e-001 1.11631609e-001
      1.12657450e-001 6.83260858e-002 4.34035510e-002 1.04298415e-002
      5.88768311e-002 8.45263451e-002 3.18905085e-001 2.19775900e-001
      5.31063080e-002 1.69294327e-001 3.94939780e-002 3.35961133e-002
      1.48907611e-002 4.29712571e-002 9.72885564e-002 3.18905085e-001
      9.01280418e-002 1.04867540e-001 3.18905085e-001 3.18905085e-001
      1.01111792e-001 2.39169747e-002 8.27797800e-002 5.98901287e-002
      3.18905085e-001 9.85365808e-002 6.45719767e-002 2.13667586e-001
      3.12402666e-001 1.41794994e-001 5.86367249e-002 1.24062963e-001
      1.43043101e-001 3.18905085e-001 5.99909127e-002 4.65095602e-002
      3.17645073e-001 3.17645073e-001 3.14060487e-002 3.17645073e-001
      1.60334527e-001 4.35639992e-002 1.08705536e-002 1.93894003e-002
      1.21840991e-001 3.17645073e-001 3.17645073e-001 1.50507726e-002
      2.51461584e-002 1.22659970e-002 5.36864111e-003 3.84051609e-003
      1.24609154e-002 1.25703782e-001 3.17645073e-001 3.17645073e-001
      8.36415589e-003 6.18878119e-002 5.21676317e-002 2.65874788e-002
      1.46025047e-002 5.10736443e-002 1.09865814e-001 3.17645073e-001
      3.17645073e-001 4.41881502e-003 2.56396737e-003 1.00720935e-002
      3.36794066e-003 8.66068061e-003 1.29762413e-002 7.20923096e-002
      3.96574676e-001 3.96574676e-001 9.65285487e-003 4.17956756e-003
      9.74845048e-003 9.27773863e-003 3.06092575e-003 2.09622104e-002
      1.04898810e-001 3.96574676e-001 3.96574676e-001 1.09703755e-002
      7.30104931e-003 2.35558096e-002 8.79842136e-003 9.35018249e-003
      1.46291424e-002 7.60522410e-002 3.96574676e-001 3.34486246e-001
      7.32528139e-003 5.26440563e-003 1.14982063e-002 2.31462368e-003
      8.49150959e-003 5.00433892e-003 4.98408079e-002 2.12464988e-001
      1.73331410e-001 1.09532326e-002 5.71319554e-003 1.15504833e-002
      3.37728043e-003 8.37239996e-003 5.75597351e-003 2.78945360e-002
      4.39050823e-001 4.39050823e-001 9.79142413e-002 2.43513267e-002
      6.20120540e-002 3.22159193e-002 7.85615146e-002 2.00807936e-002
      1.37466073e-001 4.39050823e-001 4.39050823e-001 1.88155040e-001
      1.04697995e-001 1.54455006e-001 1.00109518e-001 1.04238465e-001
      2.69782431e-002 9.55960006e-002 1.78181052e-001 1.02781050e-001
      1.20701399e-002 6.63954020e-003 2.23866999e-002 5.90127381e-003
      1.18382853e-002 1.11897336e-002 3.84248011e-002 4.11483534e-002
      2.07663663e-002 4.49623168e-002 1.31528348e-001 1.26711190e-001
      1.43791884e-002 9.72075947e-003 9.87620838e-003 1.90106258e-002</_>
    <_>
      1.30695269e-001 1.87644735e-002 4.97470759e-002 1.17911696e-001
      2.08352253e-001 2.72601545e-001 2.72533059e-001 5.86328544e-002
      2.24350125e-001 1.86301842e-001 4.83384393e-002 5.77476285e-002
      6.19293414e-002 1.73396930e-001 1.56171396e-001 6.75577745e-002
      9.05588940e-002 2.72601545e-001 9.15400684e-002 5.30692153e-002
      4.01432775e-002 8.57873410e-002 2.72601545e-001 2.72601545e-001
      2.72601545e-001 4.97031957e-002 1.53173342e-001 7.13686720e-002
      9.74537805e-002 7.81700090e-002 9.23173055e-002 2.72601545e-001
      2.72601545e-001 2.72601545e-001 7.97772259e-002 6.62780255e-002
      2.24724039e-001 1.15041688e-001 1.04878657e-001 5.71272820e-002
      1.11315593e-001 5.49786687e-002 2.17781030e-002 1.50434345e-001
      2.94781834e-001 2.94781834e-001 9.12544057e-002 7.59942010e-002
      4.40309010e-002 8.35573077e-002 3.63214612e-002 1.21530807e-002
      1.34214163e-001 2.94781834e-001 1.16143219e-001 1.78105712e-001
      1.84587210e-001 1.92744911e-001 2.27496177e-001 1.72272936e-001
      1.18608095e-001 8.55048224e-002 1.22173764e-001 1.69511124e-001
      1.58693895e-001 2.94781834e-001 2.85292238e-001 2.27553114e-001
      1.29033551e-001 8.20948929e-002 6.40724450e-002 2.04186723e-001
      1.78667903e-001 3.08727752e-002 1.48327276e-001 1.08740091e-001
      5.97701445e-002 2.64548436e-002 4.99371206e-003 6.10092804e-002
      3.20040315e-001 1.12605967e-001 6.23249896e-002 3.20040315e-001
      3.20040315e-001 1.46513700e-001 5.82504719e-002 3.72298695e-002
      1.10294729e-001 3.20040315e-001 5.63440993e-002 4.98638228e-002
      3.20040315e-001 3.20040315e-001 1.00288309e-001 3.02826464e-002
      2.00290158e-002 1.82399154e-002 9.41708907e-002 2.25368142e-002
      3.88693474e-002 3.20040315e-001 3.20040315e-001 1.30910382e-001
      3.19661312e-002 6.60117297e-003 1.25584537e-002 3.29139903e-002
      4.25822996e-002 3.46850604e-002 1.55458460e-002 6.68164641e-002
      2.74094462e-001 2.84541458e-001 2.84541458e-001 4.21898663e-002
      7.68377036e-002 3.70503217e-002 5.47921024e-002 3.86131071e-002
      8.78271237e-002 2.64830828e-001 2.84541458e-001 2.84541458e-001
      5.81268892e-002 5.49086891e-002 5.28064109e-002 1.60479434e-002
      1.20826336e-002 5.42816184e-002 2.42281407e-001 2.84541458e-001
      2.84541458e-001 6.76057041e-002 3.25889923e-002 4.66829017e-002
      1.00157754e-002 6.26087235e-003 9.37489793e-002 2.84541458e-001
      2.84541458e-001 2.84541458e-001 5.54284677e-002 5.64642102e-002
      5.78176752e-002 8.39542225e-002 1.09034806e-001 1.93328217e-001
      2.18953490e-001 1.92443460e-001 1.57500967e-001 4.02945057e-002
      6.16657436e-002 8.65577012e-002 1.08325623e-001 3.17367047e-001
      3.17367047e-001 1.73865765e-001 1.37529910e-001 1.09596521e-001
      3.21346968e-002 5.78791834e-002 7.90330619e-002 2.70733759e-002
      1.34514019e-001 2.39470899e-001 2.38461733e-001 2.95918465e-001
      1.83984041e-001 3.61287110e-002 1.08307563e-001 6.80447519e-002
      6.58069551e-002 3.17367047e-001 3.17367047e-001 1.72504783e-001
      1.09381653e-001 6.70219436e-002 1.35168359e-002 7.22393170e-002
      5.26597686e-002 6.71883002e-002 3.61870944e-001 3.61870944e-001
      8.75804350e-002 3.34129743e-002 3.35621499e-002 1.59945339e-002
      2.78980471e-002 4.54497710e-002 5.26660569e-002 3.61870944e-001
      3.61870944e-001 1.10795386e-001 1.76217780e-002 7.79993320e-003
      1.34780491e-002 1.10890428e-002 3.66262831e-002 4.59735878e-002
      3.61870944e-001 3.61870944e-001 1.00131072e-001 3.17412689e-002
      1.65477488e-002 5.34601370e-003 2.52546538e-002 4.54381704e-002
      4.27312441e-002 2.77428627e-001 2.57037878e-001 1.01919703e-001
      2.64999997e-002 1.95748974e-002 1.49448207e-002 2.45850347e-002
      9.48975310e-002 3.33159082e-002 1.47094373e-002 4.94251996e-002
      1.23206757e-001 3.16875041e-001 3.16875041e-001 8.45889747e-002
      5.96040115e-002 6.02655895e-002 1.64452605e-002 2.17768848e-002
      8.02072957e-002 2.72501498e-001 3.16875041e-001 3.16875041e-001
      3.97714712e-002 2.90887207e-002 8.29039142e-002 3.74267288e-002
      7.27022216e-002 8.04811642e-002 1.03593834e-001 2.08470687e-001
      1.78231180e-001 4.32998054e-002 6.41196743e-002 7.78810456e-002
      4.08231504e-002 1.79446474e-001 1.11394256e-001 3.16875041e-001
      3.16875041e-001 3.16875041e-001 2.16629691e-002 5.49191125e-002
      2.12034043e-002 1.18800066e-002 1.84567049e-001 2.14941502e-001
      1.39959827e-001 2.82520175e-001 1.15506425e-001 1.26941120e-002
      3.27139385e-002 3.66010070e-002 2.35482231e-002 2.90810674e-001
      2.90810674e-001 1.00860059e-001 5.38953021e-002 2.02129614e-002
      4.12352383e-003 6.42249361e-002 3.89278978e-002 7.24115819e-002
      2.90810674e-001 2.77264982e-001 2.45786637e-001 2.90810674e-001
      1.62953943e-001 2.87481770e-002 3.20459642e-002 1.66010857e-001
      1.01192057e-001 2.90810674e-001 2.90810674e-001 9.58876163e-002
      8.07370394e-002 3.38648520e-002 5.30590154e-002 2.13036016e-001
      9.88118276e-002 4.37961183e-002 3.32368821e-001 3.32368821e-001
      1.18367776e-001 5.30168228e-002 2.97911037e-002 5.05285431e-003
      1.41848609e-001 1.04119785e-001 6.25979155e-002 1.17044196e-001
      1.27140075e-001 1.00954518e-001 6.15098365e-002 5.47565147e-002
      3.30851898e-002 1.12062410e-001 3.32368821e-001 8.44394043e-002
      2.74193436e-001 2.34385312e-001 7.51495585e-002 8.71296823e-002
      5.77832088e-002 9.90157425e-002 3.32368821e-001 3.09731245e-001
      1.11838348e-001 5.04444651e-002 6.22501448e-002 9.09421891e-002
      8.67847204e-002 7.52369240e-002 1.39973402e-001 3.32368821e-001</_>
    <_>
      9.09872949e-002 7.23483339e-002 5.37153073e-002 6.60141855e-002
      7.96258524e-002 8.71333703e-002 8.77840146e-002 7.83881545e-002
      7.92832896e-002 1.19104356e-001 6.94365501e-002 1.28836602e-001
      2.42753595e-001 2.89011091e-001 2.89011091e-001 2.89011091e-001
      2.81772733e-001 1.57555312e-001 1.86943665e-001 8.74299556e-002
      8.12549591e-002 1.04025610e-001 5.56993745e-002 3.93647216e-002
      4.42147106e-002 6.34538755e-002 1.23307675e-001 1.73705533e-001
      1.43041730e-001 2.62911052e-001 2.89011091e-001 2.89011091e-001
      2.40889743e-001 1.95852220e-001 5.51882908e-002 1.44403458e-001
      1.02359474e-001 1.10647693e-001 8.64449516e-002 1.11611001e-001
      1.94729879e-001 2.30740070e-001 2.30740070e-001 9.09898877e-002
      6.58771023e-002 2.30740070e-001 1.97938949e-001 1.23710267e-001
      1.16949871e-001 2.22863823e-001 2.08126783e-001 1.14967063e-001
      1.03788890e-001 1.01388142e-001 1.37740210e-001 1.95502684e-001
      1.97115704e-001 2.26707697e-001 2.30740070e-001 1.61181614e-001
      1.01786122e-001 4.49066609e-002 6.03053123e-002 2.30740070e-001
      2.30740070e-001 2.30740070e-001 2.30740070e-001 2.30740070e-001
      1.24861516e-001 5.83257303e-002 9.85504389e-002 1.08527772e-001
      2.25822940e-001 1.17241777e-001 7.89370388e-002 1.66338652e-001
      2.62465477e-001 1.70810342e-001 1.16532065e-001 1.29797533e-001
      1.66879535e-001 4.83317748e-002 4.92833667e-002 5.24649695e-002
      1.91740900e-001 2.62465477e-001 2.62465477e-001 1.88895196e-001
      9.73142609e-002 8.75646323e-002 2.35265955e-001 1.55837387e-001
      2.17081711e-001 2.62465477e-001 2.62465477e-001 1.06796674e-001
      5.00130653e-002 9.19172689e-002 1.39182970e-001 7.78178424e-002
      6.74956292e-002 1.23280145e-001 2.62465477e-001 2.62465477e-001
      1.41307309e-001 8.94749165e-002 5.32955974e-002 8.27973187e-002
      1.71714783e-001 1.88314334e-001 1.03580125e-001 6.53944984e-002
      2.97014955e-002 5.73506057e-002 6.83864206e-002 4.90161143e-002
      6.79368600e-002 1.25252306e-001 1.10241130e-001 8.61400887e-002
      7.60096088e-002 1.23609096e-001 1.01966411e-001 1.09612219e-001
      7.28662610e-002 9.98289511e-002 2.46228054e-001 2.46228054e-001
      2.06783667e-001 2.23341018e-001 1.23023823e-001 2.46228054e-001
      2.46228054e-001 2.46228054e-001 1.85489938e-001 2.46228054e-001
      2.15946808e-001 7.18212500e-002 3.39634567e-002 8.24841484e-002
      2.46228054e-001 2.46228054e-001 2.46228054e-001 2.45213628e-001
      1.29770994e-001 2.56006956e-001 1.86852217e-001 1.17289409e-001
      1.27470672e-001 5.24110049e-002 6.25809580e-002 5.43022715e-002
      8.77021849e-002 1.63108781e-001 2.56006956e-001 2.56006956e-001
      2.49616355e-001 2.12401405e-001 1.21685334e-001 4.94041331e-002
      3.91645730e-002 6.32741302e-002 2.03102633e-001 2.56006956e-001
      2.12950587e-001 4.20323461e-002 4.95010763e-002 1.06511466e-001
      2.28735045e-001 2.39956945e-001 1.63555443e-001 1.66937828e-001
      2.56006956e-001 2.56006956e-001 1.52118981e-001 1.04600258e-001
      1.25923559e-001 6.21831007e-002 8.46690089e-002 1.43791750e-001
      1.26250222e-001 1.30588219e-001 2.42020845e-001 2.42020845e-001
      2.42020845e-001 1.60437912e-001 6.76048324e-002 4.08585854e-002
      1.11533254e-001 1.28412530e-001 6.06539212e-002 1.76232874e-001
      2.42020845e-001 2.42020845e-001 1.10720739e-001 4.84815352e-002
      2.48899590e-002 1.03672661e-001 1.91090256e-001 2.19163969e-001
      2.38090545e-001 1.52612299e-001 1.42592415e-001 1.80538148e-001
      9.57392678e-002 9.06309634e-002 2.39865243e-001 1.48340926e-001
      9.42994058e-002 2.15531394e-001 2.42020845e-001 2.42020845e-001
      1.62496164e-001 7.88446814e-002 7.83823878e-002 1.56403676e-001
      2.41221935e-001 8.78398046e-002 5.40086292e-002 1.00299709e-001
      8.35959390e-002 2.41221935e-001 2.18719885e-001 2.41221935e-001
      2.41221935e-001 2.41221935e-001 1.83456078e-001 2.27942765e-002
      4.33907211e-002 5.94296865e-002 1.31108195e-001 2.41221935e-001
      2.41221935e-001 2.41221935e-001 2.07540259e-001 2.14672443e-002
      1.75879709e-002 2.87342966e-002 4.56124395e-002 9.74792093e-002
      8.78609419e-002 1.47858992e-001 2.41221935e-001 2.34039843e-001
      8.43537301e-002 2.09756140e-002 1.30502209e-001 1.66623726e-001
      1.38961539e-001 1.28508806e-001 2.33725086e-001 2.41221935e-001
      2.25396931e-001 2.35603675e-001 1.03813633e-001 5.07712886e-002
      5.15679158e-002 8.15863535e-002 1.86664760e-001 2.35603675e-001
      2.35603675e-001 1.09843336e-001 2.35603675e-001 1.74637899e-001
      1.22272238e-001 7.71738440e-002 8.47227350e-002 6.03834353e-002
      1.45794183e-001 1.80111974e-001 1.69632599e-001 9.74072143e-002
      3.97325866e-002 1.64911568e-001 1.52546898e-001 1.46580130e-001
      2.35603675e-001 2.35603675e-001 2.35603675e-001 1.28176376e-001
      3.08016837e-002 4.91676480e-002 1.06227018e-001 1.52713805e-001
      2.00126350e-001 2.35603675e-001 2.35603675e-001 2.35603675e-001
      1.34509906e-001 1.32843748e-001 1.48712099e-001 1.12452865e-001
      9.33790132e-002 1.56194896e-001 1.33398458e-001 1.45015895e-001
      1.93481952e-001 8.18313882e-002 8.50756913e-002 1.39318287e-001
      1.55617356e-001 2.35144064e-001 2.35144064e-001 2.13701993e-001
      1.27671123e-001 1.15964144e-001 1.45189986e-001 5.55298068e-002
      5.83099537e-002 8.21277648e-002 1.34781659e-001 1.74736962e-001
      2.35144064e-001 2.35144064e-001 2.35144064e-001 1.18904866e-001
      1.37377307e-001 1.60855860e-001 2.35144064e-001 2.35144064e-001
      2.35144064e-001 2.17428267e-001 1.73725054e-001 1.52002573e-001</_>
    <_>
      2.64268249e-001 1.45613343e-001 2.38781512e-001 1.60238579e-001
      1.67453498e-001 2.79119685e-002 1.35713890e-002 1.82117466e-002
      2.19685689e-001 2.64268249e-001 2.64268249e-001 2.64268249e-001
      1.63512304e-001 1.51995242e-001 2.78586093e-002 5.30044269e-003
      1.39615154e-002 2.02120781e-001 7.19294325e-002 2.64268249e-001
      2.64268249e-001 2.64268249e-001 1.23260476e-001 2.91931685e-002
      7.06670573e-003 7.47083314e-003 1.55744711e-002 1.76876724e-001
      2.64268249e-001 2.64268249e-001 1.97503880e-001 5.23644798e-002
      1.74295790e-002 5.71829081e-003 4.37526358e-003 2.60147732e-002
      1.20318897e-001 2.00509638e-001 1.41291961e-001 3.79939489e-002
      4.20650169e-002 1.25624798e-002 2.74909358e-003 4.79414687e-003
      5.10582589e-002 1.00745268e-001 3.02406371e-001 3.32299918e-001
      2.30371580e-001 8.88435021e-002 3.19704339e-002 1.04126772e-002
      7.43805571e-003 2.23241709e-002 9.74804014e-002 3.32299918e-001
      3.32299918e-001 1.38722926e-001 3.71957906e-002 1.22571476e-002
      2.18651816e-003 3.36882565e-003 1.99073516e-002 2.19368815e-001
      3.32299918e-001 3.32299918e-001 2.89146394e-001 1.25498563e-001
      8.39548483e-002 2.17368044e-002 4.91420478e-002 1.07502520e-001
      6.46425709e-002 1.97736129e-001 2.48662993e-001 1.95747152e-001
      1.04052760e-001 6.98022097e-002 1.75234098e-002 1.56484824e-002
      5.61103262e-002 1.43191367e-001 2.48662993e-001 2.48662993e-001
      2.16126859e-001 2.48662993e-001 1.94021091e-001 6.97756261e-002
      7.78430253e-002 2.27120310e-001 1.47187352e-001 2.48662993e-001
      2.48662993e-001 1.41525015e-001 2.14595333e-001 2.25117594e-001
      3.37913297e-002 3.18760760e-002 8.52381662e-002 1.05474629e-001
      1.29699379e-001 1.46604642e-001 1.34986043e-001 2.48662993e-001
      2.48662993e-001 5.62196895e-002 1.94476377e-002 1.24246582e-001
      3.29942629e-002 1.76419184e-001 2.15163469e-001 1.49248213e-001
      4.04500328e-002 8.38150736e-003 1.57183909e-003 3.64639703e-003
      1.05580864e-002 6.22252636e-002 2.89168566e-001 2.89168566e-001
      1.15117528e-001 2.51133107e-002 1.03292279e-002 5.76232327e-003
      5.88931434e-004 1.35352854e-002 1.39165118e-001 2.12576762e-001
      2.89168566e-001 2.55189568e-001 1.81238353e-001 6.67376369e-002
      9.51927453e-002 1.10123448e-001 4.80908677e-002 1.79247290e-001
      2.89168566e-001 2.89168566e-001 1.64671078e-001 1.86495051e-001
      1.00646488e-001 1.84860259e-001 2.89168566e-001 2.14231864e-001
      4.17772047e-002 2.63879895e-001 2.63879895e-001 1.25816554e-001
      4.56263125e-002 6.90429239e-003 2.19083950e-003 2.46132491e-003
      1.34181734e-002 1.39090165e-001 2.63879895e-001 2.63879895e-001
      1.90515026e-001 6.91483468e-002 6.72838166e-002 4.46529277e-002
      6.15196750e-002 9.83550772e-002 1.06788747e-001 2.63879895e-001
      2.63879895e-001 1.40966251e-001 1.41991243e-001 3.23933288e-002
      7.93811679e-002 1.51033893e-001 1.55367509e-001 2.63879895e-001
      2.63879895e-001 2.63879895e-001 2.29825661e-001 1.36875585e-001
      7.00498372e-002 1.14990667e-001 1.77518815e-001 2.08412454e-001
      1.54615894e-001 1.95189357e-001 2.45492220e-001 1.50244758e-001
      2.00243533e-001 2.42209360e-001 9.32195634e-002 7.41706640e-002
      1.05563343e-001 4.98607680e-002 4.81730513e-002 5.19221723e-002
      1.29566222e-001 2.45492220e-001 2.45492220e-001 7.69526437e-002
      1.73600782e-002 3.50229368e-002 2.45492220e-001 2.45492220e-001
      1.86337397e-001 2.06019893e-001 2.45492220e-001 2.45492220e-001
      1.18688837e-001 1.30207956e-001 1.61036327e-001 6.39091134e-002
      8.45918432e-002 1.02364391e-001 2.18003109e-001 2.45492220e-001
      2.45492220e-001 9.34697837e-002 3.37438956e-002 3.83937992e-002
      1.56745568e-001 1.13116324e-001 1.81430995e-001 1.64712995e-001
      2.43515119e-001 1.02017142e-001 1.60464928e-001 1.82797119e-001
      9.24451947e-002 2.29175895e-001 2.03537479e-001 2.43515119e-001
      1.08358853e-001 1.78734392e-001 1.54415652e-001 2.43515119e-001
      2.43515119e-001 2.43515119e-001 7.45147839e-002 9.04950798e-002
      1.72013864e-001 7.94450641e-002 2.43515119e-001 7.60102123e-002
      6.69397190e-002 7.33777583e-002 7.37199709e-002 1.20551720e-001
      8.74892622e-002 1.87217519e-001 1.33935690e-001 1.06721006e-001
      7.68894851e-002 1.53551087e-001 2.43515119e-001 2.42246941e-001
      1.58135474e-001 1.23721406e-001 1.13062561e-001 5.74171320e-002
      1.25651374e-001 7.74091557e-002 1.69537842e-001 2.69748330e-001
      2.69748330e-001 2.69748330e-001 2.47144818e-001 7.83232450e-002
      6.77909926e-002 9.36107785e-002 5.95746674e-002 1.63852379e-001
      2.69748330e-001 2.69748330e-001 9.90708247e-002 3.78347524e-002
      7.72565156e-002 1.01830252e-001 1.10770293e-001 6.76668733e-002
      1.29084185e-001 2.37470016e-001 2.41822019e-001 1.17008686e-001
      7.85092041e-002 5.55725172e-002 6.27346784e-002 1.16488986e-001
      8.27601776e-002 2.16342062e-001 2.69748330e-001 2.69748330e-001
      1.79389820e-001 1.96577057e-001 8.07274580e-002 1.29421026e-001
      1.62399590e-001 1.08824082e-001 6.50696903e-002 2.25284174e-001
      2.25284174e-001 7.53201023e-002 8.76530781e-002 1.26509607e-001
      1.95673391e-001 2.25284174e-001 1.50249690e-001 6.77154362e-002
      9.52791199e-002 9.67753306e-002 1.41198173e-001 1.29642427e-001
      1.08703025e-001 9.01147947e-002 1.40559673e-001 1.01554029e-001
      1.57367289e-001 2.25284174e-001 2.25284174e-001 2.25284174e-001
      2.24147677e-001 2.25284174e-001 2.25284174e-001 1.93499267e-001
      1.48243219e-001 2.08800972e-001 2.19831631e-001 1.69798821e-001</_>
    <_>
      1.28411993e-001 6.70072362e-002 4.92336936e-002 9.51622054e-002
      1.08982176e-001 1.35767311e-001 1.39649883e-001 2.26575568e-001
      1.51442796e-001 1.18884511e-001 9.54542831e-002 1.47264048e-001
      2.45998308e-001 2.45998308e-001 2.45998308e-001 1.70808032e-001
      2.28246927e-001 5.44758067e-002 2.45998308e-001 2.05447510e-001
      1.14639252e-001 6.29013032e-002 6.83004856e-002 9.83065292e-002
      1.86970040e-001 2.00567141e-001 2.36177698e-001 2.45998308e-001
      2.45998308e-001 2.45998308e-001 1.07242331e-001 1.60861537e-001
      7.42938891e-002 1.26928419e-001 1.52576819e-001 3.64981294e-002
      1.48617715e-001 1.58242941e-001 1.10405996e-001 1.87119707e-001
      2.79610872e-001 1.71425819e-001 9.17393640e-002 1.55951709e-001
      5.50191924e-002 2.79610872e-001 2.79610872e-001 1.71340600e-001
      1.55588612e-001 2.16793597e-001 1.24050051e-001 7.45937303e-002
      1.10766716e-001 5.75242639e-002 2.79610872e-001 2.79610872e-001
      2.79610872e-001 6.29125461e-002 8.84134322e-002 4.76079173e-002
      3.37852277e-002 5.90519309e-002 2.80149411e-002 2.79610872e-001
      2.79610872e-001 1.76430941e-001 6.92643151e-002 7.45978877e-002
      7.08866566e-002 4.68309410e-002 4.53469492e-002 7.03588501e-002
      2.36632392e-001 2.36632392e-001 1.92519322e-001 1.29194275e-001
      1.79548368e-001 1.09887734e-001 4.41192426e-002 3.74183692e-002
      2.77901329e-002 2.07723498e-001 2.13809639e-001 1.01535983e-001
      1.32179648e-001 2.21176609e-001 2.36632392e-001 8.05721804e-002
      1.70478866e-001 1.47594944e-001 2.34912381e-001 2.36632392e-001
      1.70979172e-001 9.40483063e-002 7.80451968e-002 8.30930620e-002
      5.60928583e-002 6.30958676e-002 8.38974565e-002 2.36632392e-001
      2.36632392e-001 1.54959500e-001 1.03431843e-001 1.70802131e-001
      2.36632392e-001 1.43113256e-001 2.36632392e-001 1.40698999e-001
      1.93498924e-001 2.04188287e-001 1.80818528e-001 5.94242662e-002
      1.14643566e-001 1.31123200e-001 1.60503030e-001 1.10865533e-001
      1.96226567e-001 2.33682081e-001 2.33682081e-001 2.33682081e-001
      1.28163651e-001 1.88374981e-001 1.08898155e-001 1.18076429e-001
      1.33442283e-001 1.13501832e-001 1.31433919e-001 1.06787711e-001
      9.33925807e-002 8.61817226e-002 2.03939795e-001 1.52100727e-001
      1.13027595e-001 9.12772417e-002 1.50230318e-001 2.32444733e-001
      1.37157395e-001 1.95674449e-001 1.08775802e-001 2.27129012e-001
      1.91642404e-001 1.71650305e-001 2.33682081e-001 2.33682081e-001
      2.48499319e-001 2.48499319e-001 2.48499319e-001 6.27709255e-002
      7.58333057e-002 5.05039878e-002 5.50651923e-002 1.48769572e-001
      1.69087619e-001 2.47148260e-001 2.48499319e-001 1.25400677e-001
      6.26630336e-002 9.28050503e-002 3.71946581e-002 6.98029250e-002
      1.97028071e-001 1.90852717e-001 2.48499319e-001 1.49725899e-001
      1.72718301e-001 5.33702075e-002 6.70988485e-002 1.21668331e-001
      8.97942036e-002 2.48499319e-001 2.48499319e-001 2.08990455e-001
      1.18519619e-001 1.17041767e-001 1.48034602e-001 1.30630121e-001
      6.54204637e-002 8.80778655e-002 2.48499319e-001 2.48499319e-001
      2.03965098e-001 2.04514742e-001 1.35526493e-001 1.47148743e-001
      2.06056654e-001 7.86434636e-002 5.17896488e-002 1.15097940e-001
      1.34544387e-001 2.22516403e-001 2.22516403e-001 1.77892536e-001
      1.01748005e-001 1.66502893e-001 1.44537196e-001 8.74191523e-002
      1.32305130e-001 1.52254552e-001 1.79486722e-001 1.33476332e-001
      1.39820531e-001 2.22516403e-001 2.22516403e-001 1.15153104e-001
      7.59939179e-002 2.22516403e-001 2.22516403e-001 1.83384076e-001
      1.66399077e-001 2.06733957e-001 1.90109640e-001 2.12713122e-001
      1.54963389e-001 9.79304239e-002 1.24901675e-001 1.79897070e-001
      1.05526522e-001 7.10327700e-002 8.75085443e-002 8.71894136e-002
      1.47065267e-001 1.21753566e-001 1.79629415e-001 1.35007381e-001
      1.77440181e-001 2.27109835e-001 1.32191047e-001 1.27170205e-001
      5.72770908e-002 1.17973313e-001 1.15742505e-001 9.97549891e-002
      1.42806232e-001 1.65593281e-001 1.81820005e-001 9.02565941e-002
      2.27109835e-001 2.27109835e-001 2.27109835e-001 1.40424356e-001
      2.09757403e-001 1.60169229e-001 2.27109835e-001 2.27109835e-001
      1.47797719e-001 1.84873968e-001 2.27109835e-001 2.01419786e-001
      1.66637450e-001 1.88695401e-001 1.50589779e-001 2.27109835e-001
      2.38135129e-001 1.73803151e-001 1.38632700e-001 4.48249355e-002
      3.95543687e-002 9.08875316e-002 5.61692901e-002 1.34963259e-001
      1.56147033e-001 2.38135129e-001 1.50077954e-001 1.96876302e-001
      2.38135129e-001 1.19746625e-001 1.16209045e-001 5.25906123e-002
      2.24261314e-001 2.20478281e-001 2.38135129e-001 1.46034196e-001
      9.56320614e-002 1.60687804e-001 1.81056574e-001 1.81503549e-001
      1.30773306e-001 8.60314220e-002 6.97715878e-002 2.35447347e-001
      1.58039525e-001 1.74523056e-001 2.38135129e-001 2.38135129e-001
      2.38135129e-001 8.04405138e-002 6.24997243e-002 1.73828319e-001
      1.46835461e-001 8.19219276e-002 9.98418778e-002 1.52285710e-001
      1.29032373e-001 1.38370618e-001 1.04249768e-001 1.92044988e-001
      2.30563745e-001 8.89399350e-002 8.39712843e-002 1.54219761e-001
      1.10953510e-001 7.56214038e-002 1.20901436e-001 1.69955075e-001
      1.81955695e-001 2.30563745e-001 1.76243901e-001 1.19435318e-001
      1.19292475e-001 2.27278292e-001 2.30563745e-001 2.30563745e-001
      1.22130819e-001 1.07424170e-001 2.30563745e-001 2.04992756e-001
      9.27169248e-002 1.16603784e-001 1.17493719e-001 2.15478018e-001
      1.78714544e-001 2.30563745e-001 2.30563745e-001 2.30563745e-001</_>
    <_>
      2.05248505e-001 1.23792998e-001 1.79325610e-001 1.15742393e-001
      4.58887182e-002 4.56134342e-002 7.06150904e-002 7.90572986e-002
      1.60119534e-001 2.50038087e-001 2.39881620e-001 1.40545234e-001
      8.82652923e-002 4.71429154e-002 2.19158065e-002 8.07926580e-002
      7.62810633e-002 1.53962255e-001 3.05389613e-001 1.97973713e-001
      2.64978528e-001 6.08234555e-002 3.87430564e-002 3.51813473e-002
      5.01521789e-002 8.35605264e-002 2.50432938e-001 3.05389613e-001
      3.05389613e-001 3.05389613e-001 1.69838637e-001 1.25551552e-001
      3.16741280e-002 3.62687595e-002 7.27038309e-002 2.30647787e-001
      1.30437344e-001 2.99408317e-001 7.09067211e-002 2.44528204e-002
      7.10191671e-003 1.09875435e-003 1.31437043e-002 2.09310111e-002
      4.18496728e-002 2.07671970e-001 3.73323977e-001 1.22584246e-001
      1.39967874e-002 6.39663544e-003 8.62504705e-004 1.36158513e-002
      2.77948976e-002 5.57365939e-002 2.89241254e-001 3.73323977e-001
      2.93498695e-001 7.22424388e-002 4.97442074e-002 1.73065085e-002
      1.26739601e-002 2.33754572e-002 6.79079294e-002 2.60175854e-001
      3.73323977e-001 3.73323977e-001 4.13717367e-002 2.32883580e-002
      1.31794056e-002 1.65442564e-002 3.51391621e-002 8.30099657e-002
      2.68144846e-001 3.40625495e-001 1.28900975e-001 1.92765165e-002
      4.27411636e-003 6.13236148e-003 2.46631335e-002 1.92503799e-002
      6.56726658e-002 3.40625495e-001 3.40625495e-001 1.87037617e-001
      1.67326424e-002 7.26971030e-003 2.06548255e-002 2.97071785e-002
      2.54375041e-002 6.68038651e-002 1.01502225e-001 3.40625495e-001
      3.40625495e-001 4.56597880e-002 1.22030377e-002 7.07598496e-003
      3.11162006e-002 2.74597127e-002 5.73464856e-002 1.57591373e-001
      3.40625495e-001 3.40625495e-001 4.32072468e-002 2.81855203e-002
      1.37627516e-002 2.58015692e-002 1.94069017e-002 4.60411124e-002
      2.60913163e-001 1.34951949e-001 1.95302919e-001 5.96741177e-002
      4.12179679e-002 1.88193098e-002 2.42793653e-002 3.51240598e-002
      1.47228450e-001 2.86407888e-001 2.86407888e-001 2.86407888e-001
      1.39759690e-001 1.46930203e-001 6.03110194e-002 6.13463968e-002
      7.67046735e-002 2.01809704e-001 2.86407888e-001 2.26846963e-001
      1.69183671e-001 1.49861068e-001 3.95113677e-002 2.59716474e-002
      3.72455642e-002 4.45778519e-002 1.50832340e-001 2.86407888e-001
      2.86407888e-001 1.45945996e-001 8.20532963e-002 6.94004223e-002
      3.46871950e-002 4.79813702e-002 8.36554468e-002 2.86407888e-001
      3.19937915e-001 3.19937915e-001 2.31163397e-001 7.34455734e-002
      6.85864612e-002 3.17569673e-002 2.96340268e-002 4.41538170e-002
      9.30731520e-002 2.81553835e-001 3.19937915e-001 3.19937915e-001
      2.35672779e-002 2.19222084e-002 1.35468151e-002 1.00411158e-002
