<?xml version="1.0"?>
<opencv_storage>
<my_svm type_id="opencv-ml-svm">
  <svm_type>C_SVC</svm_type>
  <kernel><type>RBF</type>
    <gamma>2.</gamma></kernel>
  <C>3.1250000000000000e-002</C>
  <term_criteria><epsilon>2.2204460492503131e-016</epsilon>
    <iterations>100</iterations></term_criteria>
  <var_all>324</var_all>
  <var_count>324</var_count>
  <class_count>2</class_count>
  <class_labels type_id="opencv-matrix">
    <rows>1</rows>
    <cols>2</cols>
    <dt>i</dt>
    <data>
      0 1</data></class_labels>
  <sv_total>200</sv_total>
  <support_vectors>
    <_>
      1.60801318e-002 1.29439488e-001 3.29304785e-001 2.18683444e-002
      1.75118707e-002 3.26103307e-002 1.44142378e-002 1.03491708e-003
      5.43955807e-003 3.54706906e-002 9.56102088e-002 3.29304785e-001
      7.18865469e-002 3.99564430e-002 1.97881147e-001 2.10336387e-001
      4.99580018e-002 6.55593574e-002 3.29304785e-001 3.25206220e-001
      2.29699850e-001 2.00525243e-002 4.27519670e-003 7.11057335e-003
      1.96215883e-003 2.93174613e-004 1.17196828e-001 3.29304785e-001
      3.29304785e-001 3.29304785e-001 1.10160463e-001 2.50076931e-002
      9.47423577e-002 2.82940958e-002 4.30265553e-002 1.49948522e-001
      7.21678883e-002 1.06329076e-001 2.44742587e-001 1.12023197e-001
      3.20250541e-002 9.89360735e-002 1.82224035e-001 1.34181306e-001
      1.66635856e-001 9.22860429e-002 1.56148508e-001 2.44742587e-001
      2.36776888e-001 1.32021889e-001 5.58081083e-002 1.19098693e-001
      2.02919394e-001 1.76431730e-001 2.44742587e-001 2.44742587e-001
      2.44742587e-001 9.45501700e-002 3.09677143e-002 5.95885888e-002
      7.14058802e-002 1.43376693e-001 2.33953983e-001 2.44742587e-001
      1.93840459e-001 2.16261804e-001 1.11560926e-001 9.23901200e-002
      9.18915644e-002 1.34985581e-001 1.93858087e-001 2.44742587e-001
      5.02881147e-002 6.97770268e-002 1.66142747e-001 1.21546641e-001
      1.33384287e-001 1.25490010e-001 3.02977085e-001 2.34946519e-001
      1.04517214e-001 3.82453687e-002 2.40849890e-003 1.19159296e-002
      1.41703757e-002 4.63384613e-002 1.06583320e-001 3.38861883e-001
      3.38861883e-001 7.06928298e-002 1.78513855e-001 1.14751562e-001
      1.28072634e-001 1.53809831e-001 1.27289876e-001 1.74775094e-001
      2.14031368e-001 1.48155838e-001 1.98884502e-001 6.79691806e-002
      2.94559039e-002 4.97230664e-002 9.04542506e-002 1.10605203e-001
      1.50195941e-001 3.38861883e-001 2.84585178e-001 1.39648989e-001
      2.94652402e-001 2.75858074e-001 5.59105612e-002 1.20515320e-002
      4.78986092e-003 4.00773212e-002 6.74311742e-002 2.94834096e-002
      1.12917066e-001 2.94652402e-001 2.94652402e-001 2.16547966e-001
      2.11990960e-002 5.72528923e-003 1.74353216e-002 5.03005972e-003
      9.32050589e-003 1.25074521e-001 2.60737985e-001 1.82989717e-001
      1.80894464e-001 2.17593182e-002 1.62409153e-002 1.76322535e-001
      2.94652402e-001 1.51343942e-001 9.90090147e-002 2.94652402e-001
      2.94652402e-001 2.94652402e-001 5.88162057e-002 1.82742327e-002
      5.24641499e-002 7.67689347e-002 4.08248380e-002 1.17826149e-001
      2.78884053e-001 2.78884053e-001 2.78714865e-001 4.11219858e-002
      1.75349936e-002 2.88859066e-002 1.58498287e-002 3.37725654e-002
      1.45216882e-001 2.78884053e-001 2.04689965e-001 2.48808801e-001
      1.37765273e-001 8.10574219e-002 4.90830839e-002 4.77105342e-002
      6.35344610e-002 1.32834032e-001 2.74658829e-001 2.78884053e-001
      2.78884053e-001 1.40628219e-001 5.03393449e-002 2.57350188e-002
      2.04691943e-002 3.27977911e-002 9.56738293e-002 1.51904345e-001
      2.02822477e-001 2.78884053e-001 2.78884053e-001 1.23010136e-001
      3.68717611e-002 2.57497299e-002 4.14847434e-002 4.38035540e-002
      1.95710495e-001 1.73487589e-001 2.62745500e-001 2.62745500e-001
      1.84349328e-001 1.32923290e-001 1.31422549e-001 1.06573567e-001
      1.33135155e-001 4.37275618e-002 6.62064850e-002 1.01315789e-001
      1.86100960e-001 1.06125772e-001 1.62138596e-001 2.62745500e-001
      2.22030297e-001 8.99083912e-002 1.23120807e-001 1.56289920e-001
      2.62745500e-001 2.62745500e-001 2.19997332e-001 1.26834631e-001
      1.40809447e-001 1.11412391e-001 7.72532597e-002 3.94740179e-002
      5.76121137e-002 7.39429370e-002 1.13256328e-001 6.76796436e-002
      1.64185911e-001 2.62745500e-001 2.62745500e-001 6.78543374e-002
      5.20838648e-002 6.04068339e-002 1.39817536e-001 2.08205488e-002
      2.74162497e-002 1.75769284e-001 3.15034866e-001 2.37430066e-001
      5.84478378e-002 7.40012303e-002 2.21356377e-001 3.15034866e-001
      6.94939643e-002 2.29102839e-002 1.20960459e-001 2.79171795e-001
      1.04646027e-001 5.75817488e-002 3.38562801e-002 1.04589714e-002
      2.39472631e-002 1.80339813e-002 4.49641608e-002 1.48243383e-001
      3.15034866e-001 3.15034866e-001 3.33537310e-002 5.04467376e-002
      7.73484632e-002 1.75061077e-001 4.33109179e-002 1.00868516e-001
      2.45780766e-001 3.15034866e-001 2.73366958e-001 5.04690744e-002
      8.05116519e-002 2.62354672e-001 3.02166104e-001 2.15929136e-001
      7.60106072e-002 2.97042131e-002 5.62117547e-002 4.93031554e-002
      4.17200178e-002 6.70140013e-002 1.21643558e-001 3.02166104e-001
      3.02166104e-001 1.34725302e-001 3.99068370e-002 2.33918224e-002
      2.16945000e-002 1.73824709e-002 3.52809057e-002 1.23562150e-001
      3.02166104e-001 2.27877155e-001 1.47887006e-001 1.22021474e-001
      3.02166104e-001 1.39890313e-001 2.53003277e-002 4.30535115e-002
      5.45246787e-002 3.02166104e-001 3.02166104e-001 2.00793251e-001
      4.80509922e-002 8.14683363e-002 3.86009701e-002 2.40844358e-002
      8.72509778e-002 8.73380005e-002 3.17352325e-001 2.19525054e-001
      1.33188248e-001 1.28653184e-001 1.17267713e-001 5.65945022e-002
      4.40186299e-002 5.96147403e-002 8.50555897e-002 2.00348869e-001
      2.27116030e-002 5.95767759e-002 1.25468925e-001 3.17352325e-001
      2.26333678e-001 5.38841784e-002 6.73636422e-002 9.76920575e-002
      3.17352325e-001 2.10070267e-001 1.78730711e-001 1.35492474e-001
      1.56501785e-001 9.06664357e-002 5.27659953e-002 8.61928165e-002
      3.17352325e-001 3.17352325e-001 4.20374274e-002 8.29936564e-002
      9.22521874e-002 2.29106322e-001 1.67564943e-001 5.11044487e-002</_>
    <_>
      2.89094269e-001 1.07088245e-001 5.03356084e-002 2.52163075e-002
      6.90330192e-002 3.53536941e-002 2.13344559e-001 1.03882596e-001
      2.89094269e-001 2.89094269e-001 9.08518136e-002 6.83862492e-002
      4.08430025e-002 4.35296856e-002 2.26164870e-002 7.76909292e-002
      7.80365691e-002 2.89094269e-001 2.80686736e-001 7.49525353e-002
      6.24010563e-002 5.58687784e-002 9.26393941e-002 1.06404811e-001
      2.89094269e-001 1.03983775e-001 2.89094269e-001 2.89094269e-001
      2.39285100e-002 2.92225666e-002 2.27720048e-002 2.60186363e-002
      2.47718170e-002 2.89094269e-001 1.16060935e-001 2.89094269e-001
      3.32738400e-001 1.12612575e-001 1.02053285e-001 5.09544574e-002
      4.58888002e-002 2.27513537e-002 3.88831012e-002 2.68604942e-002
      3.32738400e-001 3.32738400e-001 8.84376541e-002 7.08184540e-002
      5.09748571e-002 3.24160084e-002 6.07793825e-003 4.38611470e-002
      6.48420528e-002 3.32738400e-001 3.32738400e-001 5.15429340e-002
      3.48622501e-002 1.81457475e-002 5.04670255e-002 3.01367305e-002
      7.78298751e-002 6.03262298e-002 3.32738400e-001 3.32738400e-001
      1.20096587e-001 5.66655807e-002 3.04466672e-002 6.94507882e-002
      7.37330616e-002 7.00277314e-002 8.17171857e-002 3.32738400e-001
      3.09750825e-001 6.63372055e-002 6.37556911e-002 6.14468269e-002
      4.72319275e-002 1.20935477e-002 7.39366859e-002 1.23194769e-001
      3.09750825e-001 3.09750825e-001 9.91616249e-002 1.45140961e-001
      1.39967650e-001 1.54890671e-001 3.67055349e-002 1.17645741e-001
      1.78538129e-001 3.09750825e-001 3.09750825e-001 7.52677396e-002
      8.25947449e-002 5.06947413e-002 3.97318602e-002 5.99955395e-002
      6.68974668e-002 6.16130307e-002 3.09750825e-001 3.09750825e-001
      5.06387465e-002 1.08696207e-001 9.83006209e-002 6.72535151e-002
      5.63543662e-002 8.39235410e-002 7.24106282e-002 3.09750825e-001
      4.32645194e-002 2.41649393e-002 1.17731512e-001 1.62717059e-001
      6.41553327e-002 9.02068689e-002 3.81413549e-001 1.67942673e-001
      3.94056216e-002 9.09074396e-002 1.64324101e-002 1.16577074e-002
      3.35419849e-002 3.18475105e-002 4.22930047e-002 3.81413549e-001
      2.69789517e-001 1.15960933e-001 1.64443944e-002 8.38762522e-003
      1.88335523e-001 2.86118716e-001 5.65808266e-002 2.91202962e-002
      3.67973477e-001 1.13569535e-001 3.12705487e-002 2.25431733e-002
      1.88845154e-002 2.09744237e-002 4.45386358e-002 2.98375431e-002
      6.14607148e-002 3.81413549e-001 3.09893250e-001 3.36213484e-002
      1.51640773e-001 7.93923736e-002 7.56224012e-003 2.59285718e-002
      9.32062939e-002 4.22477312e-002 3.15200508e-001 1.74850941e-001
      2.02390581e-001 1.76365897e-001 1.38036862e-001 4.06081975e-002
      3.81498821e-002 1.26810148e-001 9.98938531e-002 2.07162887e-001
      1.92661449e-001 3.06773722e-001 6.23293519e-002 8.11767653e-002
      1.64213218e-002 1.98973641e-002 7.84334689e-002 9.36997384e-002
      3.15200508e-001 3.10426772e-001 7.61784762e-002 9.50663462e-002
      1.21879622e-001 4.35110964e-002 3.50553840e-002 1.31370217e-001
      1.39510244e-001 3.15200508e-001 2.65405506e-001 2.66230106e-001
      2.06063747e-001 8.92505720e-002 6.53484091e-002 5.57482094e-002
      1.01413809e-001 1.39227211e-001 1.87658221e-001 1.72410443e-001
      2.47401834e-001 2.47401834e-001 4.60016280e-002 2.17321560e-001
      1.64918751e-001 1.24125890e-001 1.45076543e-001 1.49860978e-001
      1.12188227e-001 2.47401834e-001 9.20426548e-002 9.16627944e-002
      8.86884630e-002 8.77922475e-002 1.80384010e-001 1.69596538e-001
      2.47401834e-001 1.86985850e-001 2.47401834e-001 1.29106253e-001
      9.85014737e-002 2.47401834e-001 2.47401834e-001 2.27973834e-001
      1.41417041e-001 1.25975683e-001 1.20302379e-001 1.05921686e-001
      6.68287054e-002 3.39438654e-002 1.81580380e-001 3.16403359e-001
      8.68350342e-002 4.02429588e-002 1.60431966e-001 8.03773329e-002
      7.81337619e-002 4.90662865e-002 2.31408756e-002 3.61656174e-002
      5.04712723e-002 4.53742258e-002 1.03869639e-001 3.66107792e-001
      2.69149691e-001 7.42983222e-002 1.09966911e-001 5.10831922e-002
      4.48329933e-002 6.62003979e-002 5.08454405e-002 3.72930169e-002
      1.88816980e-001 3.66107792e-001 2.62774438e-001 5.76189794e-002
      3.96565869e-002 3.35727707e-002 2.87859906e-002 7.83386379e-002
      9.10805762e-002 3.66107792e-001 3.66107792e-001 1.59300447e-001
      1.34418886e-002 1.54534308e-002 1.59781165e-002 1.19799851e-002
      2.10149661e-002 8.52036700e-002 4.41565335e-001 1.90782830e-001
      3.65136191e-002 3.86699662e-002 4.11768705e-002 2.94021256e-002
      1.70270465e-002 4.98962998e-002 1.15601800e-001 4.41565335e-001
      1.77990630e-001 1.12794593e-001 1.08343167e-002 1.50747364e-002
      1.31848548e-002 1.26516912e-002 3.91956158e-002 7.42843151e-002
      4.41565335e-001 1.73348740e-001 4.76565585e-002 1.69859007e-002
      1.09647978e-002 2.23385654e-002 1.63315888e-002 3.34960110e-002
      1.08575486e-001 4.41565335e-001 2.19972283e-001 4.78497222e-002
      3.49270105e-002 3.37028466e-002 1.40237719e-001 1.14603437e-001
      9.54865888e-002 7.58752152e-002 2.69742846e-001 6.28411025e-002
      9.91896838e-002 3.84378247e-002 8.96411538e-002 3.32727939e-001
      3.32727939e-001 1.83626667e-001 4.62504551e-002 3.31738517e-002
      3.23731005e-002 3.96788381e-002 3.06107607e-002 2.28314307e-002
      2.59476155e-001 2.01211318e-001 8.81438628e-002 6.41736165e-002
      3.32727939e-001 1.30552933e-001 6.73193708e-002 1.89307556e-002
      1.23135999e-001 3.32727939e-001 3.32727939e-001 2.93230116e-001
      6.05536401e-002 8.87383744e-002 2.79173274e-002 3.00211720e-002</_>
    <_>
      1.25186369e-001 6.98722247e-003 1.28142741e-002 9.00579523e-003
      1.00892000e-002 7.36294910e-002 2.87787527e-001 1.46774933e-001
      1.72383443e-001 1.55313343e-001 8.06191191e-003 2.27301884e-002
      9.61855799e-003 2.42828224e-002 5.99994995e-002 2.87787527e-001
      2.21898258e-001 1.38566613e-001 2.87787527e-001 1.92758203e-001
      7.99487457e-002 1.09591391e-002 1.05221104e-002 3.35963145e-002
      2.75593370e-001 1.10623591e-001 2.45763734e-001 2.87787527e-001
      2.53485024e-001 7.28451535e-002 3.66299339e-002 3.87954526e-002
      4.69938293e-002 2.87787527e-001 2.71306396e-001 2.66689122e-001
      1.10471494e-001 4.73145209e-003 1.29741039e-002 1.90782584e-002
      5.37005924e-002 1.15268342e-001 3.04592311e-001 1.87642455e-001
      1.58245206e-001 7.86444470e-002 1.04734721e-002 9.52368043e-003
      2.20639445e-002 2.94860806e-002 1.09251425e-001 3.04592311e-001
      2.16489479e-001 1.15105219e-001 2.41898239e-001 1.01763681e-001
      6.87839910e-002 6.01861775e-002 1.00137584e-001 9.06324834e-002
      3.04592311e-001 2.24322960e-001 3.04592311e-001 3.04592311e-001
      7.94363022e-002 4.81433794e-002 2.57591754e-002 5.07871099e-002
      9.13148746e-002 3.04592311e-001 1.52902141e-001 2.86265403e-001
      7.21070394e-002 1.09764617e-002 6.10818388e-003 9.26176365e-003
      1.17964782e-002 6.90870658e-002 3.48842829e-001 2.18493581e-001
      7.40042999e-002 7.68390968e-002 9.85259283e-003 1.74384646e-003
      9.70015395e-003 2.57819928e-002 1.09404109e-001 3.48842829e-001
      2.29339123e-001 1.03018977e-001 2.75183260e-001 1.19916670e-001
      3.61938290e-002 1.08464705e-002 1.11026652e-002 8.86096656e-002
      3.48842829e-001 2.31913835e-001 1.47132888e-001 1.66393489e-001
      1.27603471e-001 4.23980318e-002 7.94124454e-002 1.66242700e-002
      1.13176383e-001 3.48842829e-001 2.82861531e-001 2.10063234e-001
      2.59264320e-001 2.59264320e-001 1.67311609e-001 1.89487282e-002
      6.18917309e-003 1.32141253e-002 2.89583132e-002 2.83876434e-002
      1.31704390e-001 2.59264320e-001 2.59264320e-001 1.41784653e-001
      2.43447255e-002 1.41545385e-002 9.35575366e-003 4.56633195e-002
      7.77945369e-002 2.17469037e-001 2.59264320e-001 2.59264320e-001
      1.77474260e-001 8.42331871e-002 5.83181158e-002 2.40279958e-002
      1.00486115e-001 2.59264320e-001 1.67815551e-001 2.59264320e-001
      2.59264320e-001 1.92181513e-001 8.04244056e-002 7.26655722e-002
      4.43716198e-002 1.27575234e-001 2.59264320e-001 2.31308684e-001
      2.44583488e-001 2.44583488e-001 1.60229474e-001 3.85321714e-002
      3.63732018e-002 4.94912677e-002 4.89998013e-002 6.07975647e-002
      2.44583488e-001 2.44583488e-001 2.44583488e-001 1.87306508e-001
      4.95711453e-002 5.84085882e-002 6.96188360e-002 7.58831874e-002
      4.26065624e-002 2.39947826e-001 2.44583488e-001 2.44583488e-001
      2.11309731e-001 5.56805804e-002 6.09166697e-002 7.81068057e-002
      1.36485979e-001 2.22125307e-001 1.83190525e-001 2.44583488e-001
      2.44583488e-001 1.87747270e-001 9.93382931e-002 1.29329503e-001
      9.17503536e-002 7.89380074e-002 1.25642493e-001 2.44583488e-001
      2.27995351e-001 2.27995351e-001 1.29288822e-001 5.12255765e-002
      6.86522126e-002 4.63913828e-002 1.42287329e-001 1.03244834e-001
      1.91486046e-001 2.24582970e-001 1.75874189e-001 7.53435642e-002
      9.38189030e-002 9.68592837e-002 6.77319244e-002 1.72728032e-001
      1.83576226e-001 2.27995351e-001 2.27995351e-001 2.27995351e-001
      1.21794164e-001 1.19915143e-001 1.77715421e-001 1.19205616e-001
      1.34239197e-001 1.40721321e-001 2.27995351e-001 1.48216456e-001
      1.32055938e-001 1.09075740e-001 1.47924155e-001 2.27995351e-001
      1.65810704e-001 2.27995351e-001 2.27995351e-001 2.21916378e-001
      1.01884797e-001 7.95966238e-002 3.59219946e-002 3.39011811e-002
      3.19036953e-002 2.29206588e-002 1.49813175e-001 3.23491275e-001
      2.48007298e-001 1.25924885e-001 1.20186970e-001 5.15842326e-002
      3.91545705e-002 3.94675620e-002 2.97001079e-002 1.89771697e-001
      3.23491275e-001 2.59535015e-001 4.39673923e-002 1.22042438e-002
      2.54639745e-004 0. 1.82838384e-002 2.30265055e-002 3.23491275e-001
      3.23491275e-001 2.85183966e-001 6.39887899e-002 5.78764314e-003
      7.99224945e-004 0. 2.12533511e-002 5.54565154e-003 1.87196389e-001
      3.23491275e-001 3.23491275e-001 1.60210028e-001 1.10211432e-001
      4.37981002e-002 3.90230715e-002 4.65844870e-002 2.85796225e-002
      2.02042133e-001 2.98882782e-001 2.36950591e-001 2.98882782e-001
      1.02201499e-001 2.04262044e-002 7.77459517e-002 1.20448343e-001
      5.07897884e-002 1.13333143e-001 2.86385983e-001 2.71817446e-001
      9.64470059e-002 6.90943329e-003 6.22178428e-004 6.41311007e-003
      2.43309662e-002 8.05927254e-003 1.98130772e-001 2.98882782e-001
      2.98882782e-001 1.44101918e-001 4.07062098e-002 5.91739081e-003
      5.02750278e-002 1.08209923e-001 2.37888675e-002 1.74685583e-001
      2.98882782e-001 2.98882782e-001 1.57410979e-001 7.90144578e-002
      1.96871888e-002 5.53385690e-002 9.62102264e-002 1.16746493e-001
      1.71676382e-001 3.09606224e-001 1.97030857e-001 6.26080632e-002
      9.06246826e-002 7.36287534e-002 9.63305831e-002 1.34925842e-001
      1.27791196e-001 2.68656790e-001 3.24641764e-001 1.30482420e-001
      6.67724460e-002 5.72176427e-002 1.01173390e-002 4.14285474e-002
      9.81075093e-002 4.52781282e-002 2.36562550e-001 3.24641764e-001
      2.38231316e-001 3.76274958e-002 6.04093671e-002 2.31970306e-002
      7.97303915e-002 1.58523038e-001 5.62982224e-002 3.04220736e-001
      3.24641764e-001 2.04325601e-001</_>
    <_>
      1.39964700e-001 2.22668480e-002 1.68919623e-001 1.22277781e-001
      9.28015560e-002 1.46392971e-001 1.26578748e-001 7.28704631e-002
      2.59795606e-001 1.90914601e-001 3.55626941e-002 7.15087205e-002
      5.32934405e-002 3.85482721e-002 6.04784451e-002 9.48122740e-002
      2.82782137e-001 2.82782137e-001 8.59924853e-002 1.94668453e-002
      1.02338351e-001 9.77964997e-002 1.28346920e-001 2.82782137e-001
      2.82782137e-001 1.45171538e-001 1.63458407e-001 1.60519153e-001
      2.34563909e-002 3.95480283e-002 7.45858327e-002 1.00416288e-001
      2.44067937e-001 2.82782137e-001 2.82782137e-001 2.82782137e-001
      1.35854617e-001 7.30654150e-002 2.38554820e-001 2.44014431e-002
      9.22542345e-003 2.60638986e-002 5.31353951e-002 2.91816205e-001
      2.91816205e-001 8.97528306e-002 6.79564774e-002 2.75167942e-001
      2.02848278e-002 1.81334689e-002 2.40604151e-002 7.01461807e-002
      1.98293746e-001 2.27363452e-001 1.59248441e-001 6.79709911e-002
      6.11886159e-002 2.86531262e-002 3.87569927e-002 9.70267877e-002
      1.70488119e-001 2.91816205e-001 2.91816205e-001 2.44571015e-001
      1.45008102e-001 5.63609116e-002 1.80808827e-002 3.38387750e-002
      1.00388862e-001 2.13343307e-001 2.91816205e-001 2.91816205e-001
      1.21492371e-001 5.84282503e-002 1.11164391e-001 9.86544322e-003
      3.99245247e-002 1.68510005e-002 1.28292486e-001 2.26494029e-001
      2.01057479e-001 8.80437568e-002 2.60653961e-002 1.54539850e-002
      7.74710579e-003 3.36205736e-002 2.50748135e-002 2.42517367e-001
      2.50302225e-001 1.49467468e-001 2.50302225e-001 2.50302225e-001
      4.84120324e-002 2.16276683e-002 8.94588679e-002 1.35537043e-001
      2.50302225e-001 2.50302225e-001 2.50302225e-001 2.50302225e-001
      2.04358339e-001 1.03361696e-001 9.24565941e-002 1.81685224e-001
      2.29537934e-001 1.59460634e-001 2.50302225e-001 2.50302225e-001
      3.14079151e-002 6.22398667e-002 1.94393128e-001 2.76169367e-002
      6.75735474e-002 2.04713732e-001 3.20498735e-001 1.13724269e-001
      4.08880822e-002 3.44256684e-002 4.11178805e-002 8.59678835e-002
      4.33106832e-002 9.35284495e-002 3.20498735e-001 3.20498735e-001
      3.20498735e-001 1.19101010e-001 4.08700034e-002 7.10473731e-002
      1.90834209e-001 2.27421820e-002 6.37021437e-002 1.60794392e-001
      2.66313910e-001 1.60780132e-001 4.02634665e-002 9.30185802e-003
      3.42994668e-002 7.09556341e-002 2.87285931e-002 7.29288980e-002
      3.20498735e-001 3.20498735e-001 2.37230152e-001 1.53480545e-002
      6.16826192e-002 7.15870932e-002 5.32172956e-002 8.90161321e-002
      1.15071416e-001 1.51205495e-001 2.80094206e-001 2.42932051e-001
      1.77929640e-001 1.71028733e-001 1.37314871e-001 5.40936105e-002
      9.03868973e-002 1.41926393e-001 1.45556301e-001 2.25623444e-001
      1.88638926e-001 2.18318805e-001 2.82526072e-002 4.54233959e-002
      4.51082252e-002 9.97327790e-002 1.43393695e-001 2.78832823e-001
      2.80094206e-001 2.57402420e-001 1.39013017e-002 1.09295867e-001
      9.16116759e-002 7.09277689e-002 1.56050891e-001 2.46127993e-001
      2.00049683e-001 2.80094206e-001 2.06655249e-001 8.98031145e-002
      1.72383636e-001 1.52825981e-001 9.54313055e-002 8.54890794e-002
      9.88093987e-002 1.25249907e-001 1.55177176e-001 1.63772881e-001
      1.35466978e-001 9.25849825e-002 1.76163629e-001 2.48067871e-001
      2.82557309e-001 1.27495736e-001 1.76847741e-001 7.83122852e-002
      9.52299982e-002 9.40559953e-002 9.51415598e-002 1.03530370e-001
      2.84038156e-001 2.84038156e-001 2.77484298e-001 1.45394415e-001
      1.77313715e-001 1.22401372e-001 8.34779814e-002 3.11178118e-002
      1.07248835e-001 2.84038156e-001 2.84038156e-001 2.45261207e-001
      1.06554352e-001 2.83047017e-002 2.89645642e-002 2.79946364e-002
      2.52778996e-002 1.60741899e-002 4.15475182e-002 1.37525816e-002
      4.20062914e-002 1.72912225e-001 3.12346429e-001 3.12346429e-001
      8.68733376e-002 5.39586367e-003 4.19186009e-003 1.70814022e-002
      1.51460441e-002 4.50373627e-002 3.12346429e-001 3.12346429e-001
      2.88824916e-001 3.13522927e-002 1.73770916e-002 3.24285356e-003
      1.28105674e-002 7.80970789e-003 2.33028214e-002 1.11986749e-001
      3.12346429e-001 3.12346429e-001 1.12230293e-001 3.01650092e-002
      5.71757089e-003 1.31477071e-002 1.81663726e-002 5.19300923e-002
      2.19645798e-001 3.12346429e-001 3.12346429e-001 9.36551243e-002
      8.60915519e-003 7.78576965e-003 9.76713281e-003 2.08916347e-002
      4.41440791e-002 2.52325863e-001 3.07766795e-001 1.85890362e-001
      1.34466952e-002 8.19125995e-002 3.55060399e-002 7.22174123e-002
      1.36461377e-001 1.28643170e-001 1.72869042e-001 3.07766795e-001
      1.71660185e-001 5.87559380e-002 1.57860424e-002 7.27921398e-003
      6.70759240e-003 8.41281842e-003 7.16925263e-002 2.53518283e-001
      3.07766795e-001 2.52334863e-001 2.91592907e-002 5.73958233e-002
      3.12182736e-002 1.60333246e-001 2.68745482e-001 1.80144802e-001
      3.07766795e-001 3.07766795e-001 2.02759445e-001 3.20578553e-002
      6.30285591e-002 4.09605168e-002 2.60639936e-001 3.32550108e-001
      1.91286445e-001 5.69095649e-002 9.68804583e-002 4.40352522e-002
      3.91119123e-002 6.90098433e-003 1.66788399e-002 2.95069396e-001
      3.32550108e-001 1.62201867e-001 2.19682250e-002 6.40835986e-003
      6.25647325e-003 6.75078901e-003 4.73738760e-002 2.95958947e-002
      3.32550108e-001 3.32550108e-001 1.91030577e-001 8.55802521e-002
      1.68445408e-001 5.68847246e-002 1.99049469e-002 4.12683515e-003
      2.21878737e-002 3.32550108e-001 3.32550108e-001 1.14062019e-001
      7.15066958e-003 4.75797709e-003 4.39870916e-003 2.71554245e-003</_>
    <_>
      2.43625388e-001 3.15030277e-001 3.15030277e-001 2.36707996e-003
      6.15488589e-002 1.29285961e-001 8.03860277e-002 5.38809970e-002
      7.06046745e-002 8.76932889e-002 3.15030277e-001 3.15030277e-001
      4.34091985e-002 1.47911981e-001 3.03847998e-001 1.00343406e-001
      5.03999740e-002 4.10790853e-002 3.87282781e-002 9.75540653e-002
      7.99043775e-002 2.07200553e-002 8.90115947e-002 2.17002779e-001
      1.34479567e-001 2.76757963e-002 3.28402035e-002 2.37841215e-002
      2.37320453e-001 3.15030277e-001 2.18295276e-001 1.45376727e-001
      1.83343306e-001 1.08235583e-001 4.89850715e-002 4.65946570e-002
      3.18091661e-002 1.68591186e-001 2.91079611e-001 1.48890674e-001
      6.60087243e-002 1.05849996e-001 3.13512646e-002 1.48322536e-002
      2.93235611e-002 7.72399977e-002 1.18387274e-001 2.91079611e-001
      2.03379661e-001 8.32725912e-002 1.59486532e-001 2.91079611e-001
      4.42686193e-002 5.46093471e-002 8.79834071e-002 1.89090014e-001
      2.91079611e-001 2.91079611e-001 9.43649188e-002 6.29629865e-002
      2.07148474e-002 2.03978214e-002 5.31118587e-002 2.91079611e-001
      2.09209934e-001 2.91079611e-001 2.58923143e-001 1.14472598e-001
      1.39028504e-001 1.42740160e-001 2.91256905e-002 1.07788496e-001
      3.89017463e-002 1.78674012e-002 8.26616287e-002 3.59696560e-002
      7.73561969e-002 2.96820283e-001 3.30684632e-001 1.21114947e-001
      3.47231999e-002 7.37404451e-003 1.59943767e-003 1.90174039e-002
      2.29688175e-002 1.13736346e-001 3.30684632e-001 3.30684632e-001
      1.29946858e-001 2.56031919e-002 1.55859396e-001 7.71629810e-002
      6.55450448e-002 5.37721589e-002 6.94865510e-002 3.30684632e-001
      3.30684632e-001 6.15712292e-002 5.74365743e-002 3.29484679e-002
      9.79020260e-003 5.22068925e-002 4.05966602e-002 1.21766925e-001
      3.30684632e-001 3.30684632e-001 8.61304328e-002 5.22771887e-002
      1.45625100e-002 7.68176690e-002 1.75914690e-001 5.52810356e-002
      8.35068375e-002 1.31990358e-001 7.63698965e-002 1.54206026e-002
      1.90765131e-002 2.03325618e-002 2.08718672e-001 3.33753914e-001
      3.00322801e-001 1.27834618e-001 7.63837770e-002 5.09181395e-002
      3.51087824e-002 2.18481757e-002 8.77029523e-002 1.65683508e-001
      3.33753914e-001 1.57964155e-001 1.38831228e-001 1.68512344e-001
      9.39209014e-002 2.94643957e-002 6.29793257e-002 3.18368763e-001
      1.70257017e-001 3.33753914e-001 3.33753914e-001 1.39842153e-001
      7.29273781e-002 5.21641932e-002 2.71823481e-002 1.98502079e-001
      6.25560880e-002 1.41357973e-001 2.61362731e-001 2.61362731e-001
      1.47380546e-001 9.15530846e-002 5.53487241e-002 3.86675633e-002
      3.22985873e-002 2.61362731e-001 2.42209330e-001 2.33483389e-001
      2.07535386e-001 1.50753379e-001 1.74905896e-001 1.11425810e-001
      4.09270935e-002 7.56573975e-002 2.61362731e-001 5.54017872e-002
      2.55754441e-001 1.38656616e-001 9.84853208e-002 8.87035057e-002
      1.22500822e-001 4.62695435e-002 2.17015326e-001 2.61362731e-001
      1.60635501e-001 2.15538174e-001 8.26975033e-002 6.19126409e-002
      1.24403939e-001 1.66301847e-001 5.44060096e-002 2.61362731e-001
      1.95009619e-001 1.35671183e-001 1.30266190e-001 6.73390999e-002
      7.28245974e-002 2.91115761e-001 2.97867060e-001 3.10242213e-002
      4.00554985e-002 5.08938804e-002 3.31651382e-002 5.39192706e-002
      2.88184322e-002 1.08642235e-001 2.97867060e-001 2.97867060e-001
      7.91344345e-002 3.34106497e-002 2.97867060e-001 1.11885741e-001
      1.74617574e-001 4.29343730e-002 2.74025109e-002 8.78548846e-002
      8.80823731e-002 1.52293909e-002 2.29712769e-001 2.97867060e-001
      4.95215654e-002 6.89521655e-002 5.15211709e-002 8.72113481e-002
      2.97867060e-001 2.97867060e-001 6.19159415e-002 2.08329260e-001
      1.69384912e-001 8.85310322e-002 2.58757740e-001 1.09592736e-001
      1.36187881e-001 2.80503660e-001 2.63143510e-001 7.21004903e-002
      1.09121121e-001 2.80503660e-001 8.91057327e-002 2.80503660e-001
      1.24541938e-001 6.56857118e-002 7.12330192e-002 7.72103816e-002
      5.71424887e-002 2.80503660e-001 1.08235173e-001 2.19691824e-002
      3.95247899e-002 3.51856798e-002 2.08835647e-001 2.80503660e-001
      2.80503660e-001 1.21241242e-001 6.70244321e-002 2.80503660e-001
      1.09491803e-001 6.44401014e-002 8.81311744e-002 1.40447274e-001
      1.13438144e-001 1.22621849e-001 9.66317281e-002 1.59012377e-001
      3.14065129e-001 7.12739155e-002 6.66669011e-002 3.66796851e-002
      2.83340383e-002 3.23717073e-002 5.71275055e-002 2.49791592e-002
      3.14065129e-001 3.14065129e-001 1.31800175e-001 9.43136662e-002
      2.44284123e-002 1.85245350e-002 3.43883149e-002 5.72633818e-002
      4.09212373e-002 3.14065129e-001 3.14065129e-001 1.80780753e-001
      1.15010656e-001 1.16953731e-001 8.11663270e-002 6.43929839e-002
      5.39125055e-002 7.74153322e-002 1.67051449e-001 3.14065129e-001
      3.14065129e-001 1.95440546e-001 6.40481710e-002 5.30243255e-002
      6.12377971e-002 2.44131163e-002 7.91043416e-002 3.05959135e-001
      3.07570666e-001 1.15582548e-001 1.09703690e-001 1.73047744e-002
      2.84667895e-003 7.60560902e-003 9.30512976e-003 2.49568485e-002
      3.07570666e-001 3.07570666e-001 1.30550280e-001 1.39833540e-001
      4.89442572e-002 3.96015160e-002 8.28668848e-002 6.92423433e-002
      1.53405918e-002 3.07570666e-001 3.07570666e-001 3.07570666e-001
      2.02359453e-001 1.77702941e-002 1.49580417e-002 6.53821742e-003
      1.42425110e-004 3.07104159e-002 1.86586738e-001 3.07570666e-001
      3.07570666e-001 2.38482863e-001 2.47798152e-002 7.70788081e-003
      4.55682457e-005 1.50141394e-004 6.71694148e-003 1.62236199e-001</_>
    <_>
      3.45482558e-001 2.38560766e-001 3.95180508e-002 1.33613730e-002
      4.96938229e-002 4.90343682e-002 7.73101598e-002 3.61415297e-002
      2.53428936e-001 3.45482558e-001 3.45482558e-001 1.29249826e-001
      5.19784167e-002 2.11868182e-001 1.74234271e-001 4.21271324e-002
      3.33137810e-002 1.42810181e-001 1.87349215e-001 1.85544029e-001
      1.10853590e-001 1.67790577e-002 2.95931902e-002 2.63604615e-002
      3.89283523e-002 3.67890820e-002 7.87403062e-002 5.08355722e-002
      3.45482558e-001 3.45482558e-001 4.04053442e-002 1.35139152e-001
      1.48614064e-001 4.53850105e-002 3.27315964e-002 7.97353461e-002
      9.80581492e-002 3.25791091e-001 1.85803846e-001 3.46094742e-002
      9.48924273e-002 5.00027835e-002 8.28993507e-003 9.32160579e-003
      1.22808451e-002 1.40912339e-001 3.49027365e-001 3.49027365e-001
      2.49086656e-002 7.50119612e-002 1.48835741e-002 4.93706483e-003
      1.07156774e-002 2.78648362e-002 2.66856067e-002 3.49027365e-001
      3.49027365e-001 4.79851142e-002 5.39644919e-002 4.75894250e-002
      1.10702692e-002 2.06803605e-002 5.99657185e-002 1.38706192e-001
      3.49027365e-001 3.49027365e-001 9.22707170e-002 8.19414109e-002
      7.11408705e-002 3.72968651e-002 4.47575003e-002 1.40724629e-001
      1.28909513e-001 2.69707769e-001 2.69707769e-001 3.63167822e-002
      2.14144424e-001 9.80425179e-002 1.24556504e-001 5.84722757e-002
      6.43900558e-002 6.44702613e-002 9.10291597e-002 8.88425857e-002
      1.07050769e-001 2.69707769e-001 2.24325895e-001 2.69540071e-001
      7.71415532e-002 5.56810349e-002 9.09606889e-002 2.25455210e-001
      2.69707769e-001 8.27627108e-002 2.69707769e-001 2.12077007e-001
      1.57818615e-001 3.57365794e-002 8.04498494e-002 1.33972680e-002
      3.47315781e-002 4.34960276e-002 8.30002055e-002 2.69707769e-001
      2.69707769e-001 2.69707769e-001 2.37319637e-002 2.72715203e-002
      3.95777375e-002 2.36497521e-001 3.15465182e-001 5.23162261e-003
      5.94254956e-003 6.15490694e-003 1.43928947e-002 1.20584024e-002
      1.88450497e-002 1.82349738e-002 3.61067861e-001 3.61067861e-001
      2.21423898e-002 3.67841646e-002 1.13687310e-002 1.09387934e-002
      9.89130884e-003 4.59713340e-002 5.54882959e-002 3.61067861e-001
      3.61067861e-001 5.29735647e-002 5.42743430e-002 1.14872027e-002
      1.84062924e-002 6.45570755e-002 6.75761625e-002 8.68718773e-002
      3.61067861e-001 3.61067861e-001 2.88490150e-002 5.06082699e-002
      7.85405748e-003 1.21574737e-002 6.79042116e-002 1.33851856e-001
      6.84225336e-002 2.72108048e-001 2.72108048e-001 6.00516871e-002
      4.11722511e-002 1.37351854e-002 3.60924588e-003 2.93641705e-002
      1.30061701e-001 2.22626939e-001 2.72108048e-001 2.72108048e-001
      1.06822543e-001 8.14372376e-002 1.09861687e-001 7.76867121e-002
      9.06089321e-002 2.62033165e-001 1.42106280e-001 2.17876315e-001
      2.72108048e-001 4.92957756e-002 6.27334714e-002 2.27416269e-002
      2.39230841e-002 4.58592251e-002 1.52368143e-001 2.72108048e-001
      2.72108048e-001 2.29559258e-001 1.03328526e-001 1.25005007e-001
      1.53955668e-001 1.26630113e-001 6.31987602e-002 2.55471557e-001
      1.16014510e-001 1.78612977e-001 1.17897823e-001 8.58951360e-002
      2.56419927e-001 2.33806312e-001 1.45924568e-001 6.02938123e-002
      1.39321640e-001 9.43544321e-003 2.54372247e-002 4.49025743e-002
      4.99473587e-002 2.70141006e-001 2.70141006e-001 2.54072249e-001
      1.18568819e-002 3.35499980e-002 1.94301218e-001 2.62500942e-001
      9.57103819e-002 6.74673840e-002 2.70141006e-001 2.70141006e-001
      1.75721392e-001 3.89315784e-002 1.37131721e-001 1.34600345e-002
      3.22524197e-002 6.62766173e-002 7.81735778e-002 2.70141006e-001
      2.70141006e-001 2.70141006e-001 1.53813902e-002 2.17415560e-002
      1.52875483e-001 2.12937564e-001 2.87093282e-001 7.92457238e-002
      9.81071293e-002 3.00383642e-002 5.26216328e-002 2.73648411e-001
      2.87093282e-001 2.62715518e-001 1.21074483e-001 1.79585874e-001
      1.59133542e-002 2.92657036e-002 5.31988824e-003 1.30587155e-002
      2.87093282e-001 2.87093282e-001 1.44921064e-001 3.41093354e-002
      1.73322242e-002 1.93149745e-002 3.22591178e-002 2.08036844e-002
      3.90258171e-002 2.25061163e-001 2.87093282e-001 2.49889627e-001
      2.39259582e-002 7.45550683e-003 3.17816483e-003 7.73583446e-003
      2.23746803e-003 1.12417387e-002 2.87093282e-001 2.87093282e-001
      2.51950979e-001 7.64751136e-002 4.97192182e-002 1.88809466e-002
      3.86583321e-002 2.96767280e-002 3.35226655e-002 2.22405970e-001
      2.94089228e-001 2.94089228e-001 1.82331562e-001 7.42250159e-002
      9.52026322e-002 9.89883691e-002 1.31742492e-001 1.14082597e-001
      2.10538894e-001 2.94089228e-001 2.14069992e-001 1.17391674e-002
      2.46419897e-003 1.25508569e-003 6.12101564e-003 6.65968983e-003
      8.15134961e-003 2.92984068e-001 2.94089228e-001 2.94089228e-001
      2.17402522e-002 7.72270421e-003 1.38440868e-002 1.80829354e-002
      2.24105623e-002 2.63854265e-002 2.94089228e-001 2.94089228e-001
      1.86377496e-001 1.03321709e-001 2.96854563e-002 5.58901615e-002
      1.45956650e-001 1.77420676e-001 1.52506679e-001 1.48117706e-001
      2.60016531e-001 3.71646471e-002 5.18968292e-002 5.15620708e-002
      6.27147704e-002 2.70852685e-001 2.70852685e-001 2.70852685e-001
      9.59141254e-002 1.55238524e-001 2.32163385e-001 1.90997776e-002
      6.59091119e-003 1.24150878e-002 1.99675541e-002 2.68685948e-002
      6.45185187e-002 2.70852685e-001 2.70852685e-001 2.13140994e-001
      1.24055423e-001 1.27988040e-001 5.22909611e-002 2.19046488e-001
      1.35718063e-001 1.36806309e-001 2.70852685e-001 2.70852685e-001</_>
    <_>
      2.68633496e-002 2.48082057e-002 1.54541386e-002 5.42291999e-003
      1.27656413e-002 2.01946348e-002 2.09044423e-002 1.96468532e-002
      2.43730620e-002 7.63846561e-002 1.23424217e-001 4.94729057e-002
      5.81999356e-003 3.71948890e-002 2.27830280e-002 1.36243934e-002
      1.92904714e-002 3.76834236e-002 2.62380332e-001 4.20648396e-001
      1.85303435e-001 3.90832109e-004 2.19708518e-003 9.76071320e-003
      1.26737934e-002 4.14728969e-002 1.73382521e-001 4.20648396e-001
      4.20648396e-001 4.20648396e-001 8.37978849e-004 5.65927615e-003
      1.79373883e-002 1.63693577e-002 1.08319461e-001 3.30780625e-001
      6.53073341e-002 1.09709039e-001 5.09908088e-002 9.26480256e-003
      2.12001335e-002 1.27537856e-002 5.92770008e-003 1.02667287e-002
      2.01589223e-002 1.60783887e-001 3.13930541e-001 1.41498148e-001
      1.90478079e-002 2.12747231e-002 1.51166879e-002 7.72134168e-003
      1.54289789e-002 5.49194850e-002 3.64381522e-001 3.64381522e-001
      2.91474670e-001 6.13850635e-003 7.41046900e-003 1.03026377e-002
      3.61527409e-003 5.11052758e-002 1.56495452e-001 3.64381522e-001
      3.64381522e-001 3.64381522e-001 1.13299247e-002 1.78423319e-002
      1.21168401e-002 1.36901001e-002 7.11616874e-002 2.13175654e-001
      1.52561426e-001 2.64905661e-001 1.64071873e-001 4.04363982e-002
      3.05633303e-002 1.03861419e-002 2.11624671e-002 7.30205923e-002
      6.43457994e-002 1.74123764e-001 2.64905661e-001 2.23613381e-001
      1.69941857e-001 1.43038064e-001 4.75008860e-002 1.01021819e-001
      1.88475490e-001 8.03775117e-002 2.64905661e-001 2.64905661e-001
      2.34374374e-001 2.11969074e-002 1.80474177e-001 4.38502505e-002
      3.22674140e-002 1.56213298e-001 1.35136351e-001 1.98668540e-001
      2.18773842e-001 1.43534496e-001 1.72669530e-001 2.64905661e-001
      1.48766011e-001 1.23391822e-001 2.64905661e-001 1.43938392e-001
      1.42445236e-001 2.82061756e-001 1.64052412e-001 6.34703189e-002
      4.10285667e-002 1.71752386e-002 5.07617295e-002 9.86073166e-002
      1.10625699e-001 2.82061756e-001 2.82061756e-001 2.39081085e-001
      3.61231640e-002 4.93771061e-002 2.30244994e-002 5.40976971e-002
      1.06034994e-001 1.73989311e-001 1.40316084e-001 2.49568954e-001
      1.15818955e-001 9.06934515e-002 6.74479380e-002 4.01139781e-002
      1.74511030e-001 2.67708778e-001 1.39603481e-001 1.66432068e-001
      2.82061756e-001 1.12270564e-001 5.41018583e-002 9.13103744e-002
      5.65027669e-002 2.82061756e-001 2.82061756e-001 2.23742947e-001
      2.70295799e-001 2.70295799e-001 2.11229637e-001 2.94436049e-002
      5.75217567e-002 1.30104879e-002 1.97158251e-002 4.19499427e-002
      1.49294868e-001 2.70295799e-001 2.70295799e-001 2.40784258e-001
      1.70506723e-002 3.42590250e-002 1.93876512e-002 4.50948551e-002
      4.81528193e-002 1.69305906e-001 1.50656015e-001 2.12205321e-001
      6.53380007e-002 5.59781492e-002 1.14122756e-001 3.88448648e-002
      2.70295799e-001 2.70295799e-001 1.98402420e-001 2.03601405e-001
      1.36479959e-001 1.08327046e-001 4.17785980e-002 6.12453409e-002
      9.30106118e-002 2.29342267e-001 2.28162780e-001 2.70295799e-001
      2.51734525e-001 3.31381261e-001 1.74441233e-001 3.10165957e-002
      3.12950730e-001 6.39207214e-002 9.07415673e-002 8.84214714e-002
      1.47971377e-001 9.44033042e-002 8.18713680e-002 5.88189512e-002
      6.22629002e-002 3.31381261e-001 1.67720646e-001 1.02331914e-001
      1.91981509e-001 1.09413341e-001 2.02289894e-001 8.94481838e-002
      9.01765227e-002 7.46483505e-002 2.88517296e-001 1.04595527e-001
      2.07004443e-001 1.03261918e-001 2.30017915e-001 6.47518709e-002
      3.97733003e-002 4.21993919e-002 8.95626992e-002 3.31381261e-001
      1.84146658e-001 6.51975721e-002 1.99190341e-002 6.90477937e-002
      1.82644933e-001 1.14404134e-001 3.81402522e-002 9.35636759e-002
      6.85291141e-002 9.59835351e-002 2.79933393e-001 3.57183337e-001
      2.40229920e-001 1.43583685e-001 8.93588364e-002 2.90981904e-002
      5.09679131e-002 9.13527831e-002 8.20577219e-002 3.57183337e-001
      3.57183337e-001 3.57183337e-001 9.50029790e-002 6.66451082e-002
      7.64337927e-003 1.53346155e-002 4.96240593e-002 1.58904418e-001
      1.07386835e-001 6.86055943e-002 8.60685557e-002 2.46817335e-001
      1.43350825e-001 4.04045060e-002 2.00469382e-002 2.51685809e-002
      3.38215604e-002 1.12540707e-001 1.79554045e-001 1.92466199e-001
      4.90354374e-002 3.30265090e-002 2.03831941e-002 2.87752189e-002
      5.30435443e-002 3.24276090e-002 3.19852859e-001 3.19852859e-001
      2.81555653e-001 1.12527266e-001 3.26033682e-002 3.24381478e-002
      2.69713067e-002 3.97212543e-002 8.93727243e-002 3.19852859e-001
      3.19852859e-001 3.19852859e-001 8.55251178e-002 6.98001832e-002
      5.04899435e-002 1.48497289e-002 6.17425237e-003 7.27514178e-003
      1.07053421e-001 2.04718441e-001 1.10664085e-001 7.56906345e-002
      6.46175444e-002 5.30285239e-002 1.21006472e-002 8.63930956e-003
      1.09499479e-002 3.14804673e-001 3.19852859e-001 2.77844787e-001
      9.31577459e-002 1.66560616e-002 2.13760231e-002 5.98409735e-002
      2.23469645e-001 6.65649921e-002 2.48355493e-001 2.74375290e-001
      2.43522093e-001 9.76769403e-002 2.92013958e-002 2.57472005e-002
      1.18667565e-001 2.74375290e-001 1.02314375e-001 7.17324167e-002
      1.15439728e-001 9.53138545e-002 1.12082936e-001 1.95456054e-002
      2.30521485e-002 4.37195934e-002 1.17112398e-001 3.00157033e-002
      2.46157706e-001 2.74375290e-001 2.46067986e-001 2.74207890e-001
      7.86163434e-002 4.04998846e-002 9.65724811e-002 2.74375290e-001
      6.51010424e-002 2.25290358e-001 2.74375290e-001 2.66198754e-001</_>
    <_>
      3.14751863e-001 3.14751863e-001 1.87644407e-001 1.39519468e-001
      1.39563709e-001 2.67928699e-003 7.70684564e-003 4.81816754e-003
      3.10681552e-001 3.14751863e-001 3.14751863e-001 1.90636337e-001
      9.78834406e-002 1.41840622e-001 7.18985591e-003 4.17526485e-003
      5.87733043e-003 1.68687612e-001 4.86812219e-002 1.36541381e-001
      1.84596390e-001 2.47351527e-001 2.22428858e-001 1.18065011e-002
      5.55726001e-003 4.91085090e-003 1.78583674e-002 5.99161908e-002
      2.18139470e-001 2.48830587e-001 2.06392124e-001 1.13677025e-001
      9.80291050e-003 2.03643925e-003 7.84563832e-003 1.33583369e-002
      8.85394365e-002 1.05235405e-001 1.07964881e-001 7.34164789e-002
      1.15552910e-001 1.34410635e-002 5.22968918e-003 7.77421286e-003
      4.32300195e-002 6.56507462e-002 2.81198293e-001 3.33250612e-001
      2.87012905e-001 2.13462487e-001 9.88309830e-002 6.50953203e-002
      2.16390863e-002 2.45727226e-002 6.55848011e-002 2.37846896e-001
      3.33250612e-001 1.70586616e-001 7.11422637e-002 1.20813185e-002
      2.23132223e-003 1.21170236e-002 1.70111917e-002 1.58428460e-001
      3.33250612e-001 3.33250612e-001 2.98574328e-001 1.53301328e-001
      1.20661423e-001 7.69716352e-002 7.63180405e-002 1.22139357e-001
      8.84261876e-002 1.79436520e-001 2.56469905e-001 1.74729392e-001
      1.15374915e-001 1.03700966e-001 1.34832978e-001 5.65287881e-002
      8.02765563e-002 1.12057149e-001 8.28076676e-002 1.82904884e-001
      1.18284687e-001 2.56469905e-001 2.56469905e-001 2.56469905e-001
      7.18456879e-002 1.42999411e-001 8.20670128e-002 2.39223272e-001
      2.56469905e-001 8.85640830e-002 1.86147377e-001 2.56469905e-001
      2.06674188e-001 8.35034102e-002 7.61135519e-002 6.96789995e-002
      2.76114326e-002 3.95004228e-002 4.13783938e-002 2.56469905e-001
      2.56469905e-001 2.56469905e-001 1.13965459e-001 8.20241272e-002
      3.62812616e-002 7.16755837e-002 1.65728167e-001 1.79840863e-001
      1.38650611e-001 1.26778353e-002 1.92380312e-003 5.49338898e-003
      7.52027053e-003 4.73543070e-002 2.48391539e-001 3.25447291e-001
      1.68113649e-001 6.20930269e-002 1.36221470e-002 5.94174024e-003
      1.61182845e-003 4.32915147e-003 7.45159239e-002 1.45722568e-001
      3.12832803e-001 2.60184467e-001 2.56300718e-001 8.79682750e-002
      5.10668717e-002 2.94556152e-002 7.51253143e-002 2.16298699e-001
      3.25447291e-001 3.25447291e-001 2.29322582e-001 1.11934230e-001
      6.67979866e-002 9.23876390e-002 9.42750871e-002 2.97116339e-001
      2.83789802e-002 2.30719522e-001 2.73624510e-001 1.17740571e-001
      4.85036634e-002 2.37136651e-002 3.07763903e-003 6.73164614e-003
      7.56068202e-003 7.74258599e-002 2.73624510e-001 2.73624510e-001
      1.90564215e-001 9.54059288e-002 8.25694352e-002 3.85905914e-002
      7.25904778e-002 1.07317545e-001 1.15823425e-001 2.73624510e-001
      2.73624510e-001 1.17310904e-001 1.44567907e-001 7.82080144e-002
      2.41857320e-002 4.89743948e-002 1.85584188e-001 2.02634737e-001
      2.73624510e-001 2.73624510e-001 2.05626950e-001 2.07433194e-001
      1.51292637e-001 4.28587310e-002 9.03434604e-002 2.73611039e-001
      7.63725787e-002 2.13477924e-001 2.19746798e-001 8.94591883e-002
      1.93647593e-001 2.46665165e-001 1.81572884e-001 9.27253962e-002
      9.62530524e-002 4.76677567e-002 4.07497101e-002 3.03527433e-002
      4.47659455e-002 2.46665165e-001 2.46665165e-001 2.04123825e-001
      1.22367062e-001 5.02434447e-002 1.83001116e-001 2.46665165e-001
      2.06216276e-001 9.62859318e-002 2.21748129e-001 2.46665165e-001
      1.48277670e-001 6.35331795e-002 2.22414374e-001 7.28353634e-002
      1.18896864e-001 5.09903282e-002 9.13406461e-002 2.46665165e-001
      2.46665165e-001 2.15934381e-001 1.23981766e-001 8.51225704e-002
      5.17749898e-002 1.02877781e-001 1.26664236e-001 1.53524071e-001
      2.72763640e-001 2.41283864e-001 1.31634131e-001 3.66029032e-002
      1.58358112e-001 2.40777016e-001 2.21508771e-001 2.72763640e-001
      1.17219515e-001 1.46486968e-001 1.22380815e-001 1.56920806e-001
      1.53959617e-001 2.72763640e-001 2.89038215e-002 4.00151536e-002
      6.96841478e-002 1.37731880e-001 2.72763640e-001 2.72763640e-001
      2.15533257e-001 2.40172502e-002 1.32220075e-001 1.73769772e-001
      4.65520099e-002 8.88030529e-002 1.27773225e-001 1.25917315e-001
      9.86979380e-002 1.00768194e-001 8.59579891e-002 2.72763640e-001
      2.88997531e-001 1.15580000e-001 2.38053843e-001 7.04663321e-002
      1.07955433e-001 6.49230778e-002 4.36497033e-002 1.30984947e-001
      2.88997531e-001 2.88997531e-001 2.17104837e-001 1.69991389e-001
      7.28383884e-002 1.06863305e-001 8.55795592e-002 5.10760769e-002
      1.97904259e-001 2.88997531e-001 2.24324107e-001 3.28322724e-002
      4.14500125e-002 1.26280397e-001 1.05328090e-001 2.95086447e-002
      2.84195840e-002 8.26448351e-002 2.88997531e-001 2.71102637e-001
      6.10734448e-002 2.36296002e-002 1.14044741e-001 1.46376163e-001
      3.89222354e-002 7.64926299e-002 1.89641252e-001 2.88997531e-001
      1.90162241e-001 1.73762798e-001 8.20384324e-002 4.99563813e-002
      1.18664876e-001 8.35594162e-002 4.62456681e-002 1.12401888e-001
      2.57886678e-001 1.58441409e-001 1.24064237e-001 8.31670761e-002
      1.76145941e-001 2.57886678e-001 2.22468942e-001 9.50053409e-002
      1.21700861e-001 2.57886678e-001 2.57886678e-001 1.54933453e-001
      5.38811572e-002 5.31700887e-002 9.77000371e-002 3.77038196e-002
      5.28917871e-002 1.28099099e-001 2.57886678e-001 2.57886678e-001
      2.57886678e-001 1.59780249e-001 1.84142381e-001 1.41075373e-001
      1.80967212e-001 1.34500787e-001 1.10015191e-001 2.57886678e-001</_>
    <_>
      2.69240648e-001 1.43332660e-001 7.67196491e-002 4.79179434e-002
      1.14481144e-001 9.25023183e-002 3.14174779e-002 2.28198953e-002
      1.13220602e-001 2.38446191e-001 2.69240648e-001 2.69240648e-001
      1.70755699e-001 1.19709581e-001 4.65339534e-002 4.08543348e-002
      3.58737521e-002 9.15825814e-002 1.89527199e-001 1.90836012e-001
      2.69240648e-001 1.71582371e-001 1.65906653e-001 1.29852921e-001
      1.25636846e-001 7.04479814e-002 2.24816948e-001 2.69240648e-001
      2.69240648e-001 2.69240648e-001 1.89170107e-001 5.73917404e-002
      2.87984759e-002 7.81691596e-002 7.23164156e-002 2.06402943e-001
      1.00316338e-001 2.54453331e-001 2.54453331e-001 1.21106289e-001
      9.89770219e-002 2.88668368e-002 2.35264134e-002 3.11041828e-002
      5.67926988e-002 6.88635856e-002 2.54453331e-001 2.27109104e-001
      1.66455522e-001 2.54453331e-001 2.52613842e-001 1.60428479e-001
      1.02146901e-001 3.97811197e-002 2.29846507e-001 2.54453331e-001
      2.54453331e-001 7.52774030e-002 5.87229319e-002 4.01585586e-002
      3.62387225e-002 2.99921390e-002 1.39372766e-001 1.64701328e-001
      2.37857640e-001 1.54692933e-001 1.01302512e-001 2.54453331e-001
      2.54453331e-001 1.83676377e-001 5.87470829e-002 1.16211914e-001
      2.44771019e-002 5.70188649e-002 6.30356893e-002 1.49016246e-001
      2.78390437e-001 2.78390437e-001 2.78390437e-001 9.98848751e-002
      2.39124987e-002 1.64455902e-002 2.01231837e-002 3.34284157e-002
      1.18799731e-001 2.78390437e-001 2.78390437e-001 1.02203675e-001
      3.60516533e-002 2.52246149e-002 5.64133897e-002 6.92272782e-002
      5.44464029e-002 1.52660891e-001 2.78390437e-001 2.78390437e-001
      2.78390437e-001 9.09203887e-002 3.95186841e-002 4.38284911e-002
      8.31958055e-002 6.40606210e-002 2.13141829e-001 2.78390437e-001
      2.78390437e-001 1.97707340e-001 1.02453314e-001 3.61405350e-002
      1.26305759e-001 1.46278083e-001 2.22293720e-001 1.35746792e-001
      1.84461221e-001 1.71106741e-001 1.88756719e-001 1.18686050e-001
      1.53759077e-001 2.22293720e-001 2.22293720e-001 1.92347303e-001
      8.86149779e-002 6.29886016e-002 5.73272966e-002 1.05325967e-001
      9.40991789e-002 1.84853807e-001 1.64863184e-001 1.28051370e-001
      1.30248621e-001 1.08860195e-001 2.22293720e-001 2.21112952e-001
      2.22293720e-001 2.22053483e-001 9.90889221e-002 2.22293720e-001
      2.01386854e-001 7.73402229e-002 9.13027972e-002 2.22293720e-001
      1.34962067e-001 1.68514475e-001 1.95853829e-001 1.81550607e-001
      2.29100704e-001 2.29100704e-001 2.14808270e-001 4.67921682e-002
      2.99988128e-002 2.73612924e-002 8.38457122e-002 7.56570995e-002
      2.29100704e-001 2.29100704e-001 2.17498139e-001 1.24078415e-001
      5.84622547e-002 1.19784668e-001 2.29100704e-001 2.29100704e-001
      1.36832803e-001 2.29100704e-001 2.05079302e-001 2.27090031e-001
      6.50146753e-002 5.85064776e-002 7.64112845e-002 5.57052977e-002
      1.22783951e-001 2.27703854e-001 2.29100704e-001 1.59525409e-001
      1.45409361e-001 7.01929033e-002 9.21200588e-002 1.43793300e-001
      2.05576211e-001 1.87213525e-001 1.68120861e-001 2.29100704e-001
      1.24382876e-001 5.52080050e-002 4.41068038e-002 9.65107232e-002
      1.64945528e-001 2.48613998e-001 2.48613998e-001 1.60570636e-001
      1.02407828e-001 8.27715248e-002 7.20524937e-002 4.87420224e-002
      1.53383613e-001 1.88503712e-001 2.41569445e-001 2.48613998e-001
      1.83363855e-001 7.15388283e-002 1.51366055e-001 5.88464364e-002
      6.79666251e-002 9.38408151e-002 1.97335705e-001 2.48613998e-001
      2.48613998e-001 1.43797308e-001 1.19093463e-001 2.48613998e-001
      1.18425995e-001 4.65327278e-002 8.26953873e-002 1.47237554e-001
      2.48613998e-001 2.48613998e-001 1.38182968e-001 2.48613998e-001
      2.51868844e-001 2.51868844e-001 1.40921414e-001 9.90085527e-002
      2.51868844e-001 2.51868844e-001 2.33864710e-001 1.41974196e-001
      2.16792256e-001 2.51868844e-001 1.66455284e-001 9.92179811e-002
      8.27350765e-002 2.51868844e-001 2.04526782e-001 1.71334162e-001
      1.91756621e-001 1.73248217e-001 2.51868844e-001 2.51868844e-001
      4.78908457e-002 5.56540070e-003 1.00895740e-001 1.43959805e-001
      6.83430582e-002 4.85576056e-002 1.50342599e-001 1.84690669e-001
      8.57066363e-002 3.98543403e-002 2.82362923e-002 1.38447195e-001
      7.00585246e-002 6.54176250e-002 8.29132348e-002 1.19032487e-001
      1.64473027e-001 1.40754044e-001 5.94621003e-002 5.46532311e-002
      2.06041217e-001 1.33449420e-001 1.44002885e-001 2.35168844e-001
      2.35168844e-001 1.13585360e-001 1.36920765e-001 1.00051925e-001
      1.20705478e-001 2.35168844e-001 2.35168844e-001 2.33641043e-001
      1.94623664e-001 1.89329535e-001 8.03730562e-002 6.67197257e-002
      7.21640661e-002 1.25321895e-001 2.35168844e-001 1.14202172e-001
      1.18991375e-001 1.40124977e-001 1.10019416e-001 1.69638783e-001
      9.64775607e-002 1.50071934e-001 1.92637801e-001 2.35168844e-001
      2.35168844e-001 2.35168844e-001 1.68291748e-001 1.39591351e-001
      1.09799191e-001 7.59809390e-002 7.59911388e-002 1.19383089e-001
      2.62091845e-001 2.62091845e-001 1.52246162e-001 9.00006816e-002
      6.68460727e-002 2.62091845e-001 9.22565311e-002 3.82716917e-002
      9.63722691e-002 1.44583404e-001 1.73408747e-001 9.54276472e-002
      6.77605867e-002 2.62091845e-001 2.12314293e-001 1.44020677e-001
      1.69849142e-001 1.24670796e-001 2.58396626e-001 1.84107885e-001
      2.30320483e-001 9.82928053e-002 1.10952780e-001 2.62091845e-001
      2.35344604e-001 1.41296759e-001 1.03656240e-001 1.35562003e-001
      1.06114171e-001 1.37267649e-001 8.49531889e-002 2.62091845e-001</_>
    <_>
      1.33224621e-001 1.75129712e-001 1.04272775e-001 1.22978166e-001
      3.25382799e-002 9.92083084e-003 7.84454215e-003 1.00540640e-002
      6.56926408e-002 2.67132401e-001 3.32723767e-001 1.70851514e-001
      1.73560709e-001 3.30302902e-002 4.30594105e-003 5.51316980e-003
      1.75947174e-002 1.01726338e-001 3.32723767e-001 3.32723767e-001
      2.41269037e-001 1.45577669e-001 4.76894788e-002 9.99229588e-003
      6.66172989e-003 1.64553560e-002 1.16147421e-001 3.32723767e-001
      3.32723767e-001 3.01161319e-001 9.95083600e-002 1.40604116e-002
      1.81597495e-003 2.34073270e-002 3.44443619e-002 1.50032341e-001
      2.45450392e-001 2.85316914e-001 1.72615856e-001 7.96618089e-002
      3.09381243e-002 1.53392029e-003 1.77681807e-003 1.12748127e-002
      7.63825700e-002 2.85316914e-001 2.85316914e-001 2.12996170e-001
      4.13144566e-002 7.65508041e-002 3.41101028e-002 1.83533933e-002
      4.07930091e-002 1.08994320e-001 2.85316914e-001 2.85316914e-001
      2.58952230e-001 8.43230411e-002 3.10361069e-002 1.53110866e-002
      2.14162972e-002 3.89260091e-002 1.02698319e-001 2.85316914e-001
      2.85316914e-001 2.17254192e-001 1.09267212e-001 1.76058114e-001
      1.03822194e-001 1.18579283e-001 1.65866122e-001 1.60144031e-001
      2.21557453e-001 2.56627232e-001 1.16745949e-001 2.45927926e-002
      6.58730417e-002 7.20048919e-002 1.00895882e-001 1.82206869e-001
      9.73497853e-002 1.31126270e-001 2.13678777e-001 7.32985362e-002
      9.63426977e-002 2.07783520e-001 6.01326339e-002 2.43671671e-001
      2.56627232e-001 1.42898425e-001 1.76719859e-001 2.05726162e-001
      4.76665720e-002 3.27846855e-002 1.08553454e-001 1.04949921e-001
      2.56627232e-001 2.56627232e-001 1.54300705e-001 8.57620016e-002
      3.40217426e-002 1.29291536e-002 1.63281485e-001 2.07708433e-001
      6.81655630e-002 2.56627232e-001 2.56627232e-001 2.56627232e-001
      2.74016589e-001 2.74016589e-001 1.32510766e-001 5.71901426e-002
      8.46104696e-002 3.11899129e-002 7.81744495e-002 1.42740190e-001
      1.07849292e-001 2.74016589e-001 2.74016589e-001 2.03365505e-001
      3.80554944e-002 5.85598573e-002 2.37866100e-002 1.31022319e-001
      9.80008841e-002 1.43723235e-001 1.55386358e-001 1.03316531e-001
      5.36786392e-002 4.03349698e-002 1.11902140e-001 7.13199750e-002
      2.71051049e-001 2.74016589e-001 1.95673436e-001 1.86508775e-001
      1.96060330e-001 1.14009224e-001 3.33894901e-002 8.45969915e-002
      5.26998863e-002 2.74016589e-001 2.74016589e-001 2.10697934e-001
      2.04698756e-001 2.46719763e-001 2.28659287e-001 7.22906366e-002
      4.44661304e-002 3.34907956e-002 1.06653154e-001 7.51305819e-002
      1.20740332e-001 2.46719763e-001 2.46719763e-001 1.83178723e-001
      1.22144714e-001 1.44758716e-001 7.69953430e-002 9.73667875e-002
      1.25174209e-001 1.98985279e-001 1.90816760e-001 1.48952007e-001
      9.27436873e-002 5.13556376e-002 3.55766006e-002 5.88633381e-002
      2.46719763e-001 2.46719763e-001 2.11795449e-001 2.46719763e-001
      1.78006276e-001 7.68521577e-002 9.85277295e-002 1.41546667e-001
      1.28458142e-001 1.81926340e-001 2.46719763e-001 2.46719763e-001
      1.85013443e-001 2.31817320e-001 6.68541342e-002 8.10161680e-002
      1.14873737e-001 7.97545016e-002 1.95646167e-001 2.31817320e-001
      1.34003624e-001 1.07805498e-001 5.75324520e-002 2.69114655e-002
      1.96276248e-001 2.31817320e-001 1.01389021e-001 2.31817320e-001
      2.31817320e-001 2.04124287e-001 1.14256799e-001 1.32295370e-001
      7.13481829e-002 7.56316781e-002 1.28323182e-001 1.56657964e-001
      2.31817320e-001 2.31817320e-001 1.77210346e-001 7.86971971e-002
      9.63416249e-002 9.26362425e-002 1.81901306e-001 2.31817320e-001
      1.90904841e-001 2.31817320e-001 2.31817320e-001 1.60438791e-001
      9.20730978e-002 2.42538452e-002 5.63101703e-003 4.49142139e-003
      5.20752966e-002 1.51860103e-001 2.90323287e-001 3.02362680e-001
      2.09033087e-001 1.20612815e-001 4.45530526e-002 1.50468107e-002
      8.41665082e-003 3.04508172e-002 1.06929220e-001 3.02362680e-001
      3.02362680e-001 2.92283565e-001 7.81273767e-002 1.66654084e-002
      7.79468613e-003 7.78317975e-004 2.19922177e-002 1.36227727e-001
      1.16946556e-001 2.24789441e-001 1.69823885e-001 6.71346486e-002
      9.96834878e-003 4.97577572e-003 1.64448621e-003 3.14782485e-002
      2.19118789e-001 3.02362680e-001 3.02362680e-001 3.00332338e-001
      1.15741856e-001 1.49139725e-002 1.25771379e-002 2.37760469e-002
      1.49175674e-002 3.81991602e-002 2.82254547e-001 2.82254547e-001
      2.28759870e-001 1.67743728e-001 4.07395735e-002 1.91037804e-002
      5.85370772e-002 1.38461456e-001 9.24833193e-002 2.81420648e-001
      2.82254547e-001 2.82254547e-001 4.73533422e-002 7.72243692e-003
      3.81622626e-003 4.62188618e-003 2.02836134e-002 1.04550324e-001
      2.56473094e-001 2.82254547e-001 2.43349016e-001 6.94318339e-002
      4.53475900e-002 7.10015651e-003 1.74483713e-002 1.07332341e-001
      4.96188588e-002 2.82254547e-001 2.82254547e-001 2.65985459e-001
      5.44112511e-002 2.58463379e-002 2.58863848e-002 2.23695543e-002
      8.63053873e-002 1.14742160e-001 2.96310574e-001 2.96310574e-001
      1.46682426e-001 4.91352640e-002 5.06873354e-002 6.26757741e-002
      9.43608284e-002 2.74526477e-001 1.31731704e-001 2.55285114e-001
      2.96310574e-001 1.23921819e-001 4.12792265e-002 2.31853332e-002
      2.73784623e-003 8.16429220e-003 6.93340600e-002 2.20047235e-002
      2.96310574e-001 2.96310574e-001 1.52075931e-001 7.93746859e-002
      9.06181149e-003 1.02943387e-002 1.34234637e-001 2.66179234e-001
      6.72911406e-002 2.96310574e-001 2.96310574e-001 1.17594205e-001</_>
    <_>
      3.42454836e-002 4.19336185e-002 3.15136723e-002 3.03719714e-002
      3.98461521e-002 4.78684567e-002 4.18632254e-002 3.07072327e-002
      2.40809135e-002 3.91416810e-002 9.29481089e-002 2.12881014e-001
      9.10640657e-002 6.45748451e-002 6.45963550e-002 5.62032685e-002
      5.73390350e-002 1.26083037e-002 7.18117505e-002 1.33640662e-001
      2.26746172e-001 5.18633239e-002 3.11412197e-002 1.42850569e-002
      1.58802494e-002 3.32691781e-002 6.40095323e-002 1.26398668e-001
      5.99432409e-001 5.99432409e-001 2.71407306e-001 6.24443144e-002
      7.40914866e-002 1.90271474e-002 3.40943933e-002 1.85030159e-002
      9.48799774e-003 5.41973300e-002 2.57710099e-001 2.01365463e-002
      1.38997119e-002 9.86788981e-003 5.97225456e-003 7.08462624e-003
      3.75358784e-003 1.08043756e-002 2.15234026e-001 4.64456558e-001
      4.30118628e-002 1.56520847e-002 5.34237502e-003 2.57613906e-003
      1.89162930e-003 2.63386173e-003 1.56976823e-002 2.13375390e-001
      4.64456558e-001 8.65994021e-002 1.05282804e-002 1.72308162e-002
      2.30047363e-003 2.92495196e-003 4.83345892e-003 9.15746950e-003
      4.14298534e-001 4.64456558e-001 5.96546270e-002 1.49728386e-002
      5.89376548e-003 2.50989641e-003 6.63527474e-003 8.07985291e-003
      2.67187078e-002 2.40193635e-001 3.17750722e-001 7.62096494e-002
      5.22643551e-002 2.99492497e-002 2.77090515e-003 1.16373664e-002
      6.93391636e-003 6.24516793e-002 1.97611272e-001 3.17750722e-001
      1.00983515e-001 2.78553575e-001 2.42811412e-001 1.35793723e-002
      5.51839359e-002 2.81319935e-002 3.63341756e-002 3.17750722e-001
      3.17750722e-001 8.76808986e-002 7.79466480e-002 5.87496385e-002
      1.69682838e-002 2.91697141e-002 1.52324550e-002 5.53007349e-002
      1.64850593e-001 2.88359731e-001 1.44788206e-001 3.11878920e-001
      2.45641723e-001 1.05731256e-001 8.13996717e-002 3.92609350e-002
      7.05827307e-003 7.43214339e-002 2.24555656e-001 2.90759802e-002
      3.32063111e-003 3.45155830e-003 1.07424380e-003 3.46644269e-003
      7.04708742e-003 4.25060205e-002 2.99724191e-001 4.04186577e-001
      8.22594538e-002 1.81041881e-002 6.68447372e-003 1.01427594e-003
      1.71281525e-003 6.43767463e-003 7.85870571e-003 3.15107584e-001
      4.04186577e-001 6.76999092e-002 5.02525270e-003 1.06406696e-002
      9.71595582e-004 1.55952526e-003 4.40597720e-003 1.05103262e-001
      4.04186577e-001 4.04186577e-001 2.16555536e-001 1.37812883e-001
      5.44665530e-002 2.31164992e-002 1.12366630e-002 4.55783382e-002
      6.86478913e-002 2.78244346e-001 3.15002531e-001 8.73822868e-002
      2.17662845e-002 6.83507975e-003 2.91795935e-003 2.70330161e-003
      1.63570326e-002 9.73308384e-002 3.15002531e-001 3.15002531e-001
      4.93600406e-002 4.04607914e-002 6.64999057e-003 1.22929094e-002
      3.57486717e-002 3.80072221e-002 1.87735900e-001 2.90551662e-001
      3.15002531e-001 1.73903465e-001 1.30123511e-001 3.70895229e-002
      2.53948122e-002 1.47618661e-002 6.06806800e-002 2.81402290e-001
      3.15002531e-001 3.15002531e-001 1.25593022e-001 8.83575305e-002
      4.60980460e-002 7.29648545e-002 6.70302361e-002 8.35841447e-002
      9.16889235e-002 2.79369652e-001 2.79369652e-001 8.12647864e-002
      9.08519775e-002 3.45534086e-002 2.57029757e-002 5.80981299e-002
      4.03098799e-002 3.11670713e-002 1.69233561e-001 2.79369652e-001
      1.49639711e-001 2.79369652e-001 1.69946864e-001 1.26021802e-001
      6.99735880e-002 4.44931351e-002 2.10463360e-001 2.79369652e-001
      2.79369652e-001 2.03242108e-001 1.68563083e-001 5.17585203e-002
      7.74506778e-002 8.32594410e-002 8.54568481e-002 3.86804938e-002
      1.56767055e-001 2.79369652e-001 2.12963223e-001 2.79369652e-001
      1.25409305e-001 9.70831439e-002 5.55137806e-002 4.97829467e-002
      1.98960472e-002 2.65992373e-001 3.23109865e-001 5.13460413e-002
      2.16060355e-002 9.03732236e-003 5.50438324e-003 2.48402916e-003
      1.34956306e-002 1.38167799e-001 2.12172493e-001 3.23109865e-001
      1.81443676e-001 1.36087954e-001 8.23537260e-002 3.96272466e-002
      2.33845823e-002 1.07451230e-001 3.23109865e-001 1.31173760e-001
      3.23109865e-001 5.08162677e-002 4.61617410e-002 1.33737465e-002
      1.40349641e-002 8.75627901e-003 2.03082755e-001 3.23109865e-001
      9.00503621e-002 2.79976875e-001 1.20353743e-001 7.20212460e-002
      5.08667827e-002 3.28931250e-002 1.52625144e-002 3.00899804e-001
      2.64185607e-001 2.14935228e-001 2.56989658e-001 1.94115788e-001
      1.61974221e-001 8.40122774e-002 5.10920025e-002 3.35497968e-002
      1.42465591e-001 2.64185607e-001 2.64185607e-001 2.54538834e-001
      2.06774652e-001 1.35237873e-001 7.04675466e-002 7.73376152e-002
      5.65261692e-002 1.38348579e-001 2.64185607e-001 9.03366879e-002
      1.36175618e-001 1.15549736e-001 7.63991252e-002 4.58787791e-002
      2.06055623e-002 1.95900705e-002 2.56375104e-001 2.64185607e-001
      1.74685359e-001 1.72800183e-001 1.71883002e-001 1.36914507e-001
      4.74030301e-002 1.56394932e-002 5.58900312e-002 2.30673805e-001
      2.70959109e-001 2.70959109e-001 2.54285008e-001 2.53981352e-001
      2.25168556e-001 7.07222447e-002 7.60008022e-002 6.53303862e-002
      1.61627069e-001 1.68471172e-001 1.28925622e-001 1.25284553e-001
      1.68136850e-001 2.70959109e-001 1.14513963e-001 7.54860938e-002
      3.58243249e-002 8.76304209e-002 2.70959109e-001 1.73952132e-001
      1.32380024e-001 1.23343959e-001 9.90038812e-002 2.55562272e-002
      1.53902993e-002 4.35527600e-002 2.70959109e-001 2.70959109e-001
      2.34087124e-001 4.84909341e-002 5.97522818e-002 8.46931636e-002
      2.70260498e-002 2.97738835e-002 2.19978467e-002 2.70959109e-001</_>
    <_>
      1.52851626e-001 2.15725720e-001 4.01719622e-002 5.92857301e-002
      1.01207696e-001 3.65806557e-002 5.09564728e-002 8.25489163e-002
      6.92952648e-002 2.74197191e-001 3.57106388e-001 1.48828357e-001
      8.91706273e-002 1.27649173e-001 5.26674017e-002 2.88627502e-002
      3.97062525e-002 5.79085052e-002 3.57106388e-001 3.57106388e-001
      1.04252286e-001 2.38548014e-002 8.11650679e-002 3.90142240e-002
      1.05016492e-001 1.77361622e-001 1.56821504e-001 3.57106388e-001
      3.57106388e-001 1.08657114e-001 3.27741057e-002 7.17318878e-002
      2.79127080e-002 3.59711833e-002 6.84175491e-002 1.28300831e-001
      2.99963474e-001 3.06735426e-001 1.13469057e-001 3.77048589e-002
      4.43997867e-002 2.34323964e-002 1.15022426e-002 2.96138953e-002
      1.12239443e-001 3.06735426e-001 3.06735426e-001 1.53048590e-001
      7.04746470e-002 5.29266782e-002 5.49326837e-002 1.40099451e-002
      3.35269906e-002 2.11456269e-001 3.06735426e-001 3.06735426e-001
      1.12835601e-001 2.36797966e-002 6.13703094e-002 4.00815606e-002
      2.01914795e-002 3.98617014e-002 1.39892161e-001 3.06735426e-001
      3.06735426e-001 2.12019667e-001 4.31870334e-002 4.43876088e-002
      9.88788754e-002 3.42283100e-002 7.78420419e-002 1.77918807e-001
      2.83598095e-001 2.83598095e-001 1.29806489e-001 7.74331465e-002
      1.01530276e-001 7.77181387e-002 3.39407846e-002 1.67513303e-002
      1.58364549e-001 2.83598095e-001 2.83598095e-001 1.03290148e-001
      1.11510575e-001 2.30436102e-001 8.53608772e-002 6.82074130e-002
      4.30535376e-002 1.57113492e-001 2.83598095e-001 2.83598095e-001
      1.53329194e-001 6.01568632e-002 5.08301295e-002 8.37108940e-002
      7.69247934e-002 7.37325624e-002 1.46078080e-001 2.22497419e-001
      1.47501588e-001 5.20230606e-002 2.73769230e-001 2.83598095e-001
      7.96508789e-002 1.03807785e-001 6.55965209e-002 1.18448325e-001
      2.27831021e-001 2.63259917e-001 4.98028509e-002 2.11151429e-002
      4.50833254e-002 1.97747909e-002 2.04588622e-001 2.79477745e-001
      1.75272122e-001 2.16880187e-001 2.73473799e-001 3.29490528e-002
      5.32133691e-003 4.23456356e-002 9.08998773e-003 9.17481929e-002
      2.56244004e-001 1.69694498e-001 2.87190434e-002 1.80467423e-002
      3.74818668e-002 1.43275604e-001 2.05727085e-001 2.89141703e-002
      2.68444628e-001 2.79477745e-001 2.03960299e-001 5.97289354e-002
      2.25622952e-002 1.93184521e-002 3.44131179e-002 7.78685287e-002
      8.92345048e-003 2.57419378e-001 2.79477745e-001 2.79477745e-001
      2.45981723e-001 2.29494140e-001 7.57659599e-002 1.89091880e-002
      1.20817974e-001 5.28160557e-002 7.67045319e-002 1.51824504e-001
      1.72374159e-001 2.28823170e-001 1.85822755e-001 1.30687073e-001
      4.29582261e-002 8.03855509e-002 1.09815449e-001 1.02697112e-001
      1.76550001e-001 2.03803256e-001 1.18863307e-001 4.37178090e-002
      4.38981913e-002 1.63529944e-002 1.02221891e-001 2.64387690e-002
      2.90661961e-001 2.90661961e-001 2.90661961e-001 1.65194809e-001
      9.05532315e-002 7.24555105e-002 8.43598694e-002 8.46405104e-002
      7.70756677e-002 2.90661961e-001 2.90661961e-001 2.85370409e-001
      2.00588778e-001 1.19469084e-001 1.00393377e-001 1.09496601e-001
      9.31625813e-002 1.29805848e-001 1.75758258e-001 2.07823813e-001
      1.54278442e-001 1.12673499e-001 3.81359421e-002 4.52505462e-002
      3.13188523e-001 3.13188523e-001 1.11499868e-001 1.71718717e-001
      1.28913313e-001 7.31470361e-002 1.48915470e-001 9.50540602e-002
      7.10173175e-002 1.44948810e-001 1.26620308e-001 1.53801426e-001
      1.95029140e-001 3.13188523e-001 1.95209801e-001 7.28724152e-002
      3.48623097e-002 2.66519971e-002 3.13188523e-001 3.13188523e-001
      1.43584639e-001 9.12256017e-002 1.04739770e-001 7.82252550e-002
      4.01219651e-002 4.24873456e-002 6.86186180e-002 3.24056655e-001
      3.24056655e-001 8.00270587e-002 1.35360762e-001 2.30226547e-001
      1.30304649e-001 7.41219670e-002 3.51641551e-002 1.16882063e-002
      6.83280006e-002 2.03614697e-001 4.26649712e-002 2.79772341e-001
      3.24056655e-001 3.23658258e-001 8.06168616e-002 6.41765893e-002
      9.02282298e-002 3.05140525e-001 3.24056655e-001 1.35809526e-001
      3.95150483e-002 4.57634442e-002 6.02470897e-002 7.90202916e-002
      7.09499866e-002 3.92438099e-002 5.14829569e-002 1.80706918e-001
      7.50143901e-002 5.73424883e-002 1.55616775e-001 1.31073445e-001
      3.76365967e-002 1.34067358e-002 7.83525500e-003 1.10047776e-002
      3.15081067e-002 2.20308956e-002 2.73132622e-001 3.53330493e-001
      2.38587990e-001 5.03850505e-002 2.05457397e-002 1.97745599e-002
      4.46396470e-002 3.45757082e-002 4.17665727e-002 3.53330493e-001
      3.53330493e-001 2.90305704e-001 3.59399654e-002 2.53982395e-002
      1.29101714e-002 7.93179311e-003 2.87513118e-002 3.87718081e-002
      8.29795375e-002 2.70342857e-001 1.46014988e-001 5.23443036e-002
      2.41149832e-002 7.64247403e-003 4.98888502e-003 2.30397824e-002
      4.85203899e-002 2.96943516e-001 3.53330493e-001 2.63634235e-001
      3.60958427e-002 2.02826019e-002 2.16267332e-002 4.53224257e-002
      5.03897406e-002 3.34685817e-002 2.02818111e-001 2.94722795e-001
      1.75813779e-001 2.86814049e-002 1.94061995e-002 3.52079608e-002
      2.77390152e-001 2.94722795e-001 6.51225895e-002 6.43972978e-002
      1.95985287e-001 9.81397927e-002 3.80676799e-002 1.47036035e-002
      1.00727137e-002 9.06854030e-003 2.08540298e-002 9.60940029e-003
      2.91798919e-001 2.94722795e-001 2.68371552e-001 6.87904805e-002
      3.28498147e-002 1.04006782e-001 1.84209257e-001 2.94722795e-001
      7.37504736e-002 2.11149707e-001 2.94722795e-001 2.94722795e-001</_>
    <_>
      2.50369161e-001 2.17913687e-002 1.87991634e-002 1.45684823e-001
      2.80219704e-001 1.09377660e-001 1.02125378e-002 1.18362783e-002
      1.57762930e-001 1.23878658e-001 8.21065307e-002 5.79826422e-002
      2.31096849e-001 2.80219704e-001 1.74625635e-001 2.63899155e-002
      3.21030058e-002 9.82216522e-002 1.79726571e-001 9.67453569e-002
      7.27536902e-002 1.84965655e-001 2.80219704e-001 1.19080573e-001
      3.60082351e-002 1.41870165e-002 6.54907301e-002 2.30197012e-001
      2.80219704e-001 2.80219704e-001 2.80219704e-001 2.80219704e-001
      2.05789074e-001 7.90474117e-002 1.07179675e-002 4.62972745e-002
      8.52686316e-002 1.49617121e-001 1.19801402e-001 1.38143241e-001
      2.54903257e-001 4.40477505e-002 2.16685906e-002 1.86908431e-002
      5.04202209e-002 9.21409428e-002 3.12665343e-001 3.12665343e-001
      1.24965928e-001 1.43556252e-001 6.04131185e-002 3.78208272e-002
      7.98124541e-003 3.77238207e-002 2.03937531e-001 3.12665343e-001
      3.12665343e-001 1.69654667e-001 1.78162217e-001 4.24348451e-002
      2.19493732e-002 1.11445794e-002 3.37409973e-002 3.09724629e-001
      3.12665343e-001 3.12665343e-001 1.01532385e-001 6.84285089e-002
      1.52469622e-002 2.26490479e-002 1.37107400e-002 9.02953818e-002
      9.36826542e-002 2.71784157e-001 2.71784157e-001 5.50368987e-002
      2.62936443e-001 1.41743302e-001 4.77124043e-002 3.75062004e-002
      2.69447677e-002 8.34592357e-002 1.26493379e-001 1.57256708e-001
      9.62273180e-002 2.71784157e-001 2.71784157e-001 7.61005357e-002
      8.16664919e-002 4.99281287e-002 1.83922559e-001 2.71784157e-001
      2.52812058e-001 1.31453425e-001 2.71784157e-001 1.67441741e-001
      2.51176804e-002 1.80631429e-002 7.43835866e-002 4.82320301e-002
      5.44609763e-002 1.16713412e-001 2.39973769e-001 2.71784157e-001
      2.71784157e-001 2.44940054e-002 1.24492114e-002 4.68576998e-002
      1.25441507e-001 1.58831492e-001 1.44708589e-001 1.45471916e-001
      1.71644226e-001 6.64400384e-002 4.79132161e-002 4.24994454e-002
      3.55202258e-002 2.48271897e-001 2.48271897e-001 2.48271897e-001
      1.95529595e-001 1.88850537e-001 1.00579903e-001 5.67635372e-002
      8.26259851e-002 7.24744201e-002 1.25543401e-001 1.38991818e-001
      1.19850978e-001 1.28032714e-001 1.80441454e-001 1.26280889e-001
      2.20568880e-001 1.99500307e-001 7.75357783e-002 2.48271897e-001
      2.48271897e-001 1.50761113e-001 1.56818628e-001 1.71349496e-001
      1.12926088e-001 2.48271897e-001 2.48271897e-001 2.14912608e-001
      2.54315645e-001 2.54315645e-001 2.54315645e-001 7.41299242e-002
      8.50010142e-002 4.04439159e-002 1.73903368e-002 5.46200648e-002
      8.21995884e-002 2.54315645e-001 2.54315645e-001 2.54315645e-001
      2.18831748e-002 2.73803454e-002 1.12773031e-002 2.25007962e-002
      8.93070772e-002 1.06798299e-001 2.54315645e-001 1.72019035e-001
      9.52964500e-002 6.45262673e-002 7.00947121e-002 3.97554599e-002
      2.10093781e-001 2.54315645e-001 2.00465828e-001 2.54315645e-001
      2.53591180e-001 1.21503286e-001 1.25927189e-002 2.94657182e-002
      1.48709603e-002 1.62481457e-001 2.54315645e-001 2.54315645e-001
      2.22804189e-001 2.59223282e-001 1.59327045e-001 1.03805505e-001
      1.98558211e-001 1.74003065e-001 2.43426207e-002 5.97814471e-002
      9.37204659e-002 5.40612452e-002 7.08804578e-002 1.33068115e-001
      2.26621315e-001 2.59223282e-001 2.59223282e-001 2.36922298e-002
      4.04569097e-002 5.59133589e-002 2.20436946e-001 2.28525698e-001
      9.02562961e-002 7.83814862e-002 2.59223282e-001 1.97266459e-001
      7.72151276e-002 1.61385089e-001 1.95686489e-001 5.38742393e-002
      1.03177637e-001 1.57993868e-001 2.49535009e-001 2.59223282e-001
      2.59223282e-001 1.02648735e-001 6.25142977e-002 6.24144673e-002
      7.11100996e-002 7.91965872e-002 5.16531989e-002 1.05476528e-001
      2.86435813e-001 1.38533816e-001 1.91048712e-001 1.57667100e-001
      6.15688302e-002 1.39004186e-001 1.00818492e-001 5.96491918e-002
      1.28012300e-001 2.67387033e-001 2.01844811e-001 2.86435813e-001
      2.86435813e-001 2.04041258e-001 6.80013150e-002 8.72639641e-002
      6.26131520e-002 1.83008462e-001 2.86435813e-001 1.52615175e-001
      5.61846308e-002 2.60068625e-002 2.48381477e-002 8.66763443e-002
      1.06036708e-001 5.56447059e-002 1.66312724e-001 2.86435813e-001
      2.40569547e-001 2.62612343e-001 1.35788962e-001 4.42987792e-002
      1.23372436e-001 3.39021161e-002 2.06033103e-002 5.29346503e-002
      7.37504810e-002 6.25257120e-002 3.04070830e-001 3.04070830e-001
      1.72273412e-001 1.76000550e-001 5.22032194e-002 1.09886723e-002
      1.63903926e-002 2.91248839e-002 2.81265434e-002 3.04070830e-001
      3.04070830e-001 2.66759574e-001 5.38792573e-002 5.51417321e-002
      2.84036975e-002 5.56374937e-002 1.34849295e-001 8.14871863e-002
      3.04070830e-001 2.96433985e-001 7.64642730e-002 7.33979717e-002
      3.86948735e-002 2.08656155e-002 2.34992746e-002 6.13814257e-002
      6.67096227e-002 3.04070830e-001 3.04070830e-001 1.99383169e-001
      9.94593501e-002 6.58238083e-002 3.72826047e-002 8.42256770e-002
      2.32636333e-001 1.52501971e-001 1.24563299e-001 2.52555460e-001
      1.41022861e-001 3.33275646e-002 5.94046302e-002 1.18453883e-001
      2.49893665e-001 2.52555460e-001 2.52555460e-001 7.36360326e-002
      5.88259660e-002 4.90463823e-002 7.01731667e-002 3.01788449e-002
      7.55985007e-002 1.07653059e-001 1.98801786e-001 1.06309630e-001
      2.52555460e-001 2.52555460e-001 1.60604000e-001 1.64195374e-001
      1.20322771e-001 2.21013173e-001 2.52555460e-001 2.52555460e-001
      1.89082950e-001 9.80340391e-002 2.26538420e-001 1.90701962e-001</_>
    <_>
      2.81908721e-001 7.67904520e-002 6.09255396e-002 9.90242213e-002
      7.41577297e-002 2.90146768e-002 1.69412941e-002 7.39217270e-003
      1.53561145e-001 2.90720016e-001 6.64298311e-002 1.55566901e-001
      1.15374349e-001 4.37513553e-002 1.18810069e-002 1.53330350e-002
      2.44641788e-002 2.59735346e-001 2.90720016e-001 1.58854038e-001
      8.55666399e-002 7.41665363e-002 1.42549604e-001 1.74341395e-001
      2.90720016e-001 2.32567623e-001 2.75152028e-001 2.90720016e-001
      1.04390018e-001 1.04814418e-001 3.86641063e-002 7.20072165e-002
      7.96754360e-002 1.90503299e-001 2.08098963e-001 2.90720016e-001
      2.69893914e-001 5.89842536e-002 2.24196687e-001 1.59338832e-001
      5.80868274e-002 2.04974655e-002 1.43405553e-002 3.86119522e-002
      2.94414729e-001 2.87602663e-001 6.13010898e-002 7.91681185e-002
      5.54651096e-002 3.24536636e-002 1.01145273e-002 7.68458331e-003
      6.11803532e-002 2.82361180e-001 2.94414729e-001 1.45413667e-001
      1.01378456e-001 8.54927599e-002 8.01883265e-002 4.29909416e-002
      5.48667163e-002 1.37331456e-001 2.94414729e-001 2.94414729e-001
      2.81180799e-001 1.30975485e-001 8.98585841e-002 5.46244420e-002
      5.62463850e-002 7.43217766e-002 2.02105016e-001 2.94414729e-001
      2.40604401e-001 7.40634203e-002 2.05070991e-002 1.62707493e-002
      2.28756312e-002 1.66547317e-002 3.28810588e-002 1.10388733e-001
      2.22945556e-001 1.88192993e-001 7.93963000e-002 6.07879311e-002
      3.83343808e-002 1.64698780e-001 1.00403324e-001 8.60297754e-002
      2.14039713e-001 2.40604401e-001 2.40604401e-001 2.40604401e-001
      1.03706829e-001 2.04648033e-001 5.50075173e-002 9.50467587e-002
      1.02197863e-001 1.89125970e-001 2.40604401e-001 1.56983823e-001
      1.45506427e-001 1.42916039e-001 2.40604401e-001 2.40604401e-001
      2.40604401e-001 2.21156910e-001 2.40604401e-001 2.08020046e-001
      1.11038178e-001 4.75731269e-002 8.48819762e-002 4.39679474e-002
      9.05001834e-002 1.29766196e-001 3.27281862e-001 3.03168952e-001
      8.37056339e-002 2.06254676e-001 3.47223282e-002 6.49300292e-002
      3.05225849e-002 8.34743977e-002 9.91616473e-002 3.27281862e-001
      3.27281862e-001 2.40969285e-001 1.77788194e-002 5.22862412e-002
      2.08135933e-001 8.05195943e-002 4.34520729e-002 9.02197510e-002
      2.69289792e-001 1.77648008e-001 5.26677631e-002 7.21745333e-003
      2.23515145e-002 9.99193192e-002 4.92142737e-002 5.70121557e-002
      4.49497104e-002 3.27281862e-001 3.27281862e-001 4.19918746e-002
      1.72589764e-001 6.28028587e-002 9.29047167e-002 1.04125984e-001
      1.17617451e-001 4.50197719e-002 2.94917047e-001 1.89679638e-001
      2.23091483e-001 1.48564577e-001 1.34287119e-001 1.32778019e-001
      1.24326229e-001 9.06679109e-002 1.20697439e-001 1.99706972e-001
      1.91855147e-001 1.97117463e-001 1.35221910e-002 2.33339984e-002
      6.96363673e-002 6.53104782e-002 1.17357686e-001 6.54035509e-002
      3.17374676e-001 3.17374676e-001 4.83539328e-002 1.14011019e-001
      5.70568219e-002 1.19394101e-001 1.01231039e-001 1.21857390e-001
      1.53128102e-001 3.17374676e-001 3.17374676e-001 1.76978320e-001
      1.19156539e-001 1.06498823e-001 8.02956223e-002 2.43562922e-001
      1.22091569e-001 1.00047261e-001 1.45348266e-001 1.32091597e-001
      1.35364011e-001 4.43761684e-002 4.00238708e-002 8.57547671e-002
      3.15865129e-001 3.15865129e-001 1.20077558e-001 8.93191323e-002
      1.00288138e-001 6.24231063e-002 1.13357380e-001 2.99835708e-002
      9.95947197e-002 3.15865129e-001 3.15865129e-001 1.24813460e-001
      2.33745381e-001 1.64565831e-001 1.81559891e-001 2.54725888e-002
      7.31014507e-003 4.61034290e-002 3.15865129e-001 3.15865129e-001
      1.16205439e-001 6.94376826e-002 3.13799381e-002 4.18611839e-002
      7.38735870e-002 5.58380894e-002 1.91440985e-001 8.36692452e-002
      4.29392308e-002 1.97214529e-001 2.69990236e-001 2.38943070e-001
      1.53301448e-001 8.58093239e-003 1.46927526e-002 6.59455582e-002
      3.52465734e-002 4.06195335e-002 9.36144814e-002 2.69990236e-001
      2.69990236e-001 1.59064516e-001 1.25475079e-001 1.62888765e-002
      8.05307701e-002 4.91858982e-002 4.80324477e-002 1.68535709e-001
      2.54564315e-001 2.69990236e-001 2.69990236e-001 6.52635992e-002
      1.37686897e-002 1.19426008e-002 2.49683745e-002 8.53211805e-002
      2.57036120e-001 2.69990236e-001 2.69990236e-001 2.69990236e-001
      8.14629626e-003 5.59997698e-003 5.66776237e-003 7.75288465e-003
      1.81007329e-002 3.09870876e-002 3.58753890e-001 3.04953665e-001
      4.10653502e-002 6.52536079e-002 1.56645048e-002 2.52126995e-002
      2.83025093e-002 4.29228097e-002 4.38112579e-002 3.58753890e-001
      3.58753890e-001 9.98861045e-002 4.69564348e-002 9.05991439e-003
      4.65139234e-003 1.33311143e-002 3.99295464e-002 8.84484276e-002
      3.58753890e-001 2.40169227e-001 1.28357723e-001 4.36404981e-002
      2.00819336e-002 8.38588271e-003 2.04503685e-002 6.45207539e-002
      5.32409586e-002 3.58753890e-001 3.58753890e-001 1.11780599e-001
      4.90185656e-002 1.35864820e-002 3.70861851e-002 1.94631785e-001
      3.04072082e-001 4.53574099e-002 2.62355596e-001 1.34299845e-001
      7.48465061e-002 1.15225222e-002 5.73031465e-003 2.87058894e-002
      3.18985552e-001 3.18985552e-001 5.02875075e-002 2.91705914e-002
      1.64236836e-002 1.45567385e-002 2.72147153e-002 5.08915894e-002
      2.01573633e-002 1.89729288e-001 3.18985552e-001 5.27849235e-002
      3.18985552e-001 2.63038695e-001 6.72110245e-002 2.42116880e-002
      3.96250859e-002 5.80052435e-002 3.18985552e-001 3.18985552e-001
      5.76599315e-002 1.45591110e-001 7.34832734e-002 3.08448318e-002</_>
    <_>
      2.57999122e-001 5.57558499e-002 6.14062361e-002 3.18702795e-002
      3.78093682e-002 6.69365600e-002 2.62446761e-001 2.62446761e-001
      2.62446761e-001 2.62446761e-001 1.27680540e-001 2.62446761e-001
      1.29705697e-001 6.33453429e-002 5.52802011e-002 1.49666950e-001
      1.89687133e-001 2.62446761e-001 2.62446761e-001 1.14916064e-001
      5.58647923e-002 4.33501713e-002 1.68538243e-002 2.76097432e-002
      9.95061994e-002 1.19320318e-001 2.62446761e-001 2.62446761e-001
      1.35086760e-001 7.25234896e-002 7.77614191e-002 5.03169075e-002
      6.03189841e-002 9.85475108e-002 2.02044427e-001 2.62446761e-001
      2.56464392e-001 2.56464392e-001 2.36676976e-001 1.07725665e-001
      5.69722727e-002 7.37994909e-002 5.43724298e-002 1.01854302e-001
      2.56464392e-001 2.56464392e-001 2.56464392e-001 1.97542980e-001
      1.35838166e-001 4.84118015e-002 7.27744773e-002 5.33621013e-002
      1.17804743e-001 2.51041263e-001 2.56464392e-001 1.48814395e-001
      7.23996088e-002 6.43620640e-002 5.71147911e-002 7.59296939e-002
      7.77251795e-002 1.38011798e-001 2.56464392e-001 2.56464392e-001
      2.30605245e-001 9.10577551e-002 4.27172482e-002 4.16314453e-002
      4.09805328e-002 6.96836412e-002 1.83727548e-001 2.56464392e-001
      2.56465942e-001 2.23934650e-001 1.01895049e-001 1.02698818e-001
      3.95049937e-002 4.93812896e-002 3.47192772e-002 1.18297383e-001
      2.56465942e-001 2.56465942e-001 1.89194128e-001 7.40851313e-002
      5.31185828e-002 6.99948370e-002 7.92116374e-002 1.04266003e-001
      1.49180114e-001 2.56465942e-001 2.56465942e-001 1.78657874e-001
      7.19910115e-002 3.76243033e-002 4.76679355e-002 3.10307965e-002
      7.65606314e-002 2.38530338e-001 2.56465942e-001 2.56465942e-001
      1.58384785e-001 6.54916614e-002 5.87064736e-002 8.73992965e-002
      1.39292777e-001 2.56465942e-001 2.49822751e-001 2.56465942e-001
      2.83502907e-001 1.18387036e-001 3.75314020e-002 4.18255627e-002
      3.22139375e-002 4.25544605e-002 2.30972961e-001 2.12190226e-001
      2.53437668e-001 2.82686263e-001 1.02210149e-001 1.23161562e-002
      3.34217176e-002 5.47988750e-002 9.01597962e-002 2.74179995e-001
      2.83502907e-001 2.83502907e-001 1.22285031e-001 7.99051002e-002
      5.40501624e-002 3.76228355e-002 2.62082126e-002 2.61883102e-002
      2.83502907e-001 2.83502907e-001 1.04068719e-001 8.95597115e-002
      2.15433333e-002 1.37887876e-002 7.54307397e-003 3.07963230e-002
      8.83508548e-002 2.83502907e-001 2.83502907e-001 1.36476681e-001
      1.42663360e-001 7.72386044e-002 1.02833748e-001 6.11219034e-002
      8.24645311e-002 7.75609165e-002 1.67168826e-001 2.53395438e-001
      2.52054095e-001 2.68673509e-001 1.09487906e-001 2.33706653e-001
      8.81200731e-002 7.46202841e-002 6.25687540e-002 2.07150593e-001
      2.68673509e-001 2.68673509e-001 6.34412691e-002 1.67939626e-002
      6.74970448e-002 3.83039862e-002 6.13020398e-002 1.18816815e-001
      2.68673509e-001 2.68673509e-001 1.35508865e-001 1.31278545e-001
      3.40116695e-002 1.42654628e-001 8.68067592e-002 8.23596045e-002
      1.56170830e-001 2.68673509e-001 2.68673509e-001 1.79172695e-001
      2.49553040e-001 5.68060279e-002 9.95881259e-002 3.21960747e-002
      5.27042598e-002 9.39944386e-002 2.11889103e-001 2.28513360e-001
      2.49553040e-001 2.27498457e-001 1.05884433e-001 6.33014068e-002
      2.47864313e-002 7.07660094e-002 1.55806512e-001 2.49553040e-001
      1.78462744e-001 2.46650338e-001 1.25773311e-001 3.21348943e-002
      6.96152300e-002 3.05341017e-002 5.75663000e-002 1.62001818e-001
      2.49553040e-001 2.49553040e-001 2.04253584e-001 2.08638728e-001
      1.15500748e-001 8.64505842e-002 3.49922627e-002 8.25770423e-002
      1.81616470e-001 2.49553040e-001 2.30187342e-001 2.43130460e-001
      4.57485616e-002 7.84321874e-002 1.19283058e-001 6.89861402e-002
      6.48316592e-002 7.89066330e-002 2.26626903e-001 2.72860348e-001
      6.89616725e-002 2.18113605e-002 2.89894771e-002 4.57848497e-002
      7.45368153e-002 1.37538671e-001 2.78613091e-001 2.78613091e-001
      2.78613091e-001 8.66521597e-002 5.68366423e-002 4.15786728e-002
      7.61917084e-002 7.34950751e-002 2.04872712e-001 2.70499557e-001
      1.94706827e-001 1.81635588e-001 8.10740069e-002 4.98722866e-002
      3.51125970e-002 1.15343690e-001 2.25405231e-001 2.78613091e-001
      2.78613091e-001 2.54444063e-001 2.34322250e-001 9.59265307e-002
      1.43957790e-002 2.50466284e-003 1.18053434e-002 5.32848909e-002
      1.67173848e-001 2.41981730e-001 2.41981730e-001 2.41981730e-001
      4.96894754e-002 7.48422518e-002 1.42151369e-002 5.05828336e-002
      7.10969642e-002 1.21783040e-001 2.10684136e-001 2.41981730e-001
      2.41981730e-001 1.16172180e-001 6.67979419e-002 1.19967870e-002
      5.17285280e-002 1.32564977e-001 2.41981730e-001 2.41981730e-001
      2.41981730e-001 2.41981730e-001 8.97637457e-002 2.41981730e-001
      2.19845966e-001 1.07803158e-001 9.43217576e-002 1.54640317e-001
      1.24536857e-001 2.41981730e-001 2.25938722e-001 2.03716800e-001
      1.20188080e-001 9.72113237e-002 1.14917584e-001 4.31613401e-002
      4.12660092e-002 8.16305503e-002 2.58675724e-001 2.45177969e-001
      2.06771284e-001 2.28732869e-001 2.58675724e-001 2.24819288e-001
      7.10074008e-002 5.15662655e-002 6.80859014e-002 2.39227533e-001
      2.31061071e-001 2.58675724e-001 2.58675724e-001 2.58675724e-001
      2.58675724e-001 7.60509893e-002 3.55400741e-002 1.24824168e-002
      3.35974880e-002 4.33323272e-002 1.22107811e-001 1.54133752e-001
      2.58675724e-001 2.58675724e-001 8.82379711e-002 4.14441153e-002
      2.67751049e-002 2.28575058e-002 7.84662366e-002 1.42540246e-001</_>
    <_>
      1.09507523e-001 6.82602152e-002 1.56719238e-001 4.66837958e-002
      3.54879126e-002 3.06775570e-002 1.76803187e-001 2.54767388e-001
      2.54767388e-001 2.54767388e-001 1.27450868e-001 1.06305204e-001
      3.30978669e-002 3.83855067e-002 1.25645427e-002 6.31678104e-002
      1.08197324e-001 2.27231264e-001 2.54767388e-001 2.45009154e-001
      2.54767388e-001 8.46664160e-002 4.26475629e-002 8.79772566e-003
      1.75962687e-001 2.54767388e-001 2.54767388e-001 2.54767388e-001
      2.54767388e-001 2.54767388e-001 8.36640298e-002 5.28710373e-002
      9.97552741e-003 4.84021865e-002 9.51178893e-002 2.29334429e-001
      2.21171170e-001 2.88735837e-001 1.91506684e-001 5.58549985e-002
      6.06389455e-002 3.31763625e-002 1.49475455e-001 6.12136424e-002
      6.79163784e-002 1.69119895e-001 2.88735837e-001 2.88735837e-001
      9.83217731e-002 7.84097835e-002 3.91969532e-002 1.16670057e-001
      7.18679577e-002 4.59017493e-002 2.65522659e-001 2.88735837e-001
      2.88735837e-001 8.92426595e-002 4.10040691e-002 2.33320277e-002
      3.38737629e-002 2.36548763e-002 1.03977203e-001 2.88735837e-001
      2.88735837e-001 2.88735837e-001 1.04712628e-001 5.68257160e-002
      5.60139045e-002 6.95222020e-002 8.20633993e-002 1.30496562e-001
      1.66541085e-001 2.92785794e-001 2.45792150e-001 4.63187769e-002
      1.52785718e-001 7.17704892e-002 2.39746943e-002 1.87921133e-002
      2.96883341e-002 2.13048875e-001 1.64744154e-001 1.35494575e-001
      9.26237330e-002 2.92785794e-001 2.50378370e-001 7.66281933e-002
      1.33074582e-001 1.25495225e-001 1.69285834e-001 2.13551328e-001
      1.72583550e-001 6.38141483e-002 2.08254248e-001 1.19811870e-001
      7.62381926e-002 6.14442714e-002 8.07909817e-002 2.42040277e-001
      1.07830949e-001 1.17024451e-001 1.32057771e-001 2.92785794e-001
      2.92785794e-001 9.69953761e-002 8.22959617e-002 1.80580378e-001
      2.17622027e-001 2.66342819e-001 2.66342819e-001 1.52644917e-001
      1.03644475e-001 1.02925254e-002 1.37355626e-001 1.34128004e-001
      1.22568801e-001 1.08747892e-001 2.66342819e-001 2.66342819e-001
      5.16611934e-002 3.84657793e-002 7.59516936e-003 4.69569042e-002
      8.25769603e-002 7.50696957e-002 6.41432703e-002 1.71779275e-001
      2.41676152e-001 9.97907966e-002 1.92524970e-001 8.77527967e-002
      2.66342819e-001 2.66342819e-001 1.54189184e-001 5.78806438e-002
      1.37287274e-001 1.08583234e-001 2.06164401e-002 1.00816257e-001
      8.09118748e-002 2.40788981e-001 2.66342819e-001 2.38866806e-001
      1.63444743e-001 2.42172673e-001 2.42172673e-001 8.22182894e-002
      5.93842939e-002 1.12532275e-002 2.78297681e-002 6.76310286e-002
      1.15700893e-001 2.42172673e-001 2.42172673e-001 2.42172673e-001
      1.39519274e-001 8.44266862e-002 4.64687012e-002 9.71949175e-002
      1.76366642e-001 2.19068408e-001 1.65107340e-001 1.12414449e-001
      8.19735974e-002 5.52928820e-002 7.94847831e-002 5.84759973e-002
      1.96599409e-001 2.42172673e-001 2.42172673e-001 2.42172673e-001
      1.54109970e-001 1.32176161e-001 1.46164611e-001 1.06262326e-001
      8.57821330e-002 2.42172673e-001 2.42172673e-001 2.42172673e-001
      1.71989158e-001 1.18359827e-001 1.45517960e-001 1.02183059e-001
      2.03465700e-001 1.34308055e-001 1.32085457e-001 1.33094996e-001
      1.58599690e-001 1.54749423e-001 7.24906251e-002 8.60347971e-002
      1.29262090e-001 3.27712893e-001 3.27712893e-001 1.15681536e-001
      6.31208420e-002 1.63714930e-001 1.40378013e-001 1.04710378e-001
      1.11593708e-001 1.31558061e-001 1.99525282e-001 1.43863335e-001
      1.47928521e-001 1.58909425e-001 1.93159759e-001 1.16131470e-001
      3.05239130e-002 4.43353131e-002 9.91516486e-002 3.27712893e-001
      3.27712893e-001 1.11204609e-001 6.34210482e-002 1.63448736e-001
      1.59814712e-002 2.73644160e-002 2.49845367e-002 4.53366525e-002
      2.53409088e-001 1.60435036e-001 2.07137048e-001 2.39940748e-001
      9.09121037e-002 4.43953201e-002 6.97826967e-002 5.14861606e-002
      7.15289712e-002 2.53409088e-001 2.26666719e-001 2.01210931e-001
      2.53409088e-001 2.10188240e-001 2.00018048e-001 7.34932348e-002
      2.03485116e-002 2.03914687e-001 2.53409088e-001 1.18777491e-001
      2.84435526e-002 1.10776667e-002 6.79777637e-002 2.53409088e-001
      1.37983620e-001 1.12653658e-001 2.53409088e-001 2.53409088e-001
      2.53409088e-001 1.15156032e-001 7.17820078e-002 1.94199905e-001
      7.12033808e-002 7.82319903e-002 6.63198009e-002 4.00761962e-002
      7.85068944e-002 1.08965129e-001 1.80071592e-001 2.58705646e-001
      2.58705646e-001 9.12405625e-002 5.22440262e-002 4.82295491e-002
      4.74828929e-002 4.32248563e-002 4.88360934e-002 2.58705646e-001
      2.58705646e-001 2.58705646e-001 1.54187739e-001 1.42618433e-001
      1.15998447e-001 1.23385653e-001 2.15310439e-001 2.34257445e-001
      1.56751379e-001 2.50447214e-001 2.38090292e-001 1.32893920e-001
      5.87355979e-002 6.95883855e-002 5.01570925e-002 1.42067388e-001
      8.81918520e-002 2.58705646e-001 2.58705646e-001 2.58705646e-001
      6.23113886e-002 3.03032212e-002 3.77033912e-002 5.27670011e-002
      8.69788826e-002 6.54630065e-002 1.89022273e-001 2.48052478e-001
      1.82444289e-001 9.61698070e-002 2.76940223e-002 2.60399505e-002
      1.06943578e-001 2.72389948e-001 2.72389948e-001 6.83882087e-002
      7.74920434e-002 1.13703802e-001 1.92411855e-001 2.47514322e-002
      5.04161716e-002 2.64528096e-002 6.22366741e-002 3.01798377e-002
      2.72389948e-001 2.72389948e-001 2.72389948e-001 2.72389948e-001
      9.23119560e-002 6.68246746e-002 1.23893857e-001 2.72389948e-001
      2.00786218e-001 1.34368226e-001 2.72389948e-001 2.72389948e-001</_>
    <_>
      1.13628097e-001 1.82114393e-001 1.03516392e-001 8.84919837e-002
      1.14672044e-002 3.35123483e-003 3.79705406e-003 1.69717539e-002
      5.72008938e-002 2.68615395e-001 3.43170971e-001 2.13379160e-001
      1.28101170e-001 1.44393807e-002 4.85938136e-003 3.47570493e-003
      1.60314273e-002 5.74901998e-002 3.43170971e-001 3.43170971e-001
      2.41431504e-001 9.91626605e-002 2.01686062e-002 4.45973565e-004
      1.47572753e-003 1.90442689e-002 8.22498798e-002 3.43170971e-001
      3.43170971e-001 3.25291634e-001 8.00971761e-002 1.08202891e-002
      5.59467543e-003 1.06837740e-002 4.60593179e-002 1.05945691e-001
      2.54879475e-001 2.96758652e-001 1.73887745e-001 7.52209201e-002
      1.32528655e-002 3.64074926e-003 3.17918719e-003 4.12171707e-003
      3.83969359e-002 2.96758652e-001 2.96758652e-001 1.86210871e-001
      5.22872359e-002 4.00121585e-002 3.96944582e-002 4.53138612e-002
      4.66321446e-002 8.18870813e-002 2.96758652e-001 2.96758652e-001
      2.51616508e-001 7.90265799e-002 2.99562421e-002 2.70801559e-002
      3.42395231e-002 1.74176376e-002 7.87351653e-002 2.96758652e-001
      2.96758652e-001 1.63106516e-001 1.14110909e-001 1.34235546e-001
      1.28791258e-001 1.74088418e-001 1.10760838e-001 1.75611347e-001
      1.74239472e-001 2.53493816e-001 1.28914043e-001 2.07829326e-002
      2.95874216e-002 6.09436072e-002 1.59619346e-001 2.31560409e-001
      1.03689648e-001 1.00863062e-001 1.80305034e-001 9.14676562e-002
      5.16446494e-002 2.53493816e-001 7.63499141e-002 2.51933604e-001
      2.53493816e-001 1.09915122e-001 1.79103568e-001 1.85668945e-001
      3.75880711e-002 3.99211012e-002 6.98499754e-002 1.27582848e-001
      2.53493816e-001 2.53493816e-001 1.95231080e-001 1.04993694e-001
      4.50139977e-002 4.90124784e-002 9.17371213e-002 2.53493816e-001
      9.92690325e-002 2.53493816e-001 2.53493816e-001 2.09510595e-001
      2.52165526e-001 2.87153602e-001 1.53535441e-001 4.27019671e-002
      9.53362063e-002 1.38057452e-002 7.00276420e-002 1.60813794e-001
      9.19614062e-002 2.82932460e-001 2.87153602e-001 1.77211478e-001
      4.49404716e-002 5.59075400e-002 2.16811709e-002 9.96092930e-002
      1.52171165e-001 1.16017751e-001 1.06925018e-001 1.29194587e-001
      6.48775846e-002 3.61597091e-002 1.15499832e-001 3.48482467e-002
      2.61937201e-001 2.87153602e-001 2.09076539e-001 1.57654196e-001
      2.08172753e-001 8.90240744e-002 4.36609648e-002 7.13976696e-002
      3.13132145e-002 2.87153602e-001 2.87153602e-001 1.97815359e-001
      2.04110548e-001 2.46878788e-001 2.02345014e-001 7.63704479e-002
      4.43814322e-002 4.79848199e-002 9.94497836e-002 7.12371916e-002
      1.18859321e-001 2.46878788e-001 2.46878788e-001 1.53882250e-001
      9.70712751e-002 1.29677683e-001 9.87770781e-002 1.23463005e-001
      6.51498586e-002 2.12961480e-001 1.57668591e-001 1.78614914e-001
      8.34700316e-002 5.52389808e-002 4.31187823e-002 4.25098650e-002
      2.46878788e-001 2.46878788e-001 2.24904209e-001 2.46878788e-001
      1.99500829e-001 1.19891092e-001 6.39814809e-002 1.47519499e-001
      1.08067259e-001 2.25574404e-001 2.46878788e-001 2.46878788e-001
      2.22025305e-001 2.27344483e-001 7.64369816e-002 4.47066538e-002
      1.05005793e-001 1.15075096e-001 2.29974210e-001 2.03067169e-001
      1.47025198e-001 1.64589435e-001 2.72403006e-002 6.02319837e-002
      1.38253003e-001 2.39359364e-001 1.16484433e-001 2.39359364e-001
      2.39359364e-001 1.64086580e-001 1.59085751e-001 1.06862098e-001
      1.04560703e-001 3.77687812e-002 1.24042794e-001 1.43859312e-001
      2.39359364e-001 2.39359364e-001 1.31557643e-001 1.91909909e-001
      2.52946652e-002 1.13381341e-001 1.31126225e-001 2.39359364e-001
      1.36292115e-001 2.39359364e-001 2.39359364e-001 1.03903212e-001
      5.59453703e-002 2.20599622e-002 7.64598045e-003 1.06496615e-002
      3.05925049e-002 8.60999376e-002 3.30581069e-001 3.30581069e-001
      2.24126995e-001 7.11429715e-002 3.38911749e-002 1.32913124e-002
      1.97431073e-002 2.36286074e-002 6.00900017e-002 3.30581069e-001
      3.30581069e-001 3.27964455e-001 5.23222871e-002 1.53259831e-002
      5.94230881e-003 8.66454840e-003 1.59684326e-002 6.78647310e-002
      1.90999463e-001 1.77229300e-001 1.12993225e-001 3.85730490e-002
      7.81626534e-003 1.02951168e-003 1.13635175e-002 2.10505240e-002
      1.23524167e-001 3.30581069e-001 3.30581069e-001 2.32668847e-001
      7.60746822e-002 2.13096198e-002 2.50942130e-002 2.62932777e-002
      1.82720833e-002 2.01949067e-002 2.62305975e-001 3.00175995e-001
      2.45788679e-001 1.43058017e-001 5.21905608e-002 6.60010800e-002
      7.02908784e-002 1.08310759e-001 9.86128226e-002 2.79402941e-001
      3.00175995e-001 2.67022252e-001 2.59915441e-002 2.26461864e-003
      2.47394084e-003 5.99575276e-003 1.73483659e-002 7.39536062e-002
      2.44249716e-001 3.00175995e-001 1.90930277e-001 5.14059067e-002
      1.65622253e-002 8.51224363e-003 3.86047252e-002 6.88232407e-002
      1.07431978e-001 3.00175995e-001 3.00175995e-001 2.86844641e-001
      7.01452270e-002 2.53599137e-002 3.91318053e-002 3.32486667e-002
      6.10868260e-002 1.00890361e-001 2.91859359e-001 2.91859359e-001
      1.17755443e-001 8.09239522e-002 1.83068998e-002 6.16662242e-002
      7.37749040e-002 2.86392957e-001 7.43096620e-002 2.90642858e-001
      2.91859359e-001 1.02764405e-001 3.32184397e-002 1.24369785e-002
      3.22817732e-003 2.59505007e-002 4.34888266e-002 6.17775209e-002
      2.91859359e-001 2.91859359e-001 1.75880536e-001 2.58835666e-002
      6.95634307e-003 1.22365206e-002 7.94972703e-002 2.91859359e-001
      6.21160865e-002 2.91859359e-001 2.91859359e-001 1.76962152e-001</_>
    <_>
      1.43235460e-001 1.50052771e-001 1.49446353e-001 2.05715090e-001
      1.27402484e-001 6.50347993e-002 2.41715789e-001 1.12849273e-001
      1.31697893e-001 2.41715789e-001 7.46894181e-002 1.64398462e-001
      1.52567148e-001 1.07351966e-001 5.96334226e-002 6.20424822e-002
      6.24910481e-002 2.41715789e-001 1.31321669e-001 1.16525747e-001
      1.13074683e-001 1.54818490e-001 1.66730925e-001 2.41715789e-001
      2.41715789e-001 1.66529402e-001 1.10759914e-001 2.41715789e-001
      8.24076235e-002 1.57643273e-001 1.15300573e-001 2.09169462e-001
      2.41715789e-001 2.41715789e-001 1.03621580e-001 2.41715789e-001
      2.38229632e-001 4.04622369e-002 1.76106468e-001 1.73362166e-001
      9.60794538e-002 6.52980730e-002 2.03482881e-002 2.44303923e-002
      2.64770240e-001 2.64770240e-001 6.48689121e-002 1.21240579e-001
      9.11774486e-002 4.94052768e-002 3.24313939e-002 1.35708340e-002
      2.76004374e-002 2.64770240e-001 2.64770240e-001 1.33066326e-001
      2.63584137e-001 1.30580619e-001 9.29172412e-002 1.07178591e-001
      8.94663483e-002 7.73968473e-002 2.64770240e-001 2.64770240e-001
      2.64770240e-001 2.64770240e-001 1.97737783e-001 7.83311948e-002
      6.87376708e-002 6.31693006e-002 9.21935588e-002 2.64770240e-001
      2.89123088e-001 5.05567044e-002 5.46790995e-002 2.17844676e-002
      6.34575076e-003 7.10610859e-003 5.19922841e-003 4.03422266e-002
      2.89123088e-001 2.89123088e-001 4.27368917e-002 5.37746735e-002
      5.93339466e-003 1.31701287e-002 6.10916410e-003 1.79450051e-003
      6.65835068e-002 2.89123088e-001 2.50854999e-001 2.31729776e-001
      2.75968999e-001 1.46837100e-001 4.59781140e-002 3.38267870e-002
      2.34107766e-002 4.17185798e-002 2.89123088e-001 2.89123088e-001
      2.89123088e-001 2.89123088e-001 7.45672435e-002 3.98917533e-002
      1.24116819e-002 3.57049564e-003 2.00748779e-002 2.89123088e-001
      4.59099747e-002 3.85558307e-002 1.58456657e-002 8.14312622e-002
      1.61825910e-001 2.60713786e-001 2.60713786e-001 1.99800476e-001
      4.82006818e-002 1.38461098e-001 8.73605832e-002 9.29358825e-002
      1.76346868e-001 2.60713786e-001 2.60713786e-001 2.60713786e-001
      1.65911227e-001 1.47776380e-001 3.81701998e-002 4.66916300e-002
      1.14657590e-002 9.11519155e-002 9.41601917e-002 2.47897252e-001
      2.37897649e-001 1.16632909e-001 7.72262812e-002 6.84167817e-002
      9.88452137e-002 3.11691742e-002 2.48897269e-001 2.60713786e-001
      2.60713786e-001 2.60713786e-001 1.38995498e-001 5.96584864e-002
      1.47652879e-001 1.26070768e-001 1.97024465e-001 1.45671144e-001
      1.88758284e-001 2.11823270e-001 1.56280085e-001 1.34576648e-001
      1.78939104e-001 1.34930298e-001 2.19627172e-001 2.19627172e-001
      2.19627172e-001 1.52645960e-001 1.60571754e-001 1.44228071e-001
