<?xml version="1.0"?>
<opencv_storage>
<my_svm type_id="opencv-ml-svm">
  <svm_type>C_SVC</svm_type>
  <kernel><type>RBF</type>
    <gamma>1.2500000000000000e-001</gamma></kernel>
  <C>8.</C>
  <term_criteria><epsilon>2.2204460492503131e-016</epsilon>
    <iterations>100</iterations></term_criteria>
  <var_all>324</var_all>
  <var_count>324</var_count>
  <class_count>2</class_count>
  <class_labels type_id="opencv-matrix">
    <rows>1</rows>
    <cols>2</cols>
    <dt>i</dt>
    <data>
      0 1</data></class_labels>
  <sv_total>143</sv_total>
  <support_vectors>
    <_>
      1.16051354e-001 1.53973132e-001 3.40703219e-001 2.55144704e-002
      1.38146458e-002 1.70876440e-002 1.03929542e-001 3.01368415e-001
      1.99535191e-001 1.89412594e-001 1.40594050e-001 3.40703219e-001
      5.09974472e-002 1.20970562e-001 4.29865383e-002 1.39386669e-001
      2.11803764e-001 2.10660025e-001 5.22306785e-002 2.78861374e-001
      3.40703219e-001 7.20362142e-002 1.94973294e-002 1.42400758e-002
      1.57228280e-002 7.02033043e-002 7.10882619e-002 7.26439506e-002
      2.37433329e-001 3.40703219e-001 4.59788069e-002 5.03094755e-002
      6.40657358e-003 1.24263326e-002 4.65705097e-002 6.31310195e-002
      9.95927081e-002 6.63219094e-002 2.49662802e-001 3.94187868e-002
      9.36268568e-002 2.30111517e-002 1.03471413e-001 1.67737454e-001
      2.30638519e-001 1.40180379e-001 1.42897427e-001 3.47232789e-001
      1.85798183e-002 3.05414367e-002 2.31784899e-002 1.51586682e-001
      3.47232789e-001 3.47232789e-001 3.46263573e-002 1.84302583e-001
      3.47232789e-001 3.24129909e-002 3.53467576e-002 3.63526936e-003
      5.30563528e-003 3.27182598e-002 6.36767372e-002 6.76953048e-002
      2.92009562e-001 3.47232789e-001 4.78343926e-002 9.31049138e-003
      2.44987197e-003 5.43617923e-003 5.95955364e-002 1.04077242e-001
      1.95292100e-001 1.18023664e-001 2.81742513e-001 2.30855774e-002
      6.27174675e-002 6.98161721e-002 1.20754927e-001 2.81742513e-001
      2.81742513e-001 1.94604546e-001 1.20766982e-001 9.22817066e-002
      7.04521909e-002 9.76161733e-002 1.00981794e-001 1.78007036e-001
      2.26597667e-001 2.81742513e-001 1.02730498e-001 2.33858481e-001
      2.81742513e-001 3.62583734e-002 3.20625491e-002 9.23884474e-003
      1.26855411e-002 5.77027202e-002 1.22374885e-001 1.27130330e-001
      2.28451088e-001 2.81742513e-001 2.55837053e-001 1.57940969e-001
      4.42340635e-002 3.96594666e-002 5.36454022e-002 1.57897413e-001
      1.08157203e-001 2.08968773e-001 3.00526172e-001 7.88937286e-002
      5.31840958e-002 2.97360942e-002 3.26908752e-002 1.76738635e-001
      2.16095671e-001 8.02559406e-002 1.83131486e-001 3.00526172e-001
      6.21418320e-002 2.27660835e-002 5.51242800e-003 4.75135110e-002
      2.33401194e-001 2.59520888e-001 1.85935810e-001 6.87163994e-002
      8.23738798e-002 3.29542011e-002 3.25488970e-002 1.61520317e-002
      2.08046865e-002 1.80831209e-001 3.00526172e-001 2.04261169e-001
      1.02813035e-001 3.00526172e-001 6.70949593e-002 1.33531392e-002
      3.17709194e-003 6.09963685e-002 3.00526172e-001 3.00526172e-001
      5.12935482e-002 1.79415643e-001 3.36437702e-001 3.55414487e-002
      6.66054338e-003 4.87325829e-004 2.09542122e-002 1.26006320e-001
      1.12318642e-001 2.10268795e-002 2.33780131e-001 3.36437702e-001
      4.65137959e-002 7.32832868e-003 6.69103395e-003 1.12933628e-002
      5.62788248e-002 4.83034365e-002 1.51754558e-001 1.82248026e-001
      3.36437702e-001 6.85970411e-002 3.57452547e-003 3.23488703e-003
      4.34978642e-002 2.88158923e-001 2.67523229e-001 1.27836496e-001
      2.57763058e-001 3.36437702e-001 9.05502588e-002 5.21615185e-002
      8.34803060e-002 9.03975740e-002 2.39326283e-001 1.79555491e-001
      2.07904000e-002 1.99278921e-001 3.03277224e-001 4.69225384e-002
      1.11275241e-002 8.68355203e-003 1.20473998e-002 1.69841200e-002
      1.77960489e-002 5.96542321e-002 2.00322747e-001 3.03277224e-001
      3.03277224e-001 1.88039854e-001 1.92130264e-002 1.89321805e-002
      1.53742433e-002 1.49918105e-002 8.26995075e-002 1.88345402e-001
      3.03277224e-001 1.12158716e-001 7.65542686e-002 8.36278349e-002
      1.40804872e-001 2.15705529e-001 1.69986963e-001 8.65964517e-002
      1.45214468e-001 3.03277224e-001 3.03277224e-001 2.63781548e-001
      2.44761035e-002 9.85471308e-002 1.46932602e-001 1.68854773e-001
      9.97885317e-002 2.58354068e-001 1.84583619e-001 8.13381630e-004
      2.30810815e-003 4.14224295e-003 2.71467632e-003 7.37360865e-002
      2.82420218e-001 1.56722531e-001 2.82420218e-001 2.82420218e-001
      5.81155866e-002 1.22831315e-002 3.54017951e-002 1.52677121e-002
      7.08221868e-002 2.58779496e-001 2.82420218e-001 2.82420218e-001
      2.82420218e-001 1.52890384e-003 3.28644887e-002 2.02342756e-002
      2.40437523e-003 2.13002935e-002 1.19904302e-001 2.82420218e-001
      2.82420218e-001 2.82420218e-001 3.20385732e-002 4.44395579e-002
      8.21987018e-002 2.32748631e-002 2.57804357e-002 1.85019299e-001
      2.30986789e-001 2.70175338e-001 2.70175338e-001 1.13178551e-001
      9.12450161e-003 2.85842475e-002 2.33098157e-002 8.58858898e-002
      1.29833519e-001 2.47667491e-001 2.70175338e-001 2.70175338e-001
      1.49716273e-001 6.43594190e-002 7.82458633e-002 7.77511522e-002
      1.33344755e-001 7.96395093e-002 2.70175338e-001 2.70175338e-001
      2.12861031e-001 7.82780647e-002 1.78857893e-002 4.59740832e-002
      2.18656529e-002 2.10387893e-002 1.88443348e-001 2.70175338e-001
      2.70175338e-001 2.70175338e-001 1.59704134e-001 3.71530727e-002
      1.53556541e-002 1.60480272e-002 2.57756803e-002 7.72877336e-002
      2.01275066e-001 2.19260290e-001 2.19260290e-001 2.05047667e-001
      1.17609866e-001 8.56895596e-002 1.52808815e-001 2.19260290e-001
      1.80506513e-001 1.80794194e-001 1.72138944e-001 2.19260290e-001
      2.19260290e-001 1.86123982e-001 3.09718829e-002 1.10337265e-001
      1.74637944e-001 2.19260290e-001 2.19260290e-001 2.19260290e-001
      2.19260290e-001 1.60476863e-001 6.37837723e-002 3.31853554e-002
      3.13758776e-002 4.51284721e-002 9.26275477e-002 1.93131119e-001
      2.04040304e-001 1.27286613e-001 1.41866207e-001 1.74740702e-001
      1.87620014e-001 1.42880008e-001 4.74575795e-002 1.36713207e-001</_>
    <_>
      1.01783387e-001 4.56994288e-002 3.75101678e-002 5.46993203e-002
      1.00251511e-001 1.44180477e-001 1.41799882e-001 9.34085771e-002
      1.29145622e-001 7.86276162e-002 7.04104453e-002 6.99217319e-002
      1.16635285e-001 1.05786681e-001 7.18767419e-002 1.25348061e-001
      1.30769104e-001 1.17354229e-001 2.61006057e-001 1.30497530e-001
      2.46181503e-001 2.61006057e-001 2.31723070e-001 1.98925361e-001
      1.87645242e-001 1.92005396e-001 2.61006057e-001 2.61006057e-001
      1.36599466e-001 1.86359182e-001 1.75592586e-001 7.89546669e-002
      3.62866521e-002 2.61006057e-001 2.61006057e-001 2.61006057e-001
      7.64517933e-002 1.49904683e-001 8.90238583e-002 1.16359010e-001
      1.10762171e-001 5.05946204e-002 7.88036436e-002 5.25707789e-002
      5.49919829e-002 2.53828615e-001 2.53828615e-001 1.05281040e-001
      9.41477567e-002 8.54974687e-002 3.46751399e-002 8.65954235e-002
      1.76626533e-001 2.53828615e-001 1.41309842e-001 2.53828615e-001
      2.53828615e-001 2.53828615e-001 1.24820098e-001 3.76363285e-002
      2.05448300e-001 1.86914653e-001 1.23993278e-001 2.53828615e-001
      2.53828615e-001 2.53828615e-001 2.53828615e-001 1.60614446e-001
      5.46137244e-002 6.31675050e-002 1.06945746e-001 1.88993379e-001
      2.49348685e-001 1.33387387e-001 4.86150496e-002 5.47073893e-002
      5.54821789e-002 3.35101373e-002 9.17133987e-002 1.90723985e-001
      2.23067909e-001 2.49348685e-001 6.39683828e-002 2.85913944e-002
      3.55795100e-002 6.33675531e-002 1.10102698e-001 2.49348685e-001
      2.49348685e-001 1.44846529e-001 2.49348685e-001 1.73477203e-001
      1.54492557e-001 1.91257715e-001 1.35244757e-001 9.00333002e-002
      1.32568717e-001 1.31635398e-001 1.34477109e-001 1.92176268e-001
      6.18455447e-002 1.38002425e-001 2.39192471e-001 2.31481105e-001
      2.21455336e-001 2.49348685e-001 2.49348685e-001 8.67702812e-002
      1.68363914e-001 7.75128528e-002 2.51717538e-001 2.51717538e-001
      2.29924411e-001 1.41398624e-001 1.36782810e-001 9.88266692e-002
      9.46342796e-002 1.83691546e-001 1.14568003e-001 1.74991384e-001
      7.19287768e-002 2.85373516e-002 3.92414965e-002 2.37212166e-001
      2.51717538e-001 1.66612759e-001 4.93693091e-002 7.27970824e-002
      2.09692702e-001 1.31764904e-001 1.95618585e-001 2.51717538e-001
      2.51717538e-001 1.41949520e-001 1.07352562e-001 1.25131696e-001
      1.71116069e-001 2.35709563e-001 9.14967433e-002 1.05109110e-001
      2.10551843e-001 1.69763625e-001 1.05549105e-001 1.54150531e-001
      1.90556958e-001 2.16583356e-001 1.98471442e-001 1.79632574e-001
      7.04279244e-002 5.03070913e-002 2.16583356e-001 2.16583356e-001
      1.65893137e-001 1.54755577e-001 2.16583356e-001 2.16583356e-001
      2.16583356e-001 1.59815580e-001 8.41821879e-002 1.32475123e-001
      1.66088253e-001 1.66808575e-001 1.59516528e-001 1.49533644e-001
      2.06229270e-001 1.55191675e-001 1.57931149e-001 1.31592005e-001
      1.63527876e-001 1.50821105e-001 1.51121691e-001 1.23342603e-001
      9.72921848e-002 1.40504912e-001 1.45428240e-001 1.61436990e-001
      1.61584392e-001 1.50435716e-001 2.04546183e-001 1.80689663e-001
      4.84465063e-002 4.89721447e-002 1.17137276e-001 2.20852688e-001
      2.26726547e-001 9.01880264e-002 6.63305297e-002 5.82386218e-002
      5.09779751e-002 2.37811059e-002 5.33257760e-002 1.92837447e-001
      3.17691147e-001 3.17691147e-001 2.19029844e-001 1.55105427e-001
      4.40002345e-002 1.96509138e-002 4.34696525e-002 4.08631414e-002
      7.71474242e-002 1.57824695e-001 3.14817846e-001 2.28885666e-001
      4.50573526e-002 7.94817433e-002 7.95374811e-002 2.98863668e-002
      3.84430513e-002 1.76817015e-001 3.17691147e-001 3.17691147e-001
      3.17691147e-001 6.62219524e-002 2.31563915e-002 3.02844103e-002
      6.79266155e-002 1.12587258e-001 1.01354875e-001 1.33995876e-001
      2.17946947e-001 2.65191644e-001 2.65191644e-001 1.25455245e-001
      8.79408717e-002 1.90048978e-001 1.91712350e-001 1.79322779e-001
      8.18980262e-002 1.42222032e-001 2.65191644e-001 1.58455044e-001
      9.73257497e-002 1.27258927e-001 1.00390352e-001 1.11744501e-001
      7.44262487e-002 1.90899298e-001 2.65191644e-001 2.65191644e-001
      1.61323011e-001 1.09514520e-001 7.01427162e-002 1.93322122e-001
      1.59409747e-001 7.32072964e-002 1.06841482e-001 2.28774548e-001
      1.87959194e-001 1.83033019e-001 1.58006459e-001 1.15364321e-001
      2.14777902e-001 1.50481164e-001 2.18055919e-001 1.67338774e-001
      1.56731635e-001 9.22185406e-002 8.98774266e-002 1.14949405e-001
      1.11423798e-001 1.56722695e-001 1.23471819e-001 2.18055919e-001
      2.18055919e-001 1.58353627e-001 1.16489626e-001 8.43482092e-002
      1.41096056e-001 1.20663710e-001 2.18055919e-001 1.83096051e-001
      1.22511320e-001 2.06557050e-001 1.59591913e-001 9.36017185e-002
      1.81504801e-001 1.92368835e-001 1.80769756e-001 2.18055919e-001
      1.68331593e-001 1.88648254e-001 2.18055919e-001 1.61669791e-001
      6.92049935e-002 1.60896003e-001 1.80553377e-001 2.18055919e-001
      8.14161971e-002 7.03190193e-002 1.22064225e-001 1.27368778e-001
      2.27976769e-001 2.33697891e-001 3.30849364e-002 5.46571575e-002
      5.78884967e-002 5.35076447e-002 4.87074554e-002 2.88891256e-001
      2.89576590e-001 2.89576590e-001 2.89576590e-001 4.07907069e-002
      2.12710109e-002 4.16404568e-002 7.20365271e-002 5.96582666e-002
      1.49446800e-001 1.85235530e-001 1.85643286e-001 1.55489996e-001
      5.09829819e-002 6.12550303e-002 1.06736906e-001 5.56517877e-002
      6.39311001e-002 2.89576590e-001 2.89576590e-001 2.89576590e-001
      2.89576590e-001 5.63600808e-002 3.37446444e-002 8.70861635e-002</_>
    <_>
      2.72784710e-001 2.72784710e-001 2.72784710e-001 1.22210465e-001
      1.37263775e-001 1.08293056e-001 1.24898612e-001 3.82248685e-002
      1.08382575e-001 1.77537456e-001 2.72784710e-001 2.72784710e-001
      1.53314680e-001 1.14574373e-001 1.01840995e-001 1.35036543e-001
      3.94085348e-002 5.09744808e-002 2.59876966e-001 2.72784710e-001
      2.72784710e-001 1.69952169e-001 5.74513450e-002 1.93987172e-002
      1.04593690e-002 1.08924266e-002 6.04492426e-002 1.49874225e-001
      2.72784710e-001 2.72779047e-001 1.19000137e-001 9.74311307e-002
      2.49540247e-002 9.32859909e-003 1.97602604e-002 3.40099037e-002
      2.55026311e-001 2.55026311e-001 1.62157431e-001 8.70565549e-002
      1.12138912e-001 6.12427965e-002 9.85940546e-002 1.00957505e-001
      2.55026311e-001 2.55026311e-001 2.32452631e-001 6.81140199e-002
      5.82697093e-002 1.69433594e-001 6.86676651e-002 2.00237259e-001
      2.55026311e-001 2.55026311e-001 2.47806668e-001 1.61318377e-001
      1.21115826e-001 8.53273496e-002 1.37971401e-001 7.68238306e-002
      4.66572642e-002 8.22541192e-002 1.61178201e-001 1.07053779e-001
      5.70574142e-002 3.93893272e-002 7.03619495e-002 1.37181014e-001
      1.35771036e-001 2.48793989e-001 2.39573359e-001 2.33486012e-001
      1.44341439e-001 1.16316751e-001 7.07239136e-002 7.27718621e-002
      1.58685625e-001 7.56947249e-002 2.43399963e-001 2.43399963e-001
      2.43399963e-001 1.73690975e-001 5.45839630e-002 7.08076656e-002
      1.35048404e-001 1.96633726e-001 1.85680181e-001 2.43399963e-001
      2.43399963e-001 2.43399963e-001 4.00833115e-002 1.62516478e-002
      2.43494045e-002 4.20866124e-002 9.62305143e-002 1.38387620e-001
      2.43399963e-001 2.29176477e-001 1.23275071e-001 8.61205310e-002
      7.34010758e-003 2.45522205e-002 1.30525663e-001 2.43399963e-001
      2.43399963e-001 2.43399963e-001 2.27521226e-001 1.50918961e-001
      5.68111204e-002 9.84093249e-002 2.03498662e-001 2.60690302e-001
      2.82502681e-001 1.74857721e-001 8.44362080e-002 3.48483026e-002
      5.88226132e-002 7.49079436e-002 6.82610720e-002 1.67825446e-001
      2.08934054e-001 2.82502681e-001 1.15006782e-001 4.05008085e-002
      3.35934721e-002 5.81701845e-002 1.59884673e-002 6.53414405e-004
      1.33184940e-002 1.51069120e-001 2.82502681e-001 2.82502681e-001
      2.82502681e-001 2.53798276e-001 3.91346775e-002 7.14266673e-002
      4.73438427e-002 1.11831971e-001 1.43176183e-001 2.57171541e-001
      2.64908552e-001 2.31446356e-001 8.16084072e-002 7.69197866e-002
      1.54073849e-001 9.36888307e-002 1.20998971e-001 1.44997761e-001
      2.30045602e-001 1.36979014e-001 1.76636457e-001 1.21538080e-001
      1.59073174e-001 7.42792860e-002 1.15654893e-001 1.75389454e-001
      1.61244556e-001 2.19541237e-001 1.78432062e-001 2.30045602e-001
      1.56715170e-001 1.61275730e-001 2.30045602e-001 1.21138021e-001
      1.35949329e-001 1.10485040e-001 1.20115444e-001 9.50064585e-002
      1.98749736e-001 1.25606537e-001 2.30045602e-001 2.19077528e-001
      1.39418021e-001 2.30045602e-001 1.30397230e-001 1.05955966e-001
      1.26798704e-001 2.30045602e-001 1.64122075e-001 2.30045602e-001
      6.20157225e-003 3.23701054e-002 9.32869166e-002 1.01235539e-001
      2.03022450e-001 2.17057988e-001 2.26273656e-001 4.92973737e-002
      2.84942053e-002 1.29562527e-001 5.26458472e-002 7.32809901e-002
      1.44695103e-001 2.59561300e-001 2.59561300e-001 2.00095490e-001
      1.55309319e-001 1.06872603e-001 2.44675893e-002 8.75684470e-002
      2.41877645e-001 2.18465224e-001 2.23058671e-001 1.36130154e-001
      1.19356841e-001 3.94705832e-002 3.97944972e-002 2.59561300e-001
      2.59561300e-001 2.59561300e-001 2.59561300e-001 2.59561300e-001
      1.32962137e-001 8.99157673e-002 3.30875665e-002 1.20469108e-001
      5.94435306e-003 2.11025085e-002 7.07364036e-003 3.14745866e-002
      1.93463728e-001 3.15299034e-001 3.15299034e-001 3.15299034e-001
      4.63913418e-002 2.07268428e-002 1.71317235e-002 2.11764704e-002
      2.14013848e-002 6.16853982e-002 1.09840505e-001 1.97425142e-001
      3.15299034e-001 7.06719533e-002 2.33106855e-002 8.37598220e-002
      4.19374406e-002 1.70066264e-002 1.70727879e-001 2.39443570e-001
      1.68374702e-001 3.15299034e-001 1.56775966e-001 4.01022919e-002
      4.55283038e-002 2.11263075e-002 2.81466078e-003 2.83451974e-002
      3.93174253e-002 2.07077384e-001 3.15299034e-001 3.15299034e-001
      1.21980570e-001 3.07856034e-002 2.56217998e-002 1.80298425e-002
      2.32129227e-002 2.49505453e-002 8.12912956e-002 1.63298815e-001
      1.96776778e-001 1.61180556e-001 1.85775384e-001 1.42657354e-001
      3.59060019e-002 2.54416205e-002 2.75742300e-002 3.70530635e-002
      3.60161662e-002 1.66296333e-001 3.53556365e-001 1.22495294e-001
      1.64098348e-002 3.16025835e-004 1.35710882e-002 1.10008335e-002
      1.96589664e-001 3.53556365e-001 3.53556365e-001 3.53556365e-001
      3.53556365e-001 1.77666798e-001 4.76928381e-003 6.36772299e-003
      3.89262615e-003 6.07532337e-002 8.89580995e-002 2.64860839e-001
      4.77294251e-002 3.09854835e-001 2.52335548e-001 5.89035824e-002
      4.05563600e-002 1.98582429e-002 1.85587481e-002 6.14829129e-003
      1.53665049e-002 2.79002041e-001 3.09854835e-001 2.77018905e-001
      1.10779941e-001 1.40542611e-001 2.60686185e-002 3.28917615e-002
      3.71601712e-003 1.01218119e-001 2.55258828e-001 3.09854835e-001
      3.09854835e-001 7.88816903e-003 5.04163513e-003 1.14186807e-003
      1.15690543e-003 1.95990060e-003 2.65597533e-002 2.72261947e-001
      3.09854835e-001 3.09854835e-001 1.27349105e-002 1.21975001e-002
      8.51178728e-003 1.52352247e-002 5.76261943e-003 9.69900712e-002</_>
    <_>
      9.71382037e-002 2.22181618e-001 1.96368665e-001 7.93853849e-002
      1.52925150e-002 4.58869757e-003 2.61838967e-003 1.52144432e-002
      2.86624338e-002 2.57450581e-001 2.57450581e-001 2.57450581e-001
      1.23375803e-001 4.39984277e-002 3.53566855e-002 4.60797213e-002
      8.72150585e-002 1.43924311e-001 1.54807687e-001 2.57450581e-001
      2.57450581e-001 2.57450581e-001 1.73572257e-001 4.01256457e-002
      4.88084741e-002 6.58159405e-002 6.73335418e-002 2.57450581e-001
      2.57450581e-001 2.57450581e-001 1.42126083e-001 7.14868903e-002
      1.45057723e-001 2.16392428e-001 2.57450581e-001 1.43741131e-001
      2.68673867e-001 1.99579969e-001 8.15498680e-002 6.73029125e-002
      5.37557714e-002 3.30846421e-002 7.33082592e-002 1.62454322e-001
      2.68673867e-001 2.46131435e-001 4.14235964e-002 2.16751341e-002
      5.03075086e-002 4.79704440e-002 3.46650220e-002 1.36734694e-001
      2.68673867e-001 2.68673867e-001 1.62757188e-001 1.45081103e-001
      9.20338482e-002 6.32465705e-002 6.40382469e-002 1.09118007e-001
      2.68673867e-001 2.68673867e-001 1.62378415e-001 1.36925325e-001
      8.12977031e-002 6.09714836e-002 7.29752779e-002 1.14946753e-001
      1.52935073e-001 2.68673867e-001 2.68673867e-001 2.68673867e-001
      9.94990617e-002 2.21743025e-002 1.38125373e-002 3.11852321e-002
      2.97487527e-002 5.93687892e-002 2.71891564e-001 2.71891564e-001
      2.71891564e-001 2.76140478e-002 1.21288933e-002 8.41325149e-003
      3.39706661e-003 3.02162394e-002 6.68579638e-002 1.84429392e-001
      1.80911228e-001 6.47034273e-002 1.61696896e-001 1.40715256e-001
      1.22022837e-001 9.99502987e-002 1.33732527e-001 2.20311284e-001
      2.71891564e-001 2.71891564e-001 2.36192390e-001 9.27643627e-002
      1.12997614e-001 8.67620856e-002 6.14591613e-002 2.71891564e-001
      2.71891564e-001 2.71891564e-001 2.71891564e-001 1.13908932e-001
      8.03662911e-002 1.35278419e-001 1.41581714e-001 2.59633273e-001
      2.59633273e-001 9.34521928e-002 1.86622128e-001 1.74964577e-001
      1.10344715e-001 9.01407599e-002 5.37872203e-002 6.12872764e-002
      4.13802490e-002 5.95951751e-002 8.76874775e-002 2.47964218e-001
      2.59633273e-001 1.41351715e-001 1.23921067e-001 5.83453216e-002
      1.16167083e-001 1.60242856e-001 2.59633273e-001 2.04728991e-001
      2.59633273e-001 2.59633273e-001 1.66661024e-001 1.00884415e-001
      4.84058596e-002 6.28545508e-002 3.59613523e-002 7.08423555e-002
      1.01930052e-001 2.55217403e-001 2.59633273e-001 2.43432030e-001
      5.61421029e-002 2.35829782e-002 1.78484451e-002 6.46881945e-003
      2.20709797e-002 4.33022082e-002 2.74714679e-001 3.20855021e-001
      1.32331252e-001 7.08500668e-002 3.73057015e-002 3.23873274e-002
      2.88080014e-002 7.69799724e-002 1.10084876e-001 3.20855021e-001
      3.20855021e-001 1.87876269e-001 4.87790555e-002 3.22727524e-002
      1.92179959e-002 1.79646779e-002 3.69964913e-002 1.63784623e-002
      1.74652621e-001 3.20855021e-001 2.77304202e-001 5.13076819e-002
      3.60387936e-002 2.76288912e-002 1.47893615e-002 3.87583002e-002
      2.87781153e-002 3.20855021e-001 3.20855021e-001 3.12519670e-001
      8.92999247e-002 9.48514715e-002 7.19941929e-002 7.74681568e-002
      1.17037855e-001 1.05826557e-001 2.51660556e-001 2.51660556e-001
      1.47890985e-001 7.07915574e-002 9.28692967e-002 6.36143684e-002
      1.33544624e-001 2.51660556e-001 2.51660556e-001 2.51660556e-001
      1.38289586e-001 8.59826505e-002 4.21411134e-002 6.63619637e-002
      1.56646386e-001 9.72968638e-002 7.65617117e-002 8.52134451e-002
      2.51660556e-001 2.51660556e-001 1.93873763e-001 2.71787532e-002
      5.70769049e-002 2.51660556e-001 2.51660556e-001 2.51660556e-001
      2.34942630e-001 2.19125658e-001 1.44953385e-001 8.98847952e-002
      7.26427808e-002 6.03002980e-002 8.75124782e-002 3.29784267e-002
      1.74427137e-001 2.04842970e-001 2.87909061e-001 2.87909061e-001
      1.17484480e-001 1.00457408e-001 8.00517276e-002 8.76505524e-002
      3.76961678e-002 1.04952261e-001 1.30635500e-001 2.75475264e-001
      2.87909061e-001 2.22229287e-001 2.85427533e-002 2.16644350e-002
      1.72132310e-002 1.94486917e-003 2.87512820e-002 1.02762975e-001
      2.87909061e-001 2.87909061e-001 8.02652091e-002 1.04339130e-001
      3.65022346e-002 6.47013783e-002 1.21711837e-002 7.99590498e-002
      9.39460769e-002 2.87909061e-001 2.87909061e-001 2.87909061e-001
      6.11619428e-002 6.58368170e-002 5.60918637e-002 3.43027189e-002
      8.54652599e-002 3.39608714e-002 1.13021560e-001 2.69648045e-001
      1.92863196e-001 8.37380439e-002 1.62668645e-001 1.29628479e-001
      3.07425335e-002 5.58850914e-002 2.65669599e-002 2.09784538e-001
      2.69648045e-001 2.54433483e-001 2.54162878e-001 8.44572783e-002
      1.01916693e-001 2.18444467e-002 9.77648720e-002 4.03495505e-002
      1.03667431e-001 2.69648045e-001 2.69648045e-001 2.69648045e-001
      2.69648045e-001 2.47077435e-001 3.44054699e-002 8.42279792e-002
      4.22989205e-002 9.84538794e-002 2.61487126e-001 2.69648045e-001
      6.27708286e-002 2.51786500e-001 2.98711240e-001 1.13064326e-001
      4.00549285e-002 4.80917692e-002 1.80264279e-001 2.98711240e-001
      1.77896217e-001 1.55507745e-002 1.53746888e-001 2.98711240e-001
      2.98711240e-001 1.73125118e-001 8.95037502e-002 1.18918695e-001
      5.93759082e-002 3.71926017e-002 2.00627893e-001 2.98711240e-001
      2.98711240e-001 4.36646864e-002 2.63399146e-002 9.54548083e-003
      4.25839126e-002 1.67750478e-001 1.26825362e-001 3.41954231e-002
      2.13600233e-001 2.98711240e-001 7.83044025e-002 2.96647307e-002
      1.40455423e-003 6.18066452e-003 1.63323656e-002 1.51281049e-002</_>
    <_>
      1.37076795e-001 2.42767334e-001 3.13175380e-001 3.13175380e-001
      2.56071240e-001 1.12159178e-001 7.81227797e-002 7.43543580e-002
      5.66910505e-002 1.60514235e-001 6.93086684e-002 1.65503114e-001
      2.62696296e-001 1.23644739e-001 8.86570439e-002 7.80172870e-002
      9.30912569e-002 9.28028300e-002 2.90640071e-002 1.39819488e-001
      3.13175380e-001 3.13175380e-001 3.13175380e-001 1.28812045e-001
      3.99567150e-002 2.88765021e-002 4.23374251e-002 1.16986342e-001
      5.95555380e-002 1.27459720e-001 1.67645261e-001 1.11829139e-001
      6.75743446e-002 1.17929697e-001 1.10109359e-001 1.27961114e-001
      2.54446983e-001 1.03125088e-001 9.45951566e-002 9.12840888e-002
      8.08210373e-002 1.31962463e-001 1.89743832e-001 1.75520852e-001
      1.59594476e-001 1.39773697e-001 5.58352321e-002 4.91764359e-002
      3.68603431e-002 1.18821628e-001 2.67382443e-001 2.67382443e-001
      2.67382443e-001 2.01891497e-001 2.27740318e-001 1.27946019e-001
      1.17156714e-001 5.73637821e-002 4.62188013e-002 6.83119372e-002
      1.66685030e-001 1.94479004e-001 1.86195552e-001 1.40480012e-001
      1.24339245e-001 1.19405359e-001 3.98716815e-002 8.47647637e-002
      2.32758954e-001 2.67382443e-001 2.67382443e-001 2.11970821e-001
      5.52188009e-002 3.20446901e-002 6.19014353e-002 1.08575851e-001
      9.33317542e-002 2.23332822e-001 2.40301654e-001 2.20160559e-001
      1.20571949e-001 9.30112153e-002 1.50937706e-001 2.40301654e-001
      2.40301654e-001 1.39272898e-001 1.22720182e-001 7.57082924e-002
      6.23248741e-002 9.41896662e-002 8.53193477e-002 4.87727821e-002
      3.47826593e-002 4.90471423e-002 6.21289536e-002 2.40301654e-001
      2.40301654e-001 2.40301654e-001 1.68057472e-001 1.36863932e-001
      1.07356168e-001 1.91978738e-001 2.40301654e-001 2.08686322e-001
      2.40301654e-001 2.30994374e-001 2.40301654e-001 2.06941798e-001
      3.64676341e-002 3.10754739e-002 3.26389581e-001 3.51785034e-001
      3.51785034e-001 1.75589949e-001 2.87144948e-002 2.91737393e-002
      7.72281662e-002 9.22286063e-002 4.95385826e-002 9.74228382e-002
      1.18219018e-001 1.16454981e-001 7.03927800e-002 1.07859977e-001
      1.03591174e-001 1.07245445e-001 5.12859821e-002 2.35384088e-002
      1.30564913e-001 3.51785034e-001 3.51785034e-001 3.51785034e-001
      3.44473869e-002 1.36719927e-001 1.51225924e-001 8.34071040e-002
      8.55535716e-002 6.05504848e-002 8.12325329e-002 1.45538598e-001
      7.49654993e-002 7.00148940e-002 1.24568462e-001 9.41922367e-002
      1.61369741e-001 1.56290695e-001 1.01599947e-001 4.65620719e-002
      8.33790004e-002 1.23180173e-001 2.22612232e-001 2.30254635e-001
      1.90007597e-001 9.34752077e-002 1.74860448e-001 1.34842977e-001
      3.02320104e-002 1.54930383e-001 1.95500702e-001 2.30254635e-001
      2.30254635e-001 2.14424163e-001 1.52868256e-001 1.99627712e-001
      8.51389021e-002 5.42675108e-002 1.83399931e-001 1.14283986e-001
      1.48003995e-001 1.70946538e-001 1.52824476e-001 1.23784542e-001
      1.71806455e-001 1.76502213e-001 5.12834042e-002 2.30254635e-001
      1.80239946e-001 2.16368333e-001 2.30254635e-001 2.06738681e-001
      7.80203864e-002 5.00010140e-002 4.12938707e-002 3.78274284e-002
      8.50893185e-002 1.80893555e-001 2.42905051e-001 1.55377910e-001
      1.32970363e-001 1.13274857e-001 4.89017144e-002 1.11319408e-001
      2.42905051e-001 2.42905051e-001 2.42905051e-001 2.42905051e-001
      2.42905051e-001 1.63479522e-001 1.04565918e-001 7.77383298e-002
      1.23201326e-001 5.93567714e-002 9.87561718e-002 9.45714638e-002
      1.31464839e-001 1.11269571e-001 1.40180647e-001 1.44254908e-001
      6.31382838e-002 2.00200006e-001 2.42905051e-001 2.42905051e-001
      2.42905051e-001 2.42905051e-001 2.42905051e-001 1.79234594e-001
      4.75825630e-002 5.92331216e-003 3.94765474e-002 1.97422594e-001
      2.96499074e-001 2.96499074e-001 7.94088691e-002 1.31197304e-001
      1.20954864e-001 4.90605272e-002 3.51209119e-002 1.83361918e-002
      3.50768268e-002 8.51985067e-002 6.94279149e-002 1.12818331e-001
      1.24406889e-001 9.87452343e-002 1.83644250e-001 8.14543590e-002
      6.40532374e-002 1.27341107e-001 2.96499074e-001 2.96499074e-001
      1.44531772e-001 2.85780966e-001 2.71617502e-001 2.10622281e-001
      7.22196847e-002 3.32332999e-002 2.08431408e-002 9.72831398e-002
      7.16506466e-002 1.74969897e-001 2.96499074e-001 2.96499074e-001
      1.65161118e-001 1.09169461e-001 4.56875674e-002 1.85296927e-002
      7.14209005e-002 7.66403750e-002 8.53244141e-002 1.15361907e-001
      1.36451527e-001 2.24607483e-001 1.04971282e-001 8.52360204e-002
      2.31389701e-002 1.05746850e-001 1.08856745e-001 5.55422343e-002
      2.20278516e-001 1.71852127e-001 2.96893597e-001 2.36590818e-001
      9.41990763e-002 9.71640740e-003 4.74823900e-002 5.83967641e-002
      1.21764041e-001 2.76263416e-001 2.96893597e-001 2.96893597e-001
      2.96893597e-001 1.24236137e-001 2.92143002e-002 4.18701656e-002
      1.04633950e-001 1.10286526e-001 2.96893597e-001 2.96893597e-001
      8.60426798e-002 4.75516729e-002 8.99004415e-002 7.93316066e-002
      7.13124871e-002 7.20353499e-002 6.17448352e-002 1.28792122e-001
      1.13318741e-001 6.61849082e-002 5.35733551e-002 1.63115904e-001
      2.49284431e-001 2.49284431e-001 2.49284431e-001 2.24549785e-001
      1.22507811e-001 1.00828201e-001 2.32355326e-001 1.28792822e-001
      1.14352927e-001 1.06857114e-001 6.30632713e-002 7.96064585e-002
      7.64463991e-002 2.12266609e-001 2.49284431e-001 2.31208265e-001
      1.06490210e-001 1.61458448e-001 2.49284431e-001 2.49284431e-001
      2.49284431e-001 2.49284431e-001 1.18578009e-001 2.49284431e-001</_>
    <_>
      2.37663850e-001 2.67895550e-001 2.67895550e-001 2.20370695e-001
      1.21085271e-001 4.11067763e-003 5.06723952e-003 1.00965910e-002
      6.54425099e-002 2.67895550e-001 1.41907841e-001 9.24848318e-002
      1.59323141e-002 3.07746492e-002 6.39614044e-003 2.10457556e-002
      1.09453477e-001 2.67895550e-001 4.28257473e-002 3.02983336e-002
      1.78256854e-001 2.42561415e-001 2.67895550e-001 1.71102926e-001
      1.54011309e-001 1.05975047e-001 1.13869026e-001 1.25323549e-001
      9.29020941e-002 8.50115642e-002 5.99023364e-002 2.67895550e-001
      1.30653858e-001 2.67895550e-001 2.63499260e-001 1.90378755e-001
      1.18241712e-001 1.40391989e-002 5.89473499e-003 2.72771460e-003
      1.94396824e-002 1.90074295e-002 1.21952675e-001 2.99798995e-001
      2.99798995e-001 2.62432899e-002 3.60927880e-002 3.03453803e-002
      6.38853805e-003 3.26749496e-002 3.87551524e-002 2.99798995e-001
      2.99798995e-001 1.74762636e-001 1.58781022e-001 1.29193246e-001
      6.30856827e-002 5.50849549e-002 1.09405734e-001 1.23831853e-001
      1.26353711e-001 2.13498712e-001 1.62224784e-001 1.88034400e-001
      2.99798995e-001 2.99798995e-001 4.24708277e-002 9.15697291e-002
      5.18003926e-002 2.80544579e-001 2.99798995e-001 1.04561701e-001
      4.02011797e-002 3.38022709e-002 4.54244614e-002 1.86870955e-002
      4.96776402e-002 4.86602485e-002 2.94595033e-001 2.94595033e-001
      5.89183457e-002 1.98971629e-001 4.05114293e-002 7.28315264e-002
      7.53491744e-002 6.42850921e-002 1.04514830e-001 2.94595033e-001
      1.98662654e-001 1.16238132e-001 1.17002279e-001 2.94595033e-001
      2.38506153e-001 2.49063410e-002 1.24650203e-001 1.25087842e-001
      2.94595033e-001 2.24745914e-001 5.48262261e-002 1.36433572e-001
      8.46123919e-002 7.59368464e-002 5.45830801e-002 1.53439030e-001
      2.94595033e-001 2.94595033e-001 1.93243116e-001 6.72739297e-002
      3.31732556e-002 3.51180695e-002 3.91970053e-002 3.93953919e-002
      2.59458721e-001 2.59458721e-001 1.89342856e-001 9.90293473e-002
      5.66580184e-002 1.19409166e-001 1.79594994e-001 8.63368958e-002
      4.70287278e-002 2.59458721e-001 1.15287147e-001 2.59458721e-001
      2.59458721e-001 8.75739753e-002 8.80523399e-002 1.60052225e-001
      1.33152574e-001 2.58642826e-002 2.59458721e-001 2.59458721e-001
      2.59458721e-001 1.12220585e-001 6.59586713e-002 1.84167251e-001
      2.59458721e-001 2.59458721e-001 4.02443334e-002 2.03251854e-001
      6.64847046e-002 1.25825331e-001 1.54037192e-001 5.70038669e-002
      2.39353672e-001 2.49437675e-001 1.26621693e-001 1.19313255e-001
      1.40711859e-001 1.11356765e-001 1.43792897e-001 2.19207823e-001
      9.46970209e-002 2.49437675e-001 2.49437675e-001 2.49437675e-001
      1.41522795e-001 1.02202289e-001 5.86789772e-002 1.07938215e-001
      8.68892670e-002 1.12650350e-001 2.49437675e-001 2.49437675e-001
      2.49437675e-001 8.91507789e-002 7.57735446e-002 2.56542601e-002
      6.62381127e-002 9.43194181e-002 8.06941241e-002 2.49437675e-001
      2.49437675e-001 1.77522659e-001 1.45666435e-001 8.07818249e-002
      7.41591975e-002 1.23444535e-001 7.84005150e-002 2.32348219e-001
      1.42258734e-001 2.90644377e-001 2.32599914e-001 5.24978749e-002
      1.63874626e-001 1.69485301e-001 2.52306134e-001 9.50657800e-002
      6.61995858e-002 7.63813704e-002 7.13405684e-002 4.65288237e-002
      2.28425525e-002 2.58285463e-001 2.90644377e-001 2.90644377e-001
      9.68738794e-002 3.64630371e-002 1.38688311e-001 1.73332229e-001
      1.11279339e-001 7.52211660e-002 2.22545862e-001 1.78760350e-001
      1.52946383e-001 8.68109763e-002 1.10019848e-001 5.39274886e-002
      6.94772825e-002 3.62882428e-002 1.10896312e-001 2.90644377e-001
      2.90644377e-001 2.39155203e-001 5.56293353e-002 2.14386266e-002
      9.69968587e-002 1.44654378e-001 1.39590576e-001 4.94078323e-002
      6.92943782e-002 1.23317204e-001 2.90272266e-001 1.70086294e-001
      5.72947748e-002 1.12185650e-001 2.90272266e-001 2.90272266e-001
      4.80935834e-002 6.77027479e-002 5.25696725e-002 2.90272266e-001
      2.25573808e-001 4.45352122e-002 1.84597775e-001 2.08054408e-002
      2.84649488e-002 3.59200798e-002 4.70048152e-002 4.45879363e-002
      2.90272266e-001 2.30680108e-001 2.90198028e-001 5.81682026e-002
      4.93055247e-002 5.57991266e-002 2.61670835e-002 4.23234142e-002
      6.41293153e-002 2.90272266e-001 2.90272266e-001 1.84249297e-001
      1.10553063e-001 3.20543855e-001 2.64956295e-001 2.55627222e-002
      3.49263772e-002 1.55361025e-002 1.36074811e-001 1.81722566e-001
      9.17262062e-002 1.33933634e-001 1.14638165e-001 5.94033338e-002
      3.75041552e-002 3.34926508e-002 3.56771834e-002 4.72537018e-002
      6.57440796e-002 2.10523829e-001 4.32292894e-002 3.44360843e-002
      2.73439027e-002 6.86050626e-003 3.73110361e-002 4.03561033e-002
      3.20543855e-001 3.20543855e-001 3.20543855e-001 3.20543855e-001
      1.61265925e-001 3.55583057e-002 1.16405739e-002 3.84297967e-002
      1.07865818e-002 8.91221613e-002 3.20495218e-001 3.20543855e-001
      8.97292942e-002 8.72050226e-002 1.05073825e-001 9.69433933e-002
      1.26487523e-001 5.62621132e-002 2.09669340e-002 2.74097528e-002
      7.95200095e-002 3.39756012e-002 7.85651803e-002 2.20986322e-001
      2.99455523e-001 2.99455523e-001 2.02596128e-001 3.38912532e-002
      3.24639864e-002 2.24022754e-002 2.99455523e-001 2.99455523e-001
      2.95868427e-001 9.06648263e-002 5.75261973e-002 3.76392342e-003
      3.98013461e-003 1.76219251e-002 1.62723541e-001 1.28785819e-001
      2.99455523e-001 2.99455523e-001 2.99455523e-001 2.48945564e-001
      4.01916960e-003 3.67574627e-003 9.64045152e-003 4.51470055e-002</_>
    <_>
      9.53250229e-002 4.79349121e-002 4.85649072e-002 1.21384729e-002
      1.59057304e-002 1.39101353e-002 3.49360593e-002 1.39686704e-001
      3.03946853e-001 2.32984841e-001 3.03946853e-001 2.65002757e-001
      1.44592253e-002 4.39300872e-002 2.29409486e-002 4.27294374e-002
      1.53142288e-001 3.03946853e-001 1.60019770e-001 2.77968436e-001
      2.39611909e-001 1.26783952e-001 2.85327919e-002 1.29750092e-002
      3.94854993e-002 1.52570948e-001 2.15952665e-001 2.12053418e-001
      3.03946853e-001 3.03946853e-001 1.04054227e-001 3.13844047e-002
      1.04093403e-002 3.80884707e-002 6.97040260e-002 1.88441187e-001
      2.97126532e-001 2.98916429e-001 2.38478959e-001 1.56809762e-002
      3.21748815e-002 1.13294777e-002 2.42470298e-002 1.18331552e-001
      2.29988888e-001 2.98916429e-001 2.98916429e-001 9.62892994e-002
      3.41730304e-002 2.49803178e-002 3.50126973e-003 2.29016766e-002
      2.73121029e-001 2.98916429e-001 1.35785863e-001 2.98916429e-001
      2.98916429e-001 3.80344242e-002 1.44760851e-002 3.12316092e-003
      1.04845474e-002 2.01319456e-002 7.32869059e-002 1.11177824e-001
      2.27019474e-001 1.45287991e-001 7.91095421e-002 3.05628516e-002
      3.24271768e-002 3.06910519e-002 9.88563895e-002 1.75229147e-001
      1.94642335e-001 3.43056880e-002 6.12169830e-003 2.13052537e-002
      4.74544466e-002 6.37524650e-002 6.12754337e-002 2.99484074e-001
      2.99484074e-001 1.30204499e-001 2.45309025e-002 5.56843728e-003
      1.65835042e-002 8.30390081e-002 2.37212777e-001 1.61013693e-001
      2.99484074e-001 2.99484074e-001 7.96917230e-002 6.51181042e-002
      4.41947766e-002 7.20009357e-002 1.09934814e-001 1.33638129e-001
      8.30983594e-002 1.72817647e-001 2.03619316e-001 6.17839992e-002
      4.41391058e-002 4.21833582e-002 1.02574460e-001 2.91136593e-001
      2.99484074e-001 2.37556174e-001 2.85530955e-001 1.59009457e-001
      2.25407422e-001 2.25020096e-001 1.89893633e-001 2.17790306e-001
      5.68326935e-002 7.84134865e-002 8.22261423e-002 1.84315830e-001
      2.39743739e-001 1.59712970e-001 2.39743739e-001 2.39743739e-001
      1.45595863e-001 4.13233563e-002 1.66006070e-002 1.12802669e-001
      2.00387999e-001 2.39743739e-001 2.39743739e-001 5.83231375e-002
      5.68457879e-002 1.13406427e-001 7.17680231e-002 9.75522846e-002
      1.39292061e-001 2.17027918e-001 2.39743739e-001 2.32366532e-001
      8.00044239e-002 4.46354598e-002 9.00479555e-002 4.48142961e-002
      3.58429551e-002 1.63455233e-001 2.39743739e-001 2.39743739e-001
      1.86609522e-001 2.56381422e-001 2.56381422e-001 6.57379106e-002
      3.39706764e-002 2.44559720e-002 7.90761933e-002 1.54397875e-001
      2.22760081e-001 1.94138899e-001 2.56381422e-001 2.56381422e-001
      1.15909144e-001 4.20745127e-002 9.22540203e-002 8.54882002e-002
      7.06677139e-002 1.41415179e-001 2.56381422e-001 1.49544552e-001
      1.15922101e-001 1.12840846e-001 6.25032336e-002 1.06021874e-001
      1.47480965e-001 2.56381422e-001 2.56381422e-001 2.56381422e-001
      2.38382682e-001 1.61098644e-001 5.89581691e-002 7.77689368e-002
      1.16893433e-001 1.08905278e-001 1.20050728e-001 1.98991358e-001
      1.23813212e-001 1.77036345e-001 1.34609029e-001 1.18079253e-001
      1.33019999e-001 1.50613308e-001 1.07090786e-001 7.02920631e-002
      1.21785156e-001 1.14655629e-001 1.18264258e-001 1.48174167e-001
      2.26275757e-001 2.46191666e-001 2.46191666e-001 2.46191666e-001
      2.44039819e-001 1.93058625e-001 2.46191666e-001 2.37965226e-001
      7.03931153e-002 2.94676386e-002 5.07141426e-002 5.75622320e-002
      9.74606276e-002 9.10673365e-002 1.71843648e-001 1.86596960e-001
      1.90635785e-001 1.12555608e-001 8.03442895e-002 1.64175704e-001
      1.54732987e-001 2.40343139e-001 2.08845362e-001 2.22281069e-001
      1.98340803e-001 6.80117682e-002 4.14310917e-002 8.69381726e-002
      7.86020234e-002 6.40550852e-002 2.34640613e-001 2.10205927e-001
      1.94095746e-001 2.35128835e-001 1.14112899e-001 4.92292605e-002
      8.47638547e-002 7.03781620e-002 8.48550647e-002 2.36267403e-001
      2.36267403e-001 2.20233813e-001 1.56874657e-001 8.52280185e-002
      3.15412879e-002 8.39297324e-002 9.69685689e-002 9.43304226e-002
      2.36267403e-001 2.36267403e-001 2.36267403e-001 2.01319411e-001
      1.30940840e-001 7.73428530e-002 1.22625321e-001 2.09131792e-001
      2.21122280e-001 2.36267403e-001 2.36267403e-001 1.95793599e-001
      2.03433320e-001 1.27710059e-001 8.18613321e-002 1.11706614e-001
      1.01735540e-001 1.38064861e-001 1.28803685e-001 2.25651011e-001
      1.39091045e-001 2.09204227e-001 1.75498828e-001 1.28804773e-001
      7.11593479e-002 1.08098574e-001 1.61678717e-001 1.54366091e-001
      1.45626113e-001 7.86166117e-002 2.25651011e-001 2.25651011e-001
      1.35170981e-001 9.22320038e-002 2.08234280e-001 2.02445239e-001
      1.73250794e-001 2.10420191e-001 1.67105868e-001 2.23783985e-001
      2.25651011e-001 2.25651011e-001 1.15826935e-001 1.50928155e-001
      1.37870610e-001 1.51864946e-001 2.25651011e-001 1.51863441e-001
      1.50331274e-001 1.83265463e-001 1.16240412e-001 7.90030807e-002
      4.98794541e-002 5.58917038e-002 8.09402764e-002 5.89404404e-002
      5.05583920e-002 1.94595158e-001 2.42190078e-001 2.15534046e-001
      1.27068490e-001 9.31016877e-002 6.34449050e-002 9.66445953e-002
      8.71911198e-002 7.93330371e-002 1.96736529e-001 2.42190078e-001
      2.03548089e-001 1.77982271e-001 1.25148356e-001 5.52139319e-002
      1.13492735e-001 2.25968316e-001 2.42190078e-001 2.42190078e-001
      2.42190078e-001 2.42190078e-001 1.92852601e-001 1.34103313e-001
      9.28340629e-002 1.98845103e-001 2.42190078e-001 2.42190078e-001</_>
    <_>
      1.00119691e-002 1.76929459e-001 3.84832948e-001 4.73826863e-002
      2.16923561e-002 4.53858124e-003 0. 1.53711066e-003 1.11139603e-002
      7.82548916e-003 2.73526311e-001 3.84832948e-001 7.25005493e-002
      1.71276312e-002 1.86852983e-003 0. 1.10212306e-003 3.92875122e-003
      1.06605766e-002 3.69974196e-001 3.84832948e-001 3.70819531e-002
      1.53137022e-003 2.70884251e-003 0. 6.98686636e-004 8.89280811e-003
      1.97886378e-002 3.84832948e-001 3.84832948e-001 4.54451926e-002
      1.26517843e-003 1.00626447e-003 9.06589325e-004 1.98035198e-003
      5.99834509e-003 4.25169542e-002 3.40773553e-001 3.40773553e-001
      1.17389336e-001 1.58425793e-002 0. 0. 5.91202313e-003
      3.10526118e-002 1.24134354e-001 2.99167931e-001 3.40773553e-001
      1.00667991e-001 3.46456394e-002 1.43891545e-002 1.33459061e-001
      2.66519755e-001 1.52353451e-001 7.68910795e-002 3.40773553e-001
      3.40773553e-001 1.12005703e-001 2.94681964e-003 4.93381231e-004
      2.55958387e-003 1.13725504e-002 4.36224937e-002 8.92729089e-002
      1.93775833e-001 2.82197863e-001 1.35185763e-001 2.05017403e-002
      1.30814044e-002 2.99196318e-002 3.75645943e-002 6.15113042e-002
      4.23407145e-002 4.59304750e-002 3.69835459e-002 2.35915892e-002
      2.25106217e-002 1.25312775e-001 3.76124561e-001 3.17840248e-001
      6.42588362e-002 1.37615381e-002 1.16836559e-003 4.98609334e-005
      4.61898919e-004 2.87883803e-002 3.76124561e-001 3.76124561e-001
      1.54752910e-001 2.20945813e-002 3.18662785e-002 4.39095348e-002
      4.66190614e-002 4.45694104e-002 3.23005393e-002 2.06226781e-001
      2.51665115e-001 5.94074503e-002 2.98023392e-002 9.72433016e-003
      4.65432322e-003 3.09490203e-003 9.08806454e-003 1.23782761e-001
      3.76124561e-001 3.76124561e-001 4.48258221e-002 1.67428050e-002
      1.46532506e-002 3.38262051e-001 3.38262051e-001 1.24648489e-001
      6.95074676e-003 1.62169505e-002 1.03514427e-002 1.81577783e-002
      9.09012090e-003 3.93080823e-002 3.38262051e-001 3.38262051e-001
      6.65866062e-002 1.32494848e-002 6.39709784e-003 9.11184121e-003
      8.81801266e-003 8.78846087e-003 2.08362397e-002 8.89244005e-002
      3.38262051e-001 1.57956570e-001 2.34189741e-002 7.44921491e-002
      2.25600019e-001 3.38262051e-001 1.19326718e-001 2.67126858e-002
      1.11746408e-001 1.54317513e-001 6.33266345e-002 3.62751372e-002
      4.95875478e-002 1.10653207e-001 3.38262051e-001 1.05298653e-001
      1.93744466e-001 2.61896849e-001 2.61896849e-001 2.08356768e-001
      3.73268314e-002 3.19939740e-002 4.76419143e-002 4.77865338e-002
      8.69726911e-002 1.89830482e-001 2.61896849e-001 2.61896849e-001
      1.90130040e-001 5.19180298e-002 3.15037146e-002 2.11764053e-002
      5.14235459e-002 1.36670068e-001 1.19375214e-001 2.38588870e-001
      2.52741635e-001 1.88403293e-001 8.98360908e-002 1.29855216e-001
      1.72882676e-001 2.61896849e-001 1.43906176e-001 1.76809996e-001
      2.61896849e-001 2.22544432e-001 1.48477212e-001 4.73910049e-002
      6.63119853e-002 4.30610962e-002 1.01461232e-001 1.58144847e-001
      3.99421193e-002 4.84677143e-002 5.74459210e-002 6.90010414e-002
      8.10237154e-002 1.73692659e-001 5.40541485e-002 1.80725530e-002
      3.70021276e-002 1.44645823e-002 1.15364725e-002 1.51614286e-002
      5.46526201e-002 4.72156614e-001 4.72156614e-001 2.26763591e-001
      1.60136372e-002 1.62532888e-002 4.11135741e-002 9.92812514e-002
      7.26911873e-002 1.05508976e-001 1.01754010e-001 4.80444394e-002
      1.18325483e-002 1.25143928e-002 3.61406021e-002 1.65637881e-002
      4.43588980e-002 3.19673531e-002 2.84102112e-001 4.72156614e-001
      3.01959336e-001 1.13944290e-002 3.40170693e-003 1.01328222e-002
      1.77200045e-002 7.50667043e-003 2.17622966e-002 1.89314932e-002
      7.11369654e-003 2.28409581e-002 1.84827074e-001 4.10367787e-001
      1.57377928e-001 8.66042823e-003 1.68977659e-002 1.40715204e-002
      8.07914045e-003 9.17179324e-003 3.03819627e-002 1.78018019e-001
      4.10367787e-001 1.81304127e-001 2.51617413e-002 6.45375159e-003
      5.07217506e-003 1.86718907e-003 1.81826632e-002 1.05973911e-002
      1.46059051e-001 4.10367787e-001 2.56365001e-001 1.28402514e-002
      1.07582705e-002 1.12329435e-003 1.41147975e-004 3.31142657e-002
      9.69469827e-003 1.58811837e-001 4.10367787e-001 2.83726603e-001
      2.88423114e-002 2.66920626e-002 2.30506007e-002 1.50739104e-002
      9.49270744e-003 2.93868687e-002 9.58117768e-002 4.09614623e-001
      1.95518449e-001 7.96436965e-002 7.30843693e-002 4.67562079e-002
      1.62312891e-002 4.72057750e-003 1.06497640e-002 1.23407738e-002
      2.16446295e-001 1.59822136e-001 2.76913028e-002 8.20623990e-003
      1.15765177e-003 2.96629878e-004 2.28919256e-002 4.34051920e-003
      9.61769149e-002 4.09614623e-001 4.09614623e-001 7.94418752e-002
      2.47319844e-002 1.10637154e-002 2.77182902e-003 1.29580349e-002
      1.29352952e-003 4.07238528e-002 4.09614623e-001 4.09614623e-001
      5.52480556e-002 9.85260606e-002 6.80974126e-002 8.61735344e-002
      4.97104414e-002 1.04293488e-002 4.48694732e-003 5.08996323e-002
      6.62073642e-002 1.71346981e-002 5.08509241e-002 8.51234868e-002
      3.46087396e-001 3.46087396e-001 5.08472510e-002 9.80451819e-004
      4.03882237e-003 9.43460781e-003 1.28897786e-001 1.40046343e-001
      1.34489104e-001 8.52880776e-002 3.12864110e-002 5.17176872e-004
      1.70588028e-002 3.46087396e-001 3.46087396e-001 1.13480747e-001
      2.11582735e-001 3.46087396e-001 3.46087396e-001 3.04742187e-001
      7.30746333e-003 2.15200474e-003 6.79124147e-002 1.12369321e-001</_>
    <_>
      3.51376832e-002 1.73235387e-001 3.33274990e-001 2.34693184e-001
      8.31351802e-002 1.23950699e-002 5.10355458e-003 1.02039715e-002
      1.10016139e-002 6.91462681e-002 2.36239329e-001 3.33274990e-001
      3.33274990e-001 1.37071759e-001 2.88328752e-002 1.80760829e-003
      1.71242561e-002 1.60277002e-002 4.94058765e-002 2.26315156e-001
      3.33274990e-001 3.33274990e-001 8.90258998e-002 3.07223983e-002
      3.10751377e-003 1.52636515e-002 8.18247534e-003 6.52829036e-002
      2.06633583e-001 3.33274990e-001 1.85315594e-001 4.81982380e-002
      3.24176364e-002 1.11720785e-002 8.46579969e-002 3.20207253e-002
      2.72635430e-001 2.72635430e-001 2.72635430e-001 2.72635430e-001
      2.72635430e-001 8.91846791e-002 4.12824843e-003 4.85430770e-002
      1.17880002e-001 2.72635430e-001 2.69741654e-001 1.31266370e-001
      2.93967091e-002 6.44875988e-002 1.56501513e-002 9.78436321e-003
      8.89995471e-002 2.70664930e-001 1.68329224e-001 2.17397913e-001
      2.72635430e-001 1.47669882e-001 7.77300373e-002 5.17521054e-002
      3.85084935e-002 1.67966425e-001 1.24099150e-001 1.96842909e-001
      2.01497838e-001 9.45835188e-002 5.49190193e-002 6.23946451e-002
      3.03392261e-002 3.50614935e-002 1.07778065e-001 1.26560047e-001
      2.90475994e-001 1.26466990e-001 8.19171593e-002 2.75189783e-002
      4.38875295e-002 1.23685226e-002 1.78498048e-002 9.89599898e-002
      2.89511442e-001 3.61690521e-001 1.40617266e-001 2.49790922e-001
      2.80159205e-001 7.81207681e-002 1.30404532e-002 1.93811804e-002
      6.95554614e-002 2.07809761e-001 1.11776941e-001 8.62615630e-002
      8.23674798e-002 6.12201355e-002 8.38082880e-002 5.67193814e-002
      3.79544720e-002 1.37338370e-001 1.39054328e-001 1.32149071e-001
      4.57558148e-002 3.69576246e-001 3.69576246e-001 1.73069701e-001
      6.23608455e-002 4.41197976e-002 1.00021705e-001 1.65659428e-001
      5.49987108e-002 1.65645510e-001 3.88409406e-001 3.88409406e-001
      2.22440392e-001 9.28452238e-002 3.76840401e-003 1.39197875e-002
      1.88175086e-002 7.11275116e-002 1.36016607e-001 3.17417890e-001
      1.97328195e-001 1.03395201e-001 6.81224689e-002 1.23804258e-002
      8.63692686e-002 4.70166914e-002 8.86877775e-002 1.11421421e-001
      3.88409406e-001 3.88409406e-001 1.78938627e-001 6.02760352e-002
      2.24323049e-002 1.46682896e-002 6.63000792e-002 1.06331818e-001
      7.53762126e-002 9.69484001e-002 1.03574760e-001 7.45565370e-002
      3.77549268e-002 2.74619926e-002 4.99510467e-002 8.21305215e-002
      1.09868556e-001 1.51267052e-001 2.09387228e-001 1.53953925e-001
      1.16855957e-001 8.38534459e-002 6.83655813e-002 1.85766131e-001
      1.57165557e-001 1.10628210e-001 1.64199695e-001 1.17766455e-001
      1.41062200e-001 1.88891515e-001 1.60367295e-001 1.32074967e-001
      1.69912383e-001 1.58022970e-001 2.18501136e-001 1.75670266e-001
      1.90197006e-001 1.55134752e-001 9.26852450e-002 7.94723853e-002
      7.97060356e-002 1.22388043e-001 2.01515615e-001 1.82002440e-001
      2.18501136e-001 2.13506266e-001 1.95470229e-001 1.97861359e-001
      2.05833271e-001 2.18501136e-001 2.18501136e-001 2.18501136e-001
      1.47752883e-002 2.42905952e-002 4.91828769e-002 1.01067908e-001
      7.26547986e-002 4.58248295e-002 2.81966310e-002 3.42473015e-002
      2.92414613e-002 1.59734078e-002 1.98734291e-002 4.11472529e-001
      4.11472529e-001 1.29464731e-001 3.64847966e-002 1.56375337e-002
      1.59073919e-002 2.53306068e-002 3.48116942e-002 5.16804494e-002
      1.51094824e-001 3.89955610e-001 1.29807949e-001 5.62677979e-002
      5.17311692e-002 3.27980891e-002 3.38534415e-002 7.28988796e-002
      3.95255014e-002 4.11472529e-001 4.11472529e-001 2.43321463e-001
      6.65666163e-002 1.27427327e-002 6.87333103e-003 2.66731512e-002
      3.44743520e-001 1.02237463e-001 9.05688331e-002 1.19131058e-001
      3.21597680e-002 1.75213590e-002 1.46537945e-002 1.50445243e-002
      2.18982995e-001 3.42344195e-001 9.38634947e-002 3.15980501e-002
      2.21270099e-002 1.38058187e-002 7.13714678e-003 1.63803045e-002
      5.47680520e-002 3.21784198e-001 3.60409111e-001 9.65853333e-002
      7.51199201e-003 1.10272709e-002 1.60388779e-002 6.05238788e-003
      1.02579482e-002 3.10756732e-002 3.60409111e-001 3.60409111e-001
      1.53055117e-001 1.73251498e-002 7.87826162e-003 1.82801764e-002
      8.22719745e-003 7.52678839e-003 7.56185278e-002 3.60409111e-001
      2.93243647e-001 1.08046502e-001 2.64698248e-002 1.58336852e-002
      7.33730430e-003 4.78710746e-003 1.38205579e-002 6.01484887e-002
      3.06588590e-001 3.16677690e-001 1.93745241e-001 5.16337641e-002
      1.86932255e-002 2.43841223e-002 2.80824844e-002 7.12533519e-002
      7.84872621e-002 2.73242921e-001 3.40989202e-001 1.42123252e-001
      1.88791715e-002 5.37186768e-003 1.61042586e-002 4.23328765e-003
      9.07996856e-003 9.44102257e-002 3.40989202e-001 3.40989202e-001
      2.66095310e-001 3.27684805e-002 5.30694611e-003 2.02394053e-002
      1.14942817e-002 4.05603759e-002 5.40978797e-002 3.40989202e-001
      1.91631138e-001 1.10928722e-001 8.30978602e-002 2.15924755e-001
      1.50614351e-001 6.97737858e-002 5.57758063e-002 3.46236192e-002
      9.78759676e-002 3.05866688e-001 8.70936364e-002 1.41651019e-001
      3.05866688e-001 2.45910361e-001 9.44555476e-002 4.97587137e-002
      1.24472687e-002 1.74150705e-001 3.05866688e-001 2.24823043e-001
      2.95854434e-002 4.04680297e-002 9.77663323e-002 6.15490675e-002
      6.59874007e-002 3.66612300e-002 2.93397695e-001 3.05866688e-001
      2.34369874e-001 2.15811785e-002 7.34580085e-002 1.42458990e-001
      8.42253864e-002 8.87298658e-002 3.05157788e-002 3.05866688e-001</_>
    <_>
      1.57226756e-001 2.77602345e-001 2.77602345e-001 2.45137915e-001
      9.49703231e-002 1.71430863e-003 1.30355563e-002 6.21397002e-003
      3.51488031e-002 2.77602345e-001 2.77602345e-001 1.38914734e-001
      2.28038356e-002 2.44129915e-002 6.87661208e-003 1.44499578e-002
      2.51627192e-002 2.30228931e-001 6.22697584e-002 4.93225157e-002
      2.24055931e-001 2.77602345e-001 2.77602345e-001 9.93540958e-002
      1.18329294e-001 8.80513266e-002 8.16597193e-002 1.25993371e-001
      6.24593720e-002 9.61892530e-002 1.29111663e-001 2.52207756e-001
      7.98155367e-002 2.69186199e-001 2.50739962e-001 1.39449686e-001
      2.59664536e-001 4.03800793e-002 6.56529190e-003 2.40520737e-003
      2.39153206e-002 9.48995259e-003 3.07239275e-002 2.04877809e-001
      2.84075350e-001 8.29040706e-002 5.47395423e-002 5.38657680e-002
      3.01350956e-003 3.27720717e-002 3.95721197e-002 2.84075350e-001
      2.84075350e-001 2.84075350e-001 1.96458533e-001 8.88307467e-002
      8.20093229e-002 1.27000645e-001 1.03151135e-001 9.16860774e-002
      1.79388121e-001 1.78085372e-001 1.71076953e-001 2.82463759e-001
      2.84075350e-001 2.84075350e-001 1.17468029e-001 6.45554587e-002
      5.56944758e-002 1.53753251e-001 2.35370666e-001 1.53033927e-001
      2.70751715e-002 5.42485788e-002 7.39665329e-002 1.66848414e-002
      3.90044414e-002 4.37127724e-002 2.97888130e-001 2.97888130e-001
      1.03426948e-001 1.07895248e-001 4.20550294e-002 7.57702589e-002
      4.58188541e-002 5.35764173e-002 1.02051109e-001 2.97888130e-001
      2.97888130e-001 1.01281300e-001 9.97140855e-002 2.97888130e-001
      2.97888130e-001 7.90286511e-002 6.40657544e-002 6.28845394e-002
      2.01939762e-001 1.93009734e-001 6.50786087e-002 7.31137469e-002
      1.62547812e-001 1.55472636e-001 4.52745073e-002 1.07947104e-001
      2.85613239e-001 2.97888130e-001 1.82827473e-001 1.27894074e-001
      4.02821153e-002 2.40741540e-002 1.87546238e-002 8.14850405e-002
      2.64087141e-001 2.64087141e-001 1.39594197e-001 8.60404968e-002
      4.69907932e-002 1.27555117e-001 1.12162456e-001 9.98101160e-002
      8.32310691e-002 2.64087141e-001 1.17404759e-001 2.47266233e-001
      2.64087141e-001 1.06272608e-001 9.15079191e-002 1.43603608e-001
      1.00511864e-001 2.32418422e-002 2.64087141e-001 2.64087141e-001
      2.64087141e-001 9.70351845e-002 4.93696593e-002 2.09557831e-001
      2.64087141e-001 2.64087141e-001 4.98319827e-002 1.98292002e-001
      1.11221850e-001 1.18267484e-001 1.68021634e-001 8.73777047e-002
      2.08844334e-001 1.93027392e-001 1.54585227e-001 1.58801898e-001
      1.19888768e-001 8.74537304e-002 1.76518455e-001 2.50292480e-001
      1.48054287e-001 2.50292480e-001 2.50292480e-001 2.25397423e-001
      2.15947419e-001 1.07666194e-001 5.79125620e-002 8.19568262e-002
      7.77212009e-002 1.49800643e-001 2.10314348e-001 2.50292480e-001
      2.50292480e-001 7.85536617e-002 6.47954643e-002 4.21368070e-002
      4.52731065e-002 1.24600023e-001 1.23839632e-001 2.50292480e-001
      2.50292480e-001 1.72875807e-001 1.32150874e-001 8.18089768e-002
      5.86642921e-002 8.73847380e-002 6.32800832e-002 2.18839526e-001
      1.84373856e-001 2.73009807e-001 2.73009807e-001 1.56861857e-001
      1.53804317e-001 1.06026299e-001 1.47129700e-001 1.11215025e-001
      8.48134309e-002 8.43251497e-002 1.57108903e-001 1.36859834e-001
      6.39870688e-002 2.73009807e-001 2.73009807e-001 2.73009807e-001
      1.14971019e-001 9.75371972e-002 1.99587673e-001 1.58110216e-001
      1.25966266e-001 1.00680068e-001 1.67608947e-001 1.02605812e-001
      1.33397311e-001 8.57763737e-002 1.56455755e-001 1.07779600e-001
      8.95500407e-002 1.04085408e-001 1.67813450e-001 2.73009807e-001
      2.73009807e-001 1.38596058e-001 4.68303934e-002 6.59724101e-002
      9.91062596e-002 1.57193780e-001 1.25640064e-001 3.37431617e-002
      1.24605492e-001 1.61412239e-001 3.01338732e-001 1.91096231e-001
      5.82113713e-002 1.24469668e-001 3.01338732e-001 3.01338732e-001
      5.72258756e-002 1.25406846e-001 4.09753658e-002 2.65781820e-001
      2.18449324e-001 5.72731309e-002 1.28967956e-001 3.47558223e-002
      3.68682109e-002 3.57915871e-002 6.12689219e-002 4.57061157e-002
      3.01338732e-001 2.46324778e-001 1.28173679e-001 6.45776019e-002
      8.58099684e-002 7.80680850e-002 3.59161906e-002 9.00054052e-002
      3.07941269e-002 3.01338732e-001 3.01338732e-001 1.73224062e-001
      8.58247057e-002 3.29644084e-001 3.29644084e-001 3.35194618e-002
      3.83869112e-002 1.55062489e-002 9.41935927e-002 1.55835658e-001
      8.53219032e-002 1.07332982e-001 1.56491950e-001 8.94693658e-002
      2.83217318e-002 2.24186666e-002 2.64442544e-002 4.59151305e-002
      3.98896672e-002 1.47716597e-001 5.26585318e-002 6.36680201e-002
      4.69675623e-002 1.58765893e-002 4.65428904e-002 1.84922814e-002
      3.29644084e-001 3.29644084e-001 3.29644084e-001 3.29644084e-001
      1.12358727e-001 7.57449027e-003 6.51918072e-003 3.28387953e-002
      8.68573878e-003 5.35614006e-002 2.92114645e-001 3.29644084e-001
      8.55705217e-002 7.97909275e-002 9.13044810e-002 4.10291813e-002
      4.57065217e-002 2.41569187e-002 3.03050801e-002 1.43611301e-002
      8.79798532e-002 5.39175682e-002 1.09251663e-001 3.19173008e-001
      3.19173008e-001 3.19173008e-001 5.94039522e-002 8.18767957e-003
      2.95060384e-003 3.55903022e-002 3.19173008e-001 3.19173008e-001
      1.77967772e-001 2.26275660e-002 2.36431919e-002 2.90066679e-003
      2.71610194e-003 2.86336411e-002 2.06727803e-001 1.93093583e-001
      3.19173008e-001 3.19173008e-001 3.15737545e-001 1.19163662e-001
      3.02961073e-003 1.09535968e-002 1.96498800e-002 2.72753723e-002</_>
    <_>
      8.73030201e-002 2.74360865e-001 2.74360865e-001 3.64061110e-002
      5.43296263e-002 2.68873218e-002 3.50097008e-002 3.86442468e-002
      3.77149545e-002 2.74360865e-001 2.74360865e-001 1.70651585e-001
      1.61218476e-002 7.70598054e-002 2.75140777e-002 7.40449876e-002
      5.25583550e-002 1.03864811e-001 9.37765688e-002 1.74813226e-001
      2.12970749e-001 1.59427941e-001 1.25139177e-001 4.22691852e-002
      1.80229321e-001 2.74360865e-001 1.22457825e-001 2.74360865e-001
      2.74360865e-001 9.27105248e-002 4.07355241e-002 1.79851517e-001
      7.76681900e-002 2.74360865e-001 2.74360865e-001 1.55671686e-001
      2.57186592e-001 2.57186592e-001 7.57929087e-002 3.90259400e-002
      8.35795701e-002 1.60197131e-002 6.77006468e-002 9.14333239e-002
      2.57186592e-001 1.42654076e-001 2.87551582e-002 3.90355587e-002
      3.28861289e-002 9.19685438e-002 1.55155314e-002 1.36742771e-001
      2.57186592e-001 2.57186592e-001 2.57186592e-001 2.04850778e-001
      1.49468035e-001 1.39673710e-001 2.57186592e-001 8.21647793e-002
      2.57186592e-001 2.07082212e-001 2.40967914e-001 1.24826938e-001
      7.34958351e-002 1.30010813e-001 1.02642119e-001 2.09972218e-001
      9.60924849e-002 1.58902228e-001 1.78928837e-001 1.97775945e-001
      1.40955104e-002 3.33924498e-003 7.37519353e-004 4.56859125e-003
      3.07351109e-002 2.20322218e-002 3.27156305e-001 3.27156305e-001
      2.26887643e-001 7.12390989e-003 1.20911899e-003 1.55384932e-003
      4.90964437e-003 4.02159020e-002 1.69150621e-001 3.27156305e-001
      3.27156305e-001 1.17603742e-001 1.10684494e-002 1.15258731e-002
      7.02110352e-003 1.18223345e-002 5.67808002e-002 1.40605241e-001
      3.27156305e-001 2.03586861e-001 4.64620441e-002 1.02908546e-002
      2.83641188e-004 2.34775618e-003 2.87373792e-002 2.42667243e-001
      3.27156305e-001 3.27156305e-001 1.52191579e-001 1.42469881e-002
      4.81474474e-002 4.15892713e-002 7.57233948e-002 2.74640203e-001
      2.39837900e-001 9.24059823e-002 1.91659749e-001 2.94204473e-001
      9.99302939e-002 9.22390372e-002 6.02769293e-002 1.99640747e-002
      4.31470387e-002 1.49460688e-001 1.23868890e-001 2.94204473e-001
      2.94204473e-001 1.96082950e-001 1.18349120e-002 4.80900519e-003
      1.42604252e-002 8.22096989e-002 2.21280247e-001 2.94204473e-001
      2.94204473e-001 1.16030492e-001 1.88627653e-002 4.05740552e-002
      1.43299615e-002 1.07184872e-002 2.49616150e-002 1.11052252e-001
      1.64880127e-001 2.59882629e-001 2.94204473e-001 9.82107818e-002
      1.41978472e-001 7.63682127e-002 6.10947795e-002 7.46023804e-002
      2.31980234e-001 1.60240009e-001 2.32195377e-001 2.32195377e-001
      2.21798569e-001 1.19618759e-001 1.02918126e-001 7.31013343e-002
      4.86715622e-002 2.32195377e-001 2.22653031e-001 2.08656073e-001
      1.51471615e-001 1.35947257e-001 1.13795117e-001 4.19991612e-002
      1.59307327e-002 1.74338501e-002 1.29837379e-001 2.27240294e-001
      2.32195377e-001 2.02881038e-001 2.13398188e-001 1.39897242e-001
      1.11656137e-001 9.78787318e-002 1.25147384e-002 1.51641771e-001
      2.32195377e-001 2.32195377e-001 2.32195377e-001 2.32195377e-001
      1.85339265e-002 2.99721006e-002 2.01948471e-002 5.32675460e-002
      1.53424099e-001 2.11768180e-001 1.79835334e-001 1.28324524e-001
      2.46473979e-002 1.31336274e-002 2.33918056e-003 3.16685736e-002
      2.22563952e-001 2.95882434e-001 2.95882434e-001 2.09143221e-001
      4.34014015e-002 1.44643318e-002 5.93044199e-002 7.42169395e-002
      1.17531136e-001 1.29483104e-001 1.28506303e-001 1.73699379e-001
      2.86521554e-001 2.95882434e-001 1.67159453e-001 4.25468497e-002
      5.92170544e-002 2.95882434e-001 2.95882434e-001 2.95882434e-001
      7.22400844e-002 4.96934131e-002 1.87681258e-001 9.15008560e-002
      3.11656520e-002 5.64394426e-003 9.08405986e-003 1.00890826e-002
      3.73982526e-002 1.96341977e-001 3.18941742e-001 3.18941742e-001
      3.88109274e-002 5.29409423e-002 1.17592234e-002 5.79370791e-003
      6.68642577e-003 4.16503176e-002 5.60402796e-002 1.76948845e-001
      2.93263704e-001 1.69737458e-001 1.03330225e-001 7.79238576e-003
      2.62318179e-002 2.91372091e-002 2.78179310e-002 1.05580516e-001
      3.18941742e-001 3.18941742e-001 2.40701646e-001 2.36477256e-001
      5.63820265e-003 1.47257105e-003 1.10606174e-003 3.29964496e-002
      3.06587815e-002 2.22910449e-001 3.18941742e-001 3.18941742e-001
      1.33174524e-001 6.59057349e-002 2.75728013e-002 5.53650269e-003
      6.06840663e-002 1.09446108e-001 1.35218725e-001 1.31303892e-001
      2.44276866e-001 2.13124588e-001 2.72877544e-001 2.47239411e-001
      1.82968751e-002 5.75062260e-002 1.41458571e-001 2.37304792e-001
      2.23013490e-001 2.45195836e-001 2.72877544e-001 7.97743946e-002
      1.99988186e-002 1.59402064e-003 4.48223613e-002 3.40518169e-002
      6.78445101e-002 2.08596021e-001 2.72877544e-001 2.72877544e-001
      2.72877544e-001 1.90171570e-001 1.71315279e-002 7.47351423e-002
      6.93377182e-002 7.44810253e-002 1.16673775e-001 2.66086429e-001
      9.92154777e-002 2.86502719e-001 3.02646279e-001 6.98082000e-002
      5.80100641e-002 9.97968167e-002 1.51959628e-001 2.58398265e-001
      1.34063661e-001 4.33480628e-002 1.94648489e-001 3.02646279e-001
      3.02646279e-001 1.10774383e-001 3.74798551e-002 3.63859423e-002
      1.13603435e-001 7.92597234e-002 2.14164332e-001 3.02646279e-001
      3.02646279e-001 2.98461113e-002 5.19556552e-002 5.63435853e-002
      3.00788358e-002 3.94014828e-002 4.62285802e-002 2.68837344e-002
      3.02646279e-001 3.02646279e-001 6.32219464e-002 3.15255411e-002
      2.08683405e-002 1.01317177e-002 1.11779300e-002 1.72101464e-002</_>
    <_>
      7.18231052e-002 2.73036450e-001 2.73036450e-001 2.39786416e-001
      6.00786991e-002 2.92263143e-002 3.50874178e-002 6.77208081e-002
      4.46912050e-002 2.73036450e-001 2.73036450e-001 2.73036450e-001
      1.28087744e-001 1.13953963e-001 8.70723277e-002 6.65214136e-002
      6.67781234e-002 2.73036450e-001 4.40928750e-002 2.73036450e-001
      2.73036450e-001 2.73036450e-001 1.73117399e-001 8.43396336e-002
      6.06931746e-002 6.88202083e-002 4.60299663e-002 9.36039910e-002
      1.64356694e-001 1.49520516e-001 5.50834648e-002 1.35938808e-001
      1.37768239e-001 1.56353951e-001 1.42707542e-001 1.11966930e-001
      2.83489674e-001 1.12888135e-001 4.96984422e-002 5.64939193e-002
      1.39614314e-001 1.09138660e-001 8.44081268e-002 1.52692690e-001
      2.83489674e-001 2.83489674e-001 7.99552575e-002 2.86781974e-002
      3.77029143e-002 1.16608888e-001 2.59489387e-001 2.83489674e-001
      2.83489674e-001 2.83489674e-001 3.50703038e-002 2.55765263e-002
      3.44539881e-002 4.86028343e-002 2.24208370e-001 1.81944594e-001
      1.44574657e-001 8.65985304e-002 5.84197752e-002 6.17511943e-002
      8.62115696e-002 2.37953469e-001 1.45720497e-001 2.16459900e-001
      2.45914161e-001 1.47372231e-001 6.86061308e-002 4.09205034e-002
      5.96233308e-002 4.44182456e-002 2.33171470e-002 2.48025414e-002
      1.94799863e-002 5.08390069e-002 2.91981101e-001 2.91981101e-001
      9.69812647e-002 5.29037006e-002 3.96624096e-002 3.71004529e-002
      1.32832184e-001 2.91981101e-001 2.91981101e-001 2.91981101e-001
      2.91981101e-001 7.13511780e-002 3.67413051e-002 6.43235445e-002
      1.75256461e-001 9.07721892e-002 3.09827011e-002 4.48375046e-002
      1.09378532e-001 4.70902510e-002 2.77514253e-002 5.11238649e-002
      8.75250697e-002 1.81109682e-001 1.44473448e-001 2.81948566e-001
      2.91981101e-001 2.91981101e-001 1.92051724e-001 1.57571137e-001
      1.25864804e-001 2.16171533e-001 2.29926512e-001 1.27261803e-001
      1.64672419e-001 1.22663364e-001 9.33994129e-002 7.77133480e-002
      1.23547994e-001 1.04773581e-001 1.93640143e-001 2.07794920e-001
      8.32313150e-002 2.08177224e-001 8.37017223e-002 9.51955914e-002
      1.21354654e-001 1.01777561e-001 2.28272304e-001 2.29926512e-001
      1.96720198e-001 1.07261971e-001 2.29926512e-001 2.29926512e-001
      2.29926512e-001 2.29926512e-001 1.84776664e-001 8.86159539e-002
      2.29926512e-001 2.29926512e-001 1.72840014e-001 2.29926512e-001
      5.56271113e-002 5.73764518e-002 6.06297851e-002 6.02749884e-002
      3.25901732e-002 3.85187902e-002 5.98087013e-002 1.25948951e-001
      3.11213344e-001 1.39031857e-001 1.12383150e-001 9.09088850e-002
      4.59583253e-002 4.69411165e-002 1.60778075e-001 3.11213344e-001
      2.52499461e-001 3.11213344e-001 1.45715877e-001 7.54909292e-002
      2.39241309e-002 1.45584261e-002 2.37767063e-002 1.27209604e-001
      1.07356235e-001 2.22616583e-001 3.11213344e-001 1.03721097e-001
      3.98431234e-002 2.69991681e-002 1.96360145e-002 7.93356355e-003
      7.99069032e-002 1.80505693e-001 2.68007845e-001 3.11213344e-001
      3.11213344e-001 1.67275280e-001 4.22857292e-002 1.08176691e-003
      3.06658819e-002 1.40346229e-001 2.40531400e-001 1.56451583e-001
      1.19515590e-001 6.44024536e-002 7.75299668e-002 4.26181145e-002
      4.30425666e-002 3.47095840e-002 1.14220791e-001 2.40531400e-001
      2.40531400e-001 2.23134592e-001 1.76495448e-001 1.98778719e-001
      1.51468784e-001 1.54949784e-001 8.23940523e-003 6.35823458e-002
      1.66181341e-001 1.52848810e-001 2.22352162e-001 2.24512219e-001
      2.33264491e-001 8.12466592e-002 2.93171890e-002 5.81436306e-002
      5.96163347e-002 2.40531400e-001 2.40531400e-001 2.40531400e-001
      2.14535862e-001 2.40531400e-001 1.69332743e-001 1.98201180e-001
      9.73380208e-002 1.15108475e-001 1.10444203e-001 6.32536709e-002
      1.60973132e-001 1.89850152e-001 2.41383314e-001 2.41383314e-001
      1.18382521e-001 5.66369593e-002 1.56144738e-001 1.19432569e-001
      6.31989613e-002 1.41353667e-001 4.85498495e-002 1.53497621e-001
      1.61539242e-001 1.41021132e-001 2.14445964e-001 1.16816200e-001
      1.06523298e-001 7.19295219e-002 1.59691125e-001 1.34967566e-001
      2.41383314e-001 2.41383314e-001 2.09220096e-001 2.41383314e-001
      2.41383314e-001 1.57827735e-001 7.43109658e-002 1.26950905e-001
      1.01879850e-001 2.41383314e-001 2.41383314e-001 2.41383314e-001
      4.15650941e-002 8.28629136e-002 7.18247071e-002 6.85208589e-002
      1.68594971e-001 3.07339802e-002 6.22887239e-002 8.44023675e-002
      1.38965860e-001 3.14228497e-002 9.06300545e-002 1.91707134e-001
      1.55604482e-001 2.58568347e-001 1.15528800e-001 4.51743789e-002
      4.05151099e-002 6.70890957e-002 2.99322158e-001 2.99322158e-001
      9.73544195e-002 4.41930592e-002 6.12503290e-002 2.59068217e-002
      1.82372466e-001 2.10400224e-001 2.99322158e-001 2.99322158e-001
      2.99322158e-001 2.99322158e-001 1.18411355e-001 8.32161382e-002
      1.80907026e-002 5.17562777e-002 1.25833526e-001 2.99322158e-001
      1.47111928e-002 6.76927567e-002 2.39618450e-001 1.38338313e-001
      9.51653272e-002 8.45136568e-002 5.86361811e-002 2.48658732e-002
      2.51786690e-002 5.74119464e-002 8.04846957e-002 2.89930373e-001
      2.89930373e-001 2.89930373e-001 1.16499640e-001 5.64435795e-002
      4.85820509e-002 1.07783288e-001 2.42176682e-001 2.89930373e-001
      2.89930373e-001 9.18945447e-002 3.64800654e-002 1.42343761e-002
      8.00201111e-003 3.18740457e-002 8.43874514e-002 1.62497938e-001
      2.25702897e-001 2.89930373e-001 2.89930373e-001 2.89930373e-001
      1.50574133e-001 2.35758536e-002 3.66551131e-002 5.59075661e-002</_>
    <_>
      1.37536913e-001 2.80867696e-001 2.80867696e-001 1.37821853e-001
      1.06177077e-001 8.10536668e-002 3.51985544e-002 4.67450209e-002
      7.91452751e-002 1.33223936e-001 2.16423079e-001 2.45445237e-001
      1.20107718e-001 1.71012476e-001 1.75272807e-001 1.18036613e-001
      1.77536920e-001 6.57219142e-002 1.80118028e-002 1.52288839e-001
      2.80867696e-001 2.80867696e-001 2.80867696e-001 1.64590254e-001
      1.34185757e-002 6.70025218e-003 1.77652910e-002 1.47318998e-002
      9.09988061e-002 1.89260542e-001 2.80867696e-001 2.80867696e-001
      1.84190199e-001 1.95177365e-002 2.11348981e-002 1.82253867e-002
      1.35727674e-001 7.91258365e-002 6.72751144e-002 1.06428683e-001
      1.21930659e-001 1.77253619e-001 3.06369096e-001 3.42699051e-001
      2.04827756e-001 1.78985938e-001 4.04044874e-002 1.08942147e-002
      2.47206651e-002 3.15078869e-002 6.30151853e-002 2.94143736e-001
      3.42699051e-001 3.42699051e-001 5.42529412e-002 8.01053792e-002
      9.32737142e-002 1.84476033e-001 1.98714778e-001 1.24355674e-001
      5.92238642e-002 9.51687396e-002 6.40783906e-002 1.26723915e-001
      5.68848960e-002 4.19804789e-002 7.08684772e-002 5.68366833e-002
      5.43930531e-002 1.01810202e-001 2.79942364e-001 2.25857228e-001
      1.27555877e-001 4.84769084e-002 1.88455172e-002 7.84677546e-003
      8.75371620e-002 4.76019569e-002 8.62366632e-002 2.85255432e-001
      2.85255432e-001 8.46146867e-002 1.16698660e-001 5.43487482e-002
      6.53882623e-002 2.85255432e-001 2.85255432e-001 1.01267830e-001
      2.69548744e-001 2.85255432e-001 8.45012143e-002 2.79931296e-002
      3.09560746e-002 2.93391999e-002 7.53166452e-002 8.83096308e-002
      7.53405690e-002 2.49551550e-001 2.49218255e-001 5.75867929e-002
      6.00409098e-002 5.55982329e-002 8.04417282e-002 2.85255432e-001
      2.85255432e-001 1.47572458e-001 1.93629846e-001 2.26281434e-001
      3.34319077e-003 1.41562531e-002 1.51459962e-001 3.49413931e-001
      3.49413931e-001 1.27888426e-001 7.25757517e-003 5.72507270e-004
      3.00767156e-003 9.34244227e-003 1.96983553e-002 8.50832462e-002
      3.49413931e-001 2.84186095e-001 9.64026824e-002 1.53201250e-002
      1.72861889e-002 1.47063490e-002 6.48451550e-003 2.97518708e-002
      2.98815012e-001 3.49413931e-001 3.49413931e-001 8.28243271e-002
      1.18877105e-002 1.12452134e-002 1.17760273e-002 3.73219303e-003
      2.00959519e-002 8.63009766e-002 2.92934179e-001 2.21763670e-001
      7.07203895e-002 3.94092239e-002 2.47859880e-002 2.14889999e-002
      8.59334320e-002 1.02395490e-001 1.75796822e-001 2.40397021e-001
      2.40397021e-001 2.22060904e-001 1.00299105e-001 1.16826534e-001
      1.24730557e-001 1.54690847e-001 9.30202529e-002 1.54630125e-001
      2.20103249e-001 1.80590525e-001 1.38634518e-001 9.75585580e-002
      9.89696383e-002 1.64715543e-001 3.55824642e-002 9.16944370e-002
      1.67566061e-001 2.40397021e-001 2.40397021e-001 1.74660996e-001
      1.34962827e-001 1.52415678e-001 1.44717917e-001 1.41371846e-001
      1.23302169e-001 2.40397021e-001 2.40397021e-001 2.40397021e-001
      1.09841160e-001 6.51348680e-002 1.71446696e-001 2.02381760e-001
      4.45013568e-002 2.45150644e-002 6.58009797e-002 1.01138227e-001
      1.58830225e-001 1.21772431e-001 6.60104677e-002 3.88966464e-002
      5.71569838e-002 4.81732748e-002 2.23155897e-002 5.63141815e-002
      1.55157626e-001 4.05544341e-001 4.05544341e-001 9.47130769e-002
      4.82679047e-002 4.98074070e-002 6.40651882e-002 7.79154748e-002
      1.52691811e-001 1.19147979e-001 1.57933235e-001 5.37887029e-002
      2.83512045e-002 5.48589267e-002 7.54539371e-002 5.25671206e-002
      1.06328070e-001 1.94529206e-001 2.97721028e-001 4.05544341e-001
      4.05544341e-001 2.25069318e-002 1.71514023e-002 3.90892476e-002
      5.39469942e-002 1.00279465e-001 2.75604278e-001 2.75604278e-001
      2.75604278e-001 5.82894981e-002 3.93996686e-002 6.33346885e-002
      5.31660318e-002 2.44136285e-002 4.50046286e-002 1.41208410e-001
      2.13370234e-001 1.61249787e-001 4.98647951e-002 4.92413454e-002
      4.63422500e-002 2.94720586e-002 1.20941833e-001 1.42455786e-001
      2.75604278e-001 2.75604278e-001 2.75604278e-001 1.39143944e-001
      6.76885769e-002 7.31195882e-002 9.02973861e-002 2.75604278e-001
      1.97913721e-001 2.01150596e-001 2.39655435e-001 2.75604278e-001
      7.10052699e-002 7.53995553e-002 1.01088636e-001 1.80104509e-001
      2.93090623e-002 6.14659041e-002 8.84928852e-002 1.15504332e-001
      6.97793141e-002 2.50285957e-002 2.12165918e-002 3.13907899e-002
      3.77110280e-002 2.11105436e-001 1.64597839e-001 1.08141780e-001
      9.06504691e-002 3.86461169e-002 1.13030681e-002 7.63243344e-003
      3.90329957e-002 1.02107540e-001 3.49162072e-001 3.49162072e-001
      2.06027329e-001 1.24128692e-001 1.73046395e-001 4.61279936e-002
      5.23082055e-002 8.63298252e-002 2.56346166e-001 3.49162072e-001
      3.49162072e-001 2.22209066e-001 1.43816859e-001 8.75299424e-002
      2.22555026e-002 3.07546388e-002 5.08502051e-002 3.49162072e-001
      2.04991430e-001 1.39240056e-001 9.12188888e-002 3.69865187e-002
      2.42456533e-002 5.43113751e-003 2.98388861e-003 3.09238788e-002
      9.63041037e-002 1.21372737e-001 1.45730898e-001 2.05653518e-001
      1.36262104e-001 2.82152593e-001 1.31175712e-001 1.31251512e-003
      3.43420878e-002 8.07187632e-002 3.32494050e-001 3.13853323e-001
      7.26053640e-002 3.69750373e-002 2.58984659e-002 3.68054461e-004
      1.49557441e-002 9.28457975e-002 3.32494050e-001 3.32494050e-001
      2.45316058e-001 1.83386058e-001 7.56344423e-002 1.07435182e-001
      8.93047601e-002 4.52922098e-002 1.88182533e-001 3.32494050e-001</_>
    <_>
      1.96342707e-001 2.31829375e-001 2.47089088e-001 1.52339101e-001
      1.72311753e-001 5.76959699e-002 1.33412853e-002 6.70063794e-002
      1.88925892e-001 1.87596783e-001 2.48309135e-001 2.48309135e-001
      1.95899412e-001 1.77028343e-001 7.47757256e-002 3.92407924e-002
      1.35222465e-001 1.55997336e-001 2.48309135e-001 2.48309135e-001
      2.48309135e-001 7.15556443e-002 1.43182147e-002 5.94866835e-003
      2.79805511e-002 9.07968879e-002 2.11475924e-001 2.15000734e-001
      2.48309135e-001 2.48309135e-001 1.83727026e-001 3.57259959e-002
      3.24983187e-002 3.98806445e-002 9.44469571e-002 9.68838260e-002
      1.88206449e-001 1.95917815e-001 1.99533656e-001 1.19523540e-001
      1.39476120e-001 1.47533223e-001 6.14830218e-002 1.70124665e-001
      2.12609336e-001 2.12609336e-001 1.27310842e-001 1.66338459e-001
      1.28894866e-001 1.90744027e-001 2.12609336e-001 1.03772476e-001
      1.74792737e-001 2.12609336e-001 1.61800712e-001 1.20569974e-001
      1.92408070e-001 1.65032163e-001 8.70760158e-002 1.11159205e-001
      1.73207521e-001 2.12609336e-001 1.57566026e-001 1.71087965e-001
      9.98894125e-002 1.03816569e-001 1.43986180e-001 1.61091492e-001
      2.01263085e-001 1.89845368e-001 2.12609336e-001 1.83356076e-001
      2.50675857e-001 9.35071483e-002 5.37398048e-002 6.94462135e-002
      1.37916133e-001 1.32734820e-001 7.90438652e-002 1.26871437e-001
      2.33874604e-001 2.50675857e-001 4.94924225e-002 2.68412530e-002
      1.41912922e-001 2.50675857e-001 2.50675857e-001 1.91807806e-001
      1.85652658e-001 1.72631025e-001 1.90618113e-001 6.95714802e-002
      7.16732219e-002 1.21096984e-001 1.56564891e-001 1.75536990e-001
      9.28154737e-002 7.35275298e-002 1.12717763e-001 1.35863796e-001
      1.90079302e-001 2.50675857e-001 2.35954121e-001 2.50675857e-001
      2.50675857e-001 1.86053753e-001 6.57966807e-002 1.04332507e-001
      2.36864075e-001 2.04628289e-001 1.24078378e-001 5.49516380e-002
      5.22002727e-002 1.01463616e-001 1.57851711e-001 1.64973035e-001
      2.19703242e-001 1.51759893e-001 2.11105719e-001 2.36864075e-001
      2.36864075e-001 5.80857955e-002 6.24868572e-002 7.18798637e-002
      1.49448231e-001 1.28249824e-001 1.37873203e-001 5.70323728e-002
      7.00540319e-002 1.09963253e-001 1.80757135e-001 2.36864075e-001
      2.36864075e-001 2.36864075e-001 2.36864075e-001 8.63233134e-002
      8.93303603e-002 2.01656267e-001 1.71546221e-001 9.85079631e-002
      1.30912527e-001 1.25917509e-001 2.36864075e-001 2.36864075e-001
      8.17956626e-002 8.19579959e-002 2.35675275e-001 2.35761449e-001
      1.26150265e-001 1.11988947e-001 1.53404087e-001 2.35761449e-001
      1.12235926e-001 7.24805295e-002 5.25928028e-002 7.82441497e-002
      2.18173817e-001 2.35761449e-001 2.35761449e-001 1.91151053e-001
      2.35761449e-001 1.02179036e-001 4.82900739e-002 4.56332788e-002
      1.47719115e-001 2.35761449e-001 2.18754828e-001 1.58431739e-001
      6.81045130e-002 2.34457776e-001 1.77460611e-001 4.24098931e-002
      4.30017933e-002 7.32026771e-002 2.35761449e-001 2.35761449e-001
      2.35761449e-001 1.46439075e-001 1.61969349e-001 9.03376117e-002
      4.81917784e-002 4.31619547e-002 6.75805435e-002 1.36664346e-001
      1.98996514e-001 1.85929641e-001 7.43767619e-002 6.42623007e-002
      3.26319709e-002 5.96014261e-002 2.52554417e-001 3.08020949e-001
      3.08020949e-001 2.42989868e-001 2.24723384e-001 9.26977247e-002
      3.60863283e-002 5.65018356e-002 3.20661366e-002 9.69432369e-002
      1.03518590e-001 1.57373771e-001 2.40251735e-001 1.75565869e-001
      8.19209293e-002 9.06478986e-002 3.21497768e-002 3.95530425e-002
      2.13684380e-001 3.08020949e-001 3.08020949e-001 3.08020949e-001
      1.41198769e-001 3.21777724e-002 3.47609557e-002 2.05628425e-002
      1.38759315e-001 6.26111776e-002 5.44248112e-002 1.01876967e-001
      1.15681820e-001 2.36785635e-001 1.79101408e-001 2.40842775e-001
      2.13536918e-001 8.06564614e-002 5.25316224e-002 7.48054087e-002
      6.19641021e-002 5.51855452e-002 7.59864897e-002 1.36518583e-001
      3.26099366e-001 3.03780109e-001 3.26099366e-001 7.89260492e-002
      4.52656113e-002 7.17416108e-002 4.06251736e-002 1.39909863e-001
      9.17244405e-002 9.90595222e-002 3.26099366e-001 3.26099366e-001
      4.78646196e-002 6.10894039e-002 5.66133671e-002 3.47753204e-002
      4.66178879e-002 7.13974163e-002 1.19866848e-001 3.26099366e-001
      9.04523656e-002 4.05374467e-002 5.24973385e-002 9.59265456e-002
      1.20872393e-001 8.53784457e-002 5.71793392e-002 2.64050066e-001
      2.79124618e-001 7.76746199e-002 8.22614655e-002 8.48298743e-002
      1.77464068e-001 2.45368004e-001 2.02490255e-001 1.32485822e-001
      1.50267452e-001 1.53914437e-001 3.44819844e-001 4.52276580e-002
      3.86069790e-002 4.15550135e-002 5.21129370e-002 3.22924145e-002
      3.92489731e-002 9.52905118e-002 3.44819844e-001 3.44819844e-001
      9.55322087e-002 7.73708820e-002 9.80517492e-002 1.46537974e-001
      1.00991756e-001 1.13138199e-001 1.44931003e-001 3.44819844e-001
      2.07058676e-002 6.88809156e-002 8.06464925e-002 2.13049963e-001
      2.24826038e-001 7.81489238e-002 5.16106449e-002 4.28449176e-002
      1.99753065e-002 2.11201627e-002 9.66558978e-002 1.72800064e-001
      3.15892816e-001 3.15892816e-001 4.68575954e-002 6.92607230e-003
      9.92583204e-003 6.63027819e-003 2.64928669e-001 5.95827661e-002
      6.82458505e-002 3.15892816e-001 2.99917579e-001 8.48663524e-002
      5.96025661e-002 6.40992746e-002 2.41735309e-001 7.82325640e-002
      4.06653509e-002 1.53217286e-001 3.15892816e-001 3.15892816e-001
      8.63709673e-002 5.21256924e-002 8.31703916e-002 2.17391923e-001</_>
    <_>
      8.91080126e-002 2.63860554e-001 2.63860554e-001 1.03736967e-001
      1.44355923e-001 8.03995878e-002 7.63423592e-002 3.42690088e-002
      2.43689287e-002 2.63860554e-001 2.63860554e-001 2.58435547e-001
      5.30288108e-002 1.09427541e-001 3.24186534e-002 8.54623094e-002
      5.02543040e-002 6.47072271e-002 8.02141801e-002 1.81586161e-001
      2.63860554e-001 2.63860554e-001 1.53716192e-001 1.19302301e-002
      1.11426070e-001 1.54612973e-001 8.29845890e-002 2.46213883e-001
      2.24897474e-001 1.28290027e-001 8.72275308e-002 1.72560453e-001
      6.34996593e-002 2.63860554e-001 2.63860554e-001 1.21153437e-001
      2.54692107e-001 2.54692107e-001 1.07553802e-001 5.09173833e-002
      6.73520342e-002 1.69096980e-002 5.47280163e-002 5.39102815e-002
      2.28178367e-001 2.54692107e-001 5.32732867e-002 3.62767428e-002
      4.69836779e-002 7.94204921e-002 2.73462832e-002 1.42332599e-001
      2.54692107e-001 2.54692107e-001 2.54692107e-001 1.91581741e-001
      1.40544370e-001 1.64255992e-001 1.40743956e-001 8.11264515e-002
      2.54692107e-001 2.09349334e-001 1.80607408e-001 1.67675704e-001
      7.00327829e-002 1.59957543e-001 1.83880940e-001 1.79239228e-001
      6.13870211e-002 1.25689313e-001 2.26116389e-001 2.26364031e-001
      4.34068441e-002 1.98274548e-003 7.46747199e-003 8.02522991e-003
      2.55710836e-002 4.98429127e-002 3.23535413e-001 3.23535413e-001
      2.16018721e-001 4.95406287e-003 7.67733785e-004 2.25993944e-003
      5.02632698e-003 3.10721323e-002 1.44668236e-001 3.23535413e-001
      3.23535413e-001 5.19028716e-002 2.00718977e-002 9.92278848e-003
      2.80435532e-002 2.84811202e-002 9.70053524e-002 1.30888388e-001
      3.23535413e-001 2.36807644e-001 8.34099054e-002 2.71520833e-003
      1.93257933e-003 9.14043456e-004 2.18731053e-002 2.40148649e-001
      3.23535413e-001 3.23535413e-001 1.92612007e-001 2.54854374e-002
      4.76623848e-002 5.66734932e-002 1.38634324e-001 3.04867238e-001
      3.04867238e-001 1.10454410e-001 1.14540666e-001 1.98164210e-001
      6.80773407e-002 9.80645940e-002 3.91336158e-002 2.63707377e-002
      9.46575478e-002 1.44921258e-001 7.05424100e-002 3.04867238e-001
      3.04867238e-001 1.08524315e-001 1.35573708e-002 2.21126433e-003
      1.44862644e-002 1.50984734e-001 3.04867238e-001 3.04867238e-001
      2.82991290e-001 6.19527996e-002 1.29388049e-002 1.78216062e-002
      6.93731941e-003 1.65107027e-002 4.22979668e-002 1.20090283e-001
      1.54851153e-001 3.04867238e-001 2.13331670e-001 1.53825358e-002
      1.46498844e-001 3.74160074e-002 7.99435675e-002 9.66492593e-002
      9.92254689e-002 9.44297388e-002 2.80474573e-001 2.80474573e-001
      1.41091704e-001 1.14743114e-001 3.47911231e-002 1.15327097e-001
      1.07890852e-001 2.05054373e-001 1.70669615e-001 2.80474573e-001
      2.80474573e-001 1.62075058e-001 5.32819480e-002 1.13537228e-002
      3.46982367e-002 5.62700406e-002 8.67422223e-002 1.04177684e-001
      2.80474573e-001 2.80474573e-001 5.16928732e-002 1.28811821e-001
      3.03388331e-002 5.78976944e-002 7.98981786e-002 1.39910772e-001
      2.44442210e-001 2.80474573e-001 2.80474573e-001 1.37410730e-001
      2.77395565e-002 1.39715085e-002 2.72150170e-002 4.26080227e-002
      2.32479706e-001 1.65429115e-001 1.85706347e-001 1.27973869e-001
      4.83487062e-002 3.16287391e-003 2.98990402e-003 1.14485966e-002
      1.33220464e-001 3.06654781e-001 3.06654781e-001 2.59260237e-001
      4.19177301e-002 9.95836873e-003 6.08139113e-002 3.78245562e-002
      6.11253344e-002 9.87852886e-002 1.88274547e-001 1.26481920e-001
      3.06654781e-001 3.06654781e-001 1.26019701e-001 2.29897723e-002
      5.70104942e-002 2.31269151e-001 3.06654781e-001 3.06654781e-001
      1.27155229e-001 1.29084095e-001 1.56738594e-001 8.36353749e-002
      4.37398860e-003 7.96918932e-004 5.31736412e-004 5.70643554e-003
      1.19074613e-001 3.32386941e-001 3.32386941e-001 1.62247464e-001
      6.75510848e-003 1.16996197e-002 4.07163007e-003 8.12595244e-003
      1.29318386e-002 3.57209034e-002 8.93626884e-002 3.08641911e-001
      2.34943971e-001 5.55216372e-002 6.69117505e-003 2.01363466e-003
      3.79607733e-003 2.56084208e-003 2.43222583e-002 9.37067866e-002
      3.32386941e-001 3.32386941e-001 6.68294132e-002 7.05768391e-002
      9.49017995e-004 1.50142470e-003 1.66781992e-003 1.29602561e-002
      2.13797502e-002 3.32386941e-001 3.32386941e-001 3.32386941e-001
      7.68711269e-002 2.61384808e-002 3.38292755e-002 5.65687083e-002
      7.38539919e-002 7.45506808e-002 1.87766209e-001 2.22092897e-001
      1.01818658e-001 2.12545291e-001 1.90353945e-001 1.37934044e-001
      1.15238130e-001 7.67360404e-002 1.49518475e-001 2.79324085e-001
      2.79324085e-001 1.16726972e-001 2.79324085e-001 4.03011553e-002
      8.96085147e-003 7.70253548e-003 3.95753384e-002 3.71429585e-002
      1.17357872e-001 2.79324085e-001 2.79324085e-001 2.79324085e-001
      2.79324085e-001 1.96447670e-001 5.69804236e-002 7.09975362e-002
      6.62202761e-002 7.48766512e-002 1.58737034e-001 2.79324085e-001
      8.42423961e-002 2.05900744e-001 1.94454893e-001 8.34416375e-002
      7.22966120e-002 6.98963702e-002 2.63311446e-001 2.98608452e-001
      1.01036541e-001 3.67378779e-002 1.53976321e-001 2.98608452e-001
      2.98608452e-001 2.14936331e-001 4.37786803e-002 9.81237814e-002
      1.17973827e-001 8.20816830e-002 1.87107012e-001 2.98608452e-001
      2.98608452e-001 5.32108583e-002 5.88891096e-002 3.53841409e-002
      4.61374223e-002 6.93885088e-002 4.86594215e-002 4.54512537e-002
      2.98608452e-001 2.98608452e-001 1.57075673e-001 7.05484822e-002
      1.74595322e-002 2.28217784e-002 1.99572165e-002 2.56755054e-002</_>
    <_>
      1.10997342e-001 2.48365968e-001 2.74730295e-001 1.51928619e-001
      5.49275950e-002 8.70669708e-002 2.64253885e-001 9.71093997e-002
      9.56174880e-002 5.07503524e-002 9.21866149e-002 1.43548682e-001
      8.98625851e-002 3.15740705e-002 1.39035985e-001 2.74730295e-001
      2.74730295e-001 2.11478770e-001 1.12808175e-001 1.17853932e-001
      1.78061172e-001 1.33004159e-001 6.13684431e-002 1.39828816e-001
      2.74730295e-001 1.97162569e-001 2.00639635e-001 7.29738325e-002
      4.94344272e-002 7.19748437e-002 5.10352179e-002 1.42093152e-002
      1.00402609e-001 2.74730295e-001 2.74730295e-001 1.97998554e-001
      5.99636175e-002 9.96952131e-003 1.65073872e-002 1.51669160e-002
      2.07636654e-002 7.40391985e-002 2.47630656e-001 2.70419449e-001
      2.70419449e-001 8.34478214e-002 1.02478201e-002 3.08442693e-002
      2.61029489e-002 9.01379883e-002 2.70419449e-001 2.70419449e-001
      2.70419449e-001 2.70419449e-001 5.46434447e-002 9.60328896e-003
      6.91370480e-003 4.77482006e-003 7.53624132e-003 3.43935564e-002
      2.26631656e-001 2.70419449e-001 2.70419449e-001 9.20263082e-002
      1.95673686e-002 3.42834890e-002 2.27062348e-002 6.30247965e-002
      1.85423002e-001 2.70419449e-001 2.70419449e-001 2.70419449e-001
      1.75921217e-001 4.27853875e-002 6.05213866e-002 6.41054958e-002
      1.33799613e-001 2.38496453e-001 2.38496453e-001 2.05689982e-001
      2.31099457e-001 1.83359683e-001 7.45967403e-002 7.37741962e-002
      1.00518882e-001 1.54742390e-001 2.38496453e-001 2.38496453e-001
      9.89192054e-002 1.84067935e-001 1.67042211e-001 4.61624078e-002
      5.93212657e-002 6.23021126e-002 1.51392087e-001 2.38496453e-001
      2.38496453e-001 1.90032825e-001 2.38496453e-001 1.22049861e-001
      6.57835826e-002 8.02086964e-002 1.34318963e-001 2.38496453e-001
      2.38496453e-001 2.02862278e-001 6.60093725e-002 1.53308555e-001
      1.43605009e-001 2.91084703e-002 8.43984261e-003 5.07329926e-002
      3.04293372e-002 1.01420201e-001 2.57527977e-001 2.91241407e-001
      2.91241407e-001 8.87532383e-002 1.03238998e-002 5.40333102e-003
      3.33597288e-002 3.46039757e-002 1.07626103e-001 2.21843332e-001
      2.91241407e-001 2.12108508e-001 1.07443914e-001 1.43481186e-002
      8.52774270e-003 1.50864730e-002 1.47150150e-002 4.83989194e-002
      2.66164273e-001 2.91241407e-001 2.91241407e-001 7.85771459e-002
      1.56022515e-002 9.40695126e-003 2.80456748e-002 4.33149114e-002
      1.27788410e-001 2.91241407e-001 2.91241407e-001 2.73182780e-001
      9.17293504e-002 1.86530687e-002 1.62079744e-002 3.11635621e-002
      1.13750033e-001 1.31395638e-001 2.14129061e-001 2.44155556e-001
      2.44155556e-001 1.52425736e-001 8.27037245e-002 6.83426857e-002
      7.04373866e-002 9.81627107e-002 1.31345063e-001 2.38975897e-001
      2.44155556e-001 2.44155556e-001 1.43431723e-001 6.87349811e-002
      5.43801859e-002 7.63645992e-002 1.72033861e-001 2.27710977e-001
      2.29522556e-001 2.44155556e-001 2.44155556e-001 2.37581775e-001
      1.94697887e-001 1.88155293e-001 1.79809570e-001 1.42611086e-001
      1.38881639e-001 9.01271552e-002 1.28012732e-001 1.88937858e-001
      2.08496407e-001 1.49418056e-001 9.03112963e-002 6.72650337e-002
      9.75387692e-002 1.20503969e-001 1.19887918e-001 1.59087896e-001
      2.55746663e-001 1.57864168e-001 1.70679271e-001 1.31644204e-001
      1.42749727e-001 2.56462187e-001 1.77271992e-001 1.11816496e-001
      1.21174619e-001 1.20066397e-001 2.56462187e-001 2.12156013e-001
      1.40910581e-001 7.66735077e-002 7.23038688e-002 7.12925121e-002
      1.46562621e-001 1.58245206e-001 2.12576374e-001 2.34195367e-001
      1.84239998e-001 9.96346101e-002 4.29026745e-002 9.00995210e-002
      1.21411793e-001 2.56462187e-001 2.56462187e-001 2.56462187e-001
      4.21570353e-002 1.57284476e-002 3.63481864e-002 3.60222422e-002
      1.43375443e-002 6.20127469e-002 2.65138000e-001 2.70938665e-001
      2.70938665e-001 5.30343354e-002 3.30382213e-002 1.91413704e-002
      1.29148569e-002 1.39401453e-002 7.97447041e-002 2.58036137e-001
      2.70938665e-001 2.70938665e-001 1.50225395e-002 4.25351262e-002
      1.01332352e-001 1.72402158e-001 1.04258239e-001 1.35205239e-001
      2.70938665e-001 2.69334286e-001 2.52075434e-001 1.60954520e-001
      7.22535849e-002 4.96063828e-002 3.53101976e-002 6.50295094e-002
      8.45102668e-002 2.70938665e-001 2.70938665e-001 2.70938665e-001
      1.38881981e-001 6.41547740e-002 4.76152375e-002 2.93586347e-002
      2.79031303e-002 8.80467519e-002 1.71317115e-001 2.79226482e-001
      2.79226482e-001 1.54100090e-001 9.64523032e-002 1.11741856e-001
      8.70747864e-002 5.55921271e-002 1.35797530e-001 1.70289427e-001
      1.29879877e-001 1.79711357e-001 2.79226482e-001 1.10747762e-001
      6.34997785e-002 3.33505608e-002 6.22457936e-002 8.23292956e-002
      2.55971581e-001 2.79226482e-001 2.79226482e-001 2.79226482e-001
      1.07671119e-001 9.02238935e-002 7.25426450e-002 8.16028118e-002
      1.78735986e-001 2.48228148e-001 1.24132767e-001 2.79226482e-001
      2.05433249e-001 1.01964891e-001 1.00000381e-001 9.12430435e-002
      7.94681832e-002 1.02569617e-001 2.66763508e-001 1.46519348e-001
      1.58509851e-001 1.51745498e-001 4.84977067e-002 3.88679691e-002
      3.60753424e-002 4.73337360e-002 1.15893893e-001 2.99350530e-001
      2.99350530e-001 2.84440637e-001 2.03034595e-001 8.24775994e-002
      7.23374411e-002 9.06341448e-002 1.08026534e-001 1.31864324e-001
      1.99874416e-001 7.11934268e-002 2.51310766e-001 1.63096815e-001
      5.41260913e-002 5.23424223e-002 7.44418800e-002 7.79068321e-002
      5.26512712e-002 2.99350530e-001 2.51278251e-001 2.98982382e-001</_>
    <_>
      5.92225268e-002 1.12466559e-001 1.51264250e-001 2.86703557e-001
      2.86703557e-001 2.86703557e-001 7.31028467e-002 3.98013256e-002
      7.24782571e-002 4.80435118e-002 6.57627285e-002 1.30974784e-001
      1.99350193e-001 2.43536741e-001 9.98176038e-002 6.76371977e-002
      2.41598599e-002 5.33075891e-002 1.06298283e-001 1.21894732e-001
      1.61220133e-001 2.86703557e-001 2.86703557e-001 2.86703557e-001
      2.86703557e-001 1.49482489e-001 1.25920489e-001 8.35934579e-002
      4.13040966e-002 8.37042183e-002 1.46696433e-001 1.65483892e-001
      1.96176231e-001 1.41969770e-001 1.03314117e-001 7.38425478e-002
      1.22612275e-001 7.80484006e-002 1.39584839e-001 1.24188684e-001
      1.43221810e-001 1.12366341e-001 2.02762172e-001 6.11105040e-002
      7.96969160e-002 2.27598235e-001 2.27598235e-001 2.10370570e-001
      2.23092273e-001 2.27598235e-001 1.61733553e-001 1.26742601e-001
      7.90678561e-002 9.84203592e-002 1.53177887e-001 1.36538237e-001
      1.26610294e-001 8.93632695e-002 1.53186128e-001 1.84372321e-001
      2.27598235e-001 1.61930114e-001 1.18311226e-001 1.66996688e-001
      2.27598235e-001 2.27598235e-001 2.27598235e-001 2.27598235e-001
      2.27598235e-001 1.66554675e-001 8.52982998e-002 1.10712022e-001
      7.76096582e-002 2.12945849e-001 2.40967989e-001 2.23036826e-001
      1.84302136e-001 1.04145385e-001 6.81840479e-002 6.54322952e-002
      6.67013749e-002 5.70789538e-002 2.23374188e-001 2.40967989e-001
      2.40967989e-001 2.40967989e-001 1.18232131e-001 1.38229579e-001
      1.15698665e-001 9.46791247e-002 3.91463451e-002 1.62546247e-001
      1.65473968e-001 1.49762481e-001 2.15515003e-001 2.12708265e-001
      8.76401514e-002 5.32007143e-002 7.05274865e-002 3.46919224e-002
      1.72471598e-001 2.40967989e-001 2.40967989e-001 2.40967989e-001
      2.40967989e-001 1.74105495e-001 1.06887601e-001 8.68352950e-002
      7.35617951e-002 5.54093905e-002 6.79149702e-002 1.23144120e-001
      1.86492473e-001 2.55487472e-001 2.55487472e-001 1.01982154e-001
      5.52876145e-002 6.91901073e-002 4.85071838e-002 3.96920145e-002
      5.79561517e-002 9.07591507e-002 2.55487472e-001 1.97781771e-001
      1.00247689e-001 7.40563497e-002 8.49518180e-002 2.49699920e-001
      2.06842273e-001 2.55487472e-001 2.55487472e-001 2.55487472e-001
      1.96359202e-001 2.85355505e-002 2.51777433e-002 7.19671026e-002
      2.33965442e-001 2.55487472e-001 2.55487472e-001 1.60675034e-001
      2.24877283e-001 1.53365955e-001 8.64638910e-002 6.43386394e-002
      1.04746401e-001 1.47850171e-001 8.49330723e-002 5.96151911e-002
      6.91708177e-002 1.30779967e-001 2.41872251e-001 1.66951716e-001
      1.07058451e-001 1.15019642e-001 1.37704581e-001 1.16793513e-001
      1.13193788e-001 7.15572909e-002 1.77168638e-001 2.27304652e-001
      9.97197926e-002 1.21430010e-001 1.65766716e-001 2.30633423e-001
      2.47574165e-001 2.47574165e-001 1.23147249e-001 2.33136401e-001
      2.47574165e-001 2.47574165e-001 1.58226788e-001 1.32499561e-001
      1.07969001e-001 6.82057962e-002 9.10896435e-002 6.92199320e-002
      2.47574165e-001 2.47574165e-001 2.14023218e-001 1.64161369e-001
      7.61251673e-002 8.75532478e-002 6.49337023e-002 1.17496595e-001
      1.21908188e-001 2.33524159e-001 1.48878336e-001 9.25683603e-002
      1.65995583e-001 2.90310998e-002 9.64481905e-002 1.29393503e-001
      2.56490201e-001 2.56490201e-001 2.56490201e-001 2.56490201e-001
      1.49332225e-001 9.80799869e-002 8.40774104e-002 5.54577410e-002
      4.61552925e-002 1.06870063e-001 1.12119898e-001 2.20234826e-001
      2.11945727e-001 1.62324533e-001 2.08761677e-001 3.36794145e-002
      4.37095612e-002 1.23464152e-001 2.56490201e-001 2.56490201e-001
      2.56490201e-001 2.36037612e-001 1.75020024e-001 1.21230386e-001
      8.97653848e-002 2.48388171e-001 2.48388171e-001 2.48388171e-001
      2.48388171e-001 1.61625057e-001 7.44643137e-002 3.21727470e-002
      2.08466612e-002 5.19095361e-002 2.48388171e-001 2.48388171e-001
      2.48388171e-001 1.58329099e-001 6.11206107e-002 6.48330525e-002
      7.17792213e-002 5.36445789e-002 2.26362094e-001 2.48388171e-001
      2.48388171e-001 2.38931850e-001 2.48388171e-001 1.31553054e-001
      6.79588243e-002 9.99286473e-002 1.11632228e-001 6.53853118e-002
      1.53361678e-001 1.98145613e-001 1.57397851e-001 1.60921976e-001
      7.36360699e-002 6.40096739e-002 8.89828205e-002 8.80889371e-002
      1.02866016e-001 1.53754786e-001 2.30685383e-001 1.93119884e-001
      9.60889161e-002 1.93659320e-001 2.30685383e-001 2.26493850e-001
      1.73471838e-001 9.32588950e-002 6.88110068e-002 5.77520132e-002
      7.80552849e-002 1.15806609e-001 2.30685383e-001 2.30685383e-001
      1.84123918e-001 1.20549366e-001 9.04401094e-002 1.13072298e-001
      1.01650037e-001 1.20278597e-001 7.03640804e-002 1.53930977e-001
      2.30685383e-001 2.12494627e-001 2.08157614e-001 1.51226684e-001
      8.45837444e-002 4.57917936e-002 1.68149084e-001 1.94361329e-001
      2.30685383e-001 2.30685383e-001 2.30685383e-001 1.62948176e-001
      5.45629710e-002 5.40448278e-002 5.69813289e-002 8.50259364e-002
      1.84969574e-001 1.78522483e-001 1.67605296e-001 9.67748314e-002
      8.66486505e-002 3.92680317e-002 5.14778383e-002 1.01112381e-001
      1.23669125e-001 2.64820099e-001 2.64820099e-001 2.08127975e-001
      1.17067628e-001 6.64388463e-002 8.41639712e-002 6.64396212e-002
      6.03519231e-002 1.03775412e-001 2.64820099e-001 2.64820099e-001
      2.64820099e-001 2.35823095e-001 4.47406396e-002 3.03065516e-002
      8.44047964e-002 2.05977276e-001 2.55059332e-001 2.64820099e-001
      2.64820099e-001 2.64820099e-001 1.35855243e-001 1.55568449e-002</_>
    <_>
      7.92339146e-002 2.05738038e-001 2.21111342e-001 1.55491441e-001
      2.21111342e-001 2.21111342e-001 6.28228411e-002 3.55710126e-002
      5.02168760e-002 2.21111342e-001 2.21111342e-001 2.00721234e-001
      1.58815175e-001 2.21111342e-001 2.20055923e-001 8.62138495e-002
      1.16988003e-001 1.96304992e-001 7.98944607e-002 1.84088737e-001
      2.21111342e-001 2.21111342e-001 2.21111342e-001 1.20161012e-001
      1.31856531e-001 8.79342854e-002 1.00685589e-001 1.59037858e-001
      1.61759734e-001 2.13035807e-001 1.45438373e-001 1.54602438e-001
      1.27659693e-001 1.16008550e-001 1.28756285e-001 1.59601256e-001
      1.70305192e-001 9.43711549e-002 8.15920457e-002 1.22746840e-001
      1.49599776e-001 1.62800282e-001 1.43436968e-001 2.58589327e-001
      2.75586754e-001 6.57407194e-002 1.22104622e-002 2.88942959e-002
      1.20723031e-001 1.33613124e-001 2.75586754e-001 2.75586754e-001
      2.75586754e-001 2.75586754e-001 9.32558402e-002 4.22260873e-002
      2.32972354e-002 3.80530953e-002 7.90672526e-002 1.29613683e-001
      1.67123437e-001 2.07837746e-001 1.48521692e-001 3.68543677e-002
      2.10989658e-002 1.08593274e-002 4.94337976e-002 7.69702792e-002
      2.73651391e-001 2.75586754e-001 2.75586754e-001 1.34294167e-001
      2.76475623e-002 1.47999320e-002 2.15107612e-002 3.64952609e-002
      5.40633164e-002 2.16335773e-001 3.25920343e-001 3.05549711e-001
      1.02204174e-001 4.15237024e-002 2.02474147e-002 1.43367611e-002
      1.24267861e-002 6.01842366e-002 1.69830352e-001 2.66172230e-001
      1.53858811e-001 5.64428568e-002 2.01298241e-002 1.13889528e-002
      9.93715320e-003 2.38313060e-002 5.26081957e-002 2.52942353e-001
      3.25920343e-001 3.25920343e-001 6.74772710e-002 8.05106536e-002
      2.89935004e-002 1.50603615e-002 1.26069793e-002 7.21546486e-002
      2.85671115e-001 3.25920343e-001 3.25920343e-001 9.81091335e-002
      7.27833807e-002 1.16015084e-001 1.97355166e-001 2.65547842e-001
      2.65547842e-001 1.77710906e-001 2.23644555e-001 1.48036644e-001
      1.34291857e-001 7.26988390e-002 6.89197183e-002 1.00286625e-001
      1.13361642e-001 1.14922486e-001 1.05394863e-001 1.45393699e-001
      1.43570200e-001 1.56159639e-001 9.77783501e-002 1.14046767e-001
      9.21318308e-002 2.21867010e-001 2.65547842e-001 2.65547842e-001
      2.65547842e-001 2.65547842e-001 1.37660921e-001 9.51904431e-002
      6.84493780e-002 6.35431483e-002 7.84434974e-002 9.02416259e-002
      1.69706956e-001 2.60248333e-001 1.61828369e-001 1.32562488e-001
      7.83210918e-002 5.36230654e-002 6.03001714e-002 9.25324410e-002
      1.70540154e-001 1.73973829e-001 2.16316402e-001 2.24353194e-001
      1.66928902e-001 8.11281204e-002 4.90199141e-002 3.98801677e-002
      8.80601630e-002 2.76159465e-001 2.67004430e-001 2.76159465e-001
      2.76159465e-001 1.33366838e-001 1.03588998e-001 9.44759995e-002
